Target_ID,embedding_0,embedding_1,embedding_2,embedding_3,embedding_4,embedding_5,embedding_6,embedding_7,embedding_8,embedding_9,embedding_10,embedding_11,embedding_12,embedding_13,embedding_14,embedding_15,embedding_16,embedding_17,embedding_18,embedding_19,embedding_20,embedding_21,embedding_22,embedding_23,embedding_24,embedding_25,embedding_26,embedding_27,embedding_28,embedding_29,embedding_30,embedding_31,embedding_32,embedding_33,embedding_34,embedding_35,embedding_36,embedding_37,embedding_38,embedding_39,embedding_40,embedding_41,embedding_42,embedding_43,embedding_44,embedding_45,embedding_46,embedding_47,embedding_48,embedding_49,embedding_50,embedding_51,embedding_52,embedding_53,embedding_54,embedding_55,embedding_56,embedding_57,embedding_58,embedding_59,embedding_60,embedding_61,embedding_62,embedding_63,embedding_64,embedding_65,embedding_66,embedding_67,embedding_68,embedding_69,embedding_70,embedding_71,embedding_72,embedding_73,embedding_74,embedding_75,embedding_76,embedding_77,embedding_78,embedding_79,embedding_80,embedding_81,embedding_82,embedding_83,embedding_84,embedding_85,embedding_86,embedding_87,embedding_88,embedding_89,embedding_90,embedding_91,embedding_92,embedding_93,embedding_94,embedding_95,embedding_96,embedding_97,embedding_98,embedding_99,embedding_100,embedding_101,embedding_102,embedding_103,embedding_104,embedding_105,embedding_106,embedding_107,embedding_108,embedding_109,embedding_110,embedding_111,embedding_112,embedding_113,embedding_114,embedding_115,embedding_116,embedding_117,embedding_118,embedding_119,embedding_120,embedding_121,embedding_122,embedding_123,embedding_124,embedding_125,embedding_126,embedding_127,embedding_128,embedding_129,embedding_130,embedding_131,embedding_132,embedding_133,embedding_134,embedding_135,embedding_136,embedding_137,embedding_138,embedding_139,embedding_140,embedding_141,embedding_142,embedding_143,embedding_144,embedding_145,embedding_146,embedding_147,embedding_148,embedding_149,embedding_150,embedding_151,embedding_152,embedding_153,embedding_154,embedding_155,embedding_156,embedding_157,embedding_158,embedding_159,embedding_160,embedding_161,embedding_162,embedding_163,embedding_164,embedding_165,embedding_166,embedding_167,embedding_168,embedding_169,embedding_170,embedding_171,embedding_172,embedding_173,embedding_174,embedding_175,embedding_176,embedding_177,embedding_178,embedding_179,embedding_180,embedding_181,embedding_182,embedding_183,embedding_184,embedding_185,embedding_186,embedding_187,embedding_188,embedding_189,embedding_190,embedding_191,embedding_192,embedding_193,embedding_194,embedding_195,embedding_196,embedding_197,embedding_198,embedding_199,embedding_200,embedding_201,embedding_202,embedding_203,embedding_204,embedding_205,embedding_206,embedding_207,embedding_208,embedding_209,embedding_210,embedding_211,embedding_212,embedding_213,embedding_214,embedding_215,embedding_216,embedding_217,embedding_218,embedding_219,embedding_220,embedding_221,embedding_222,embedding_223,embedding_224,embedding_225,embedding_226,embedding_227,embedding_228,embedding_229,embedding_230,embedding_231,embedding_232,embedding_233,embedding_234,embedding_235,embedding_236,embedding_237,embedding_238,embedding_239,embedding_240,embedding_241,embedding_242,embedding_243,embedding_244,embedding_245,embedding_246,embedding_247,embedding_248,embedding_249,embedding_250,embedding_251,embedding_252,embedding_253,embedding_254,embedding_255,embedding_256,embedding_257,embedding_258,embedding_259,embedding_260,embedding_261,embedding_262,embedding_263,embedding_264,embedding_265,embedding_266,embedding_267,embedding_268,embedding_269,embedding_270,embedding_271,embedding_272,embedding_273,embedding_274,embedding_275,embedding_276,embedding_277,embedding_278,embedding_279,embedding_280,embedding_281,embedding_282,embedding_283,embedding_284,embedding_285,embedding_286,embedding_287,embedding_288,embedding_289,embedding_290,embedding_291,embedding_292,embedding_293,embedding_294,embedding_295,embedding_296,embedding_297,embedding_298,embedding_299,embedding_300,embedding_301,embedding_302,embedding_303,embedding_304,embedding_305,embedding_306,embedding_307,embedding_308,embedding_309,embedding_310,embedding_311,embedding_312,embedding_313,embedding_314,embedding_315,embedding_316,embedding_317,embedding_318,embedding_319
CHEMBL1824,0.05925209820270538,-0.07889748364686966,0.03881704807281494,0.008689191192388535,0.1666220873594284,-0.14105352759361267,-0.00592090655118227,0.05844904109835625,-0.02605871669948101,-0.10353706032037735,0.23506410419940948,0.06111694127321243,-0.07708706706762314,0.07352595031261444,0.06968241930007935,-0.194267138838768,0.07549667358398438,-0.16378827393054962,-0.11176995187997818,0.11848584562540054,-0.04372271150350571,-0.14246506989002228,-0.05744083598256111,0.07812229543924332,-0.02432740479707718,0.19532229006290436,0.05839777737855911,0.024098364636301994,0.0921890065073967,0.19145546853542328,-0.11931686848402023,0.1082695946097374,0.15362805128097534,-0.18016919493675232,0.021880848333239555,-0.30125588178634644,0.2049037367105484,0.11519085615873337,-0.04471311718225479,-0.014595244079828262,-0.040476009249687195,0.022926094010472298,0.2687878906726837,0.06552000343799591,-0.06586986035108566,0.15142583847045898,-0.9371910095214844,0.031881023198366165,-0.11501407623291016,-0.1288808137178421,-0.10643452405929565,0.04217209294438362,0.031056558713316917,0.26413694024086,-0.06890684366226196,-0.14394964277744293,0.21272504329681396,0.03198842704296112,0.3757856786251068,-0.19520899653434753,0.03936134651303291,0.028148723766207695,-4.017786026000977,-0.12978298962116241,-0.1213328167796135,-0.11114294081926346,0.04637133702635765,0.2178957760334015,-0.09209732711315155,0.01804177835583687,-0.2504395544528961,0.1881820261478424,-0.04676380380988121,0.0820460245013237,0.05500862002372742,-0.09372503310441971,0.04334712401032448,-0.19144144654273987,-0.11879213899374008,-0.031446926295757294,0.11552648991346359,0.02359003573656082,0.12027093768119812,0.004258397966623306,-0.08540662378072739,-0.1556670367717743,0.22379636764526367,-0.04395493119955063,-0.17215991020202637,0.3211252689361572,-0.13172481954097748,-0.06611163169145584,-0.07133790105581284,-0.030865119770169258,-0.264551043510437,0.24731776118278503,0.08856108784675598,-0.019456246867775917,0.15162347257137299,0.07303459942340851,0.11006027460098267,0.07850109040737152,0.12173505872488022,-0.10557970404624939,-0.010911649093031883,0.24896448850631714,-0.05445096269249916,0.044351741671562195,-0.021958868950605392,-0.02864096499979496,-0.04085016995668411,0.12346372753381729,0.21022167801856995,-0.11967921257019043,-0.1897689402103424,0.013959168456494808,0.02374155819416046,0.27149903774261475,-0.16414734721183777,0.20373551547527313,0.08983441442251205,0.13606488704681396,0.29861360788345337,0.19625040888786316,-0.008372745476663113,-0.19928205013275146,-0.2654702365398407,-0.2671346664428711,-0.16982457041740417,0.024812670424580574,0.028865337371826172,0.007912490516901016,-0.2706279754638672,0.13146479427814484,0.22212398052215576,-0.02069857530295849,-0.12573038041591644,-0.17211252450942993,0.030678128823637962,-0.15216879546642303,0.12594471871852875,0.002530354307964444,0.17202624678611755,-0.0260041244328022,-0.18983222544193268,-0.1167556643486023,-0.1450272798538208,0.13496318459510803,-0.26232460141181946,0.1785801500082016,-0.015317370183765888,-0.18458008766174316,-0.24662652611732483,-0.29731860756874084,-0.1079912781715393,-0.00855577364563942,0.018950853496789932,0.04184967651963234,-0.020938541740179062,-0.06515614688396454,-0.013855021446943283,-0.10661888867616653,-0.026623858138918877,0.06177728250622749,-0.05002209544181824,-0.03462968394160271,0.061124589294195175,-0.013454379513859749,-0.07392425090074539,0.042107466608285904,0.16102108359336853,-0.06535760313272476,0.05046479403972626,0.16211053729057312,0.009730137884616852,0.08324980735778809,0.19100916385650635,-0.0137275205925107,0.02332795038819313,-0.12895645201206207,0.15133360028266907,-0.38410937786102295,0.13550186157226562,0.015464330092072487,0.040582116693258286,-0.016115663573145866,-0.0871788039803505,0.15288853645324707,-0.10726776719093323,-0.19829122722148895,-0.15321648120880127,0.11074291169643402,0.2627902328968048,0.08782485872507095,0.09831347316503525,0.10234660655260086,-0.21000784635543823,0.12249366194009781,0.055516328662633896,0.11063439399003983,-0.0418587327003479,0.16033990681171417,0.028819676488637924,0.15426313877105713,0.01499639730900526,0.014202730730175972,-0.1749098151922226,0.10455549508333206,-0.0034324340522289276,0.06935366243124008,0.05240233987569809,-0.15065470337867737,-0.03502310439944267,-0.025183847174048424,0.004052093718200922,0.2397325038909912,-0.14534156024456024,-0.06083814054727554,0.041300758719444275,-0.06821755319833755,-0.20382709801197052,0.04632341489195824,0.07146298885345459,0.0321301594376564,0.1344112753868103,-0.023888349533081055,-0.16003157198429108,-0.12164760380983353,0.035237330943346024,-0.03985242173075676,-0.0543229766190052,0.03063281625509262,0.10662434250116348,-0.022481052204966545,0.09467028081417084,-0.05650283023715019,0.08035571128129959,-0.06114877760410309,-0.01172570325434208,0.12873443961143494,0.037026651203632355,-0.1075512170791626,0.11495059728622437,0.026054704561829567,-0.09647408127784729,0.022629451006650925,0.0706552192568779,-0.05903737619519234,0.12802071869373322,-0.03765975311398506,-0.19088533520698547,-0.1300271898508072,-0.0022710408084094524,-0.062425121665000916,-0.2098150998353958,0.04735708609223366,-0.0204950999468565,-0.017426570877432823,0.13437636196613312,0.02250482887029648,0.13584300875663757,-0.05363469943404198,-0.19521862268447876,-0.06095704063773155,0.08006620407104492,0.01583820953965187,-0.11551742255687714,-0.1252647191286087,0.09787439554929733,-0.057336434721946716,0.13865970075130463,0.18218858540058136,0.0969214215874672,0.20894111692905426,0.06222107633948326,0.01510733924806118,-0.10188200324773788,0.028517886996269226,-0.026879746466875076,0.06905277073383331,0.023026801645755768,-0.11641091853380203,0.18602870404720306,-0.04526286572217941,0.3269765079021454,0.056913718581199646,-0.09560803323984146,0.1529482901096344,0.08978193998336792,-0.048156894743442535,-0.004490784835070372,-0.20385275781154633,0.10335316509008408,0.13102948665618896,-0.021976277232170105,-0.14065632224082947,-0.14090992510318756,0.14887546002864838,-0.34890347719192505,0.27331456542015076,-0.056497722864151,-0.00439768610522151,-0.13623639941215515,0.23596589267253876,0.005656983703374863,-0.054045118391513824,-0.14729823172092438,-0.03825172036886215,-0.07077656686306,-0.028905991464853287,0.21532297134399414,-0.026166191324591637,0.03761187568306923,0.14070914685726166,-0.052832331508398056,-0.07942294329404831,0.002119867131114006,0.26462823152542114,-0.06854436546564102,-0.0755276158452034
CHEMBL203,0.06952214241027832,-0.07370097190141678,0.05740146338939667,0.025583190843462944,0.11672721803188324,-0.17276880145072937,-0.020784132182598114,0.02157728187739849,-0.031264010816812515,-0.14315007627010345,0.18788285553455353,0.11929482221603394,-0.07096770405769348,0.0879468247294426,0.07490051537752151,-0.14854216575622559,0.0931345745921135,-0.12914174795150757,-0.08124149590730667,0.10803490877151489,0.03837951272726059,-0.145456463098526,-0.04461557790637016,0.0693526566028595,0.02079308219254017,0.18829764425754547,-0.03865653648972511,0.03135599568486214,0.09423408657312393,0.1640094667673111,-0.09182392060756683,0.29558974504470825,0.206705242395401,-0.13244174420833588,0.03656027838587761,-0.28360673785209656,0.14367365837097168,0.0640481635928154,0.008128326386213303,0.040261559188365936,-0.02696882002055645,0.022420965135097504,0.18456579744815826,0.032434456050395966,-0.12193800508975983,0.1910535991191864,-1.0112524032592773,0.11449138075113297,-0.16617237031459808,-0.15143579244613647,-0.028537845239043236,0.033748846501111984,0.005848770961165428,0.12358184158802032,-0.12288780510425568,-0.10694745182991028,0.2272377461194992,0.03382699936628342,0.3654704988002777,-0.148551806807518,0.020382903516292572,-0.015778539702296257,-3.898512125015259,-0.13125982880592346,-0.07042624801397324,-0.06432779133319855,0.06371095776557922,0.1888093799352646,-0.05081630498170853,0.0294107124209404,-0.1796637922525406,0.14188797771930695,0.028466209769248962,0.035349681973457336,0.054665450006723404,-0.07334662228822708,0.0993725135922432,-0.06513126194477081,-0.11725525557994843,-0.019238799810409546,0.1258273422718048,0.10314049571752548,0.12423388659954071,-0.09537633508443832,-0.03641648218035698,-0.046853043138980865,0.250885933637619,-0.04180118814110756,-0.1203126311302185,0.2870897054672241,-0.12342789024114609,-0.1506863534450531,0.018643703311681747,-0.04964541271328926,-0.2583675682544708,0.2381400465965271,-0.0032817008905112743,-0.049575868993997574,0.08581826090812683,0.03757869452238083,0.2210293710231781,0.0631985291838646,0.06738787144422531,-0.09073811024427414,0.007147566881030798,0.17643818259239197,-0.04696909338235855,0.09118284285068512,-0.016386350616812706,-0.02564586140215397,-0.04859702289104462,0.15193116664886475,0.23418031632900238,-0.060497548431158066,-0.12352470308542252,0.02652185596525669,0.14969973266124725,0.28859275579452515,-0.16586826741695404,0.1745823472738266,0.07562144100666046,0.1792985200881958,0.20261454582214355,0.10489564388990402,0.04833640530705452,-0.16962307691574097,-0.21746869385242462,-0.26971328258514404,-0.18955501914024353,0.06016011908650398,0.006837848108261824,-0.006546843331307173,-0.26108184456825256,0.09310241043567657,0.25990524888038635,-0.008748969994485378,-0.11325272172689438,-0.04497737064957619,-0.03597213700413704,-0.20912563800811768,0.16393710672855377,-0.056030336767435074,0.17373041808605194,-0.051033616065979004,-0.16785922646522522,-0.1282842606306076,-0.13039937615394592,0.16957879066467285,-0.21884286403656006,0.18189737200737,0.04357856512069702,-0.19289861619472504,-0.2563375234603882,-0.3287074565887451,-0.14779645204544067,0.040647391229867935,-0.02162497118115425,0.08426861464977264,0.0049101863987743855,-0.03285627067089081,0.024633828550577164,-0.06940354406833649,0.0444582998752594,0.14149612188339233,-0.033257391303777695,-0.026080140843987465,0.07749945670366287,-0.06880922615528107,-0.07645277678966522,0.013485755771398544,0.02552509866654873,-0.048350319266319275,0.08596236258745193,0.05976631119847298,-0.053354211151599884,0.13088358938694,0.10100805759429932,-0.07373771071434021,-0.03829106315970421,-0.21328841149806976,0.12995362281799316,-0.3956397771835327,0.05465492978692055,0.061581823974847794,0.025351760908961296,-0.03175206854939461,-0.16532514989376068,0.21154339611530304,-0.08948786556720734,-0.12781664729118347,-0.15443724393844604,0.15083731710910797,0.23802123963832855,0.05862536281347275,0.12948772311210632,0.1095934808254242,-0.2129540592432022,0.08699333667755127,0.059816304594278336,0.14312075078487396,-0.043042007833719254,0.153616264462471,0.01464192382991314,0.14963804185390472,0.009516268968582153,0.014405688270926476,-0.12354054301977158,-0.11320776492357254,-0.020479019731283188,-0.004076296929270029,0.010834066197276115,-0.13402564823627472,-0.09178270399570465,0.05682126432657242,0.022094927728176117,0.17054058611392975,-0.15324704349040985,-0.03948293253779411,-0.0003732360200956464,-0.015981465578079224,-0.26260092854499817,0.021981434896588326,0.09615299850702286,0.018803423270583153,0.14873436093330383,-0.09499730914831161,-0.14651896059513092,-0.028900032863020897,0.026104116812348366,-0.03041747957468033,-0.024648137390613556,0.04108591377735138,0.0658145472407341,-0.008251416496932507,0.129384383559227,-0.022209729999303818,0.04450922831892967,-0.03953147307038307,0.01400191243737936,0.10392048209905624,-0.003222519066184759,-0.08699056506156921,0.10802525281906128,0.0160367488861084,-0.050519611686468124,0.03672436252236366,0.08921646326780319,-0.03225553780794144,0.09761252254247665,-0.03922577202320099,-0.10450314730405807,-0.0945448949933052,-0.02831052429974079,-0.008075493387877941,-0.1834537833929062,0.008502793498337269,-0.07679382711648941,-0.025203829631209373,0.17666751146316528,0.00020610695355571806,0.048988696187734604,-0.05265196040272713,-0.23760868608951569,-0.08154591917991638,0.0572650320827961,0.031069353222846985,-0.1501573920249939,-0.18710948526859283,0.10968973487615585,-0.06625770032405853,0.09124068170785904,0.12569887936115265,0.08104119449853897,0.10367947816848755,0.025628993287682533,0.027661925181746483,-0.06870994716882706,0.030585020780563354,-0.025404276326298714,0.08028961718082428,-0.011361510492861271,-0.11577403545379639,0.19037994742393494,-0.03326912596821785,0.2431425154209137,0.10752204805612564,-0.04073217883706093,0.08600273728370667,0.1068829819560051,-0.05399131774902344,-0.07231282442808151,-0.19211678206920624,0.03897929936647415,0.15126344561576843,-0.0006159913609735668,-0.11659914255142212,-0.13333314657211304,0.08970589190721512,-0.30124056339263916,0.20213541388511658,-0.047733671963214874,0.013846044428646564,-0.05187709257006645,0.26878678798675537,-0.009658432565629482,-0.14910544455051422,-0.15515659749507904,0.05974628031253815,-0.07721643149852753,-0.03952980786561966,0.1980343610048294,-0.00341514078900218,0.0491415299475193,0.09903211891651154,-0.03752514719963074,-0.07213344424962997,-0.09750644117593765,0.222433939576149,-0.06256429851055145,-0.029606154188513756
CHEMBL267,0.019143160432577133,-0.17245450615882874,0.10145435482263565,0.08527255058288574,0.2271304875612259,-0.2155318409204483,0.015693288296461105,-0.025449277833104134,-0.1675076186656952,-0.06735775619745255,0.21009166538715363,0.13581351935863495,-0.08027394115924835,-0.10095718502998352,0.0674026608467102,-0.2254130244255066,0.004279209300875664,-0.0799570381641388,-0.12197747081518173,0.09896314144134521,0.0370866134762764,-0.00022202132095117122,-0.016071198508143425,0.04488787427544594,-0.010755155235528946,0.10892194509506226,-0.05477746203541756,0.10340997576713562,-0.0903882309794426,0.17386360466480255,-0.10929704457521439,0.08709254860877991,0.04238319396972656,-0.314475953578949,0.004656843841075897,-0.22064723074436188,0.13735873997211456,0.09829270839691162,-0.07396819442510605,0.009430146776139736,0.1677224189043045,0.044178757816553116,0.13865801692008972,-0.06512699276208878,-0.1543487310409546,0.06583952903747559,-0.8429935574531555,0.04818115010857582,-0.1078888326883316,0.004753096029162407,-0.14769932627677917,-0.03749138116836548,0.042945366352796555,0.181355819106102,-0.021923644468188286,-0.03611605614423752,0.282700777053833,-0.07029399275779724,0.47034910321235657,-0.08382819592952728,0.04684023559093475,-0.07183628529310226,-3.169938564300537,-0.13521550595760345,0.04662004113197327,-0.03997354209423065,-0.014836985617876053,0.11221969872713089,-0.07003816962242126,-0.05127071961760521,-0.1731080710887909,0.13475081324577332,-0.1385497897863388,0.07541617006063461,-0.05519519001245499,-0.06482525169849396,0.09369686990976334,-0.0673857182264328,-0.008957721292972565,0.02358277328312397,0.09283414483070374,-0.0370020866394043,0.13286970555782318,-0.008672134950757027,0.13344807922840118,-0.11632092297077179,0.056199733167886734,-0.0516357421875,-0.08201587200164795,0.3013421893119812,-0.07707952708005905,-0.17155258357524872,-0.09415911883115768,-0.16680742800235748,-0.2761012315750122,0.21721333265304565,0.08697238564491272,-0.008640087209641933,-0.029929835349321365,0.24481552839279175,0.2606866955757141,0.07648419588804245,0.02993723377585411,-0.039983559399843216,0.06351117789745331,0.09132708609104156,0.09064731001853943,0.031964629888534546,-0.10378675162792206,0.04120905324816704,-0.127507746219635,0.151209756731987,0.07905860245227814,-0.18294501304626465,-0.142796590924263,-0.0006288737640716136,0.03701459988951683,0.2151644378900528,-0.15583939850330353,0.16659241914749146,0.10288866609334946,0.3437262177467346,0.15043409168720245,-0.033665772527456284,0.05165479704737663,-0.11157628893852234,-0.17828160524368286,-0.13260696828365326,-0.06911729276180267,0.08258184790611267,-0.028754882514476776,0.22675266861915588,-0.2974216043949127,0.01574075035750866,0.2909442186355591,0.04354826733469963,-0.21803417801856995,-0.039456065744161606,-0.21768046915531158,-0.20154926180839539,0.11803033202886581,0.0825316533446312,0.09992284327745438,0.01815684139728546,-0.1351211816072464,-0.057816240936517715,-0.13642290234565735,0.2615148425102234,-0.1276046335697174,0.21836577355861664,0.1230010837316513,-0.149734228849411,-0.299691766500473,-0.2173730880022049,-0.1323520988225937,-0.04925837367773056,-0.06492819637060165,0.2281600534915924,-0.058396127074956894,-0.09235446900129318,-0.04659564420580864,-0.03360472247004509,0.04194050654768944,0.02219022996723652,-0.07461923360824585,0.09082057327032089,0.019756702706217766,-0.18186365067958832,-0.03256834298372269,0.07537861913442612,0.1875918209552765,-0.0044472357258200645,0.14481671154499054,0.07310108840465546,-0.05723796784877777,0.12229250371456146,0.022062920033931732,-0.18024539947509766,-0.026676306501030922,-0.09846571832895279,0.18752002716064453,-0.17151004076004028,0.032041504979133606,0.013522752560675144,0.07189866900444031,-0.049443215131759644,-0.21513549983501434,0.327505499124527,-0.05073721706867218,-0.22846798598766327,-0.2078590840101242,0.12184734642505646,0.36814936995506287,0.010008088313043118,0.20924319326877594,-0.03267468512058258,-0.24349623918533325,0.10729632526636124,0.14214341342449188,0.1622619777917862,-0.07448376715183258,0.15408027172088623,0.006623978726565838,-0.01702811010181904,-0.032341230660676956,0.004404420964419842,-0.13508525490760803,0.002923107473179698,-0.16677507758140564,0.015575692988932133,0.08865957707166672,-0.129621684551239,-0.08624494075775146,-0.0045310212299227715,0.02469288371503353,0.02306789718568325,-0.023579632863402367,-0.0841362476348877,0.023832280188798904,-0.02424035407602787,-0.2136722356081009,-0.1329893320798874,0.047804225236177444,0.0704505518078804,0.12911289930343628,-0.17411591112613678,-0.0903850719332695,-0.05705723538994789,0.029351789504289627,-0.08804333955049515,-0.052719805389642715,0.09593424201011658,0.03953881934285164,-0.025771301239728928,0.07628265023231506,-0.04327491298317909,-0.10659316927194595,-0.13654658198356628,-0.04820680618286133,0.008898569270968437,0.08820261806249619,-0.0877169743180275,0.12442022562026978,0.17211388051509857,0.09566265344619751,-0.038494519889354706,0.14667607843875885,-0.10878748446702957,0.10490527749061584,-0.019153006374835968,-0.19029080867767334,-0.02601713314652443,-0.17585067451000214,0.042533986270427704,-0.050232112407684326,-0.13363488018512726,-0.0396709144115448,-0.11655206978321075,0.11977440118789673,-0.09573635458946228,-0.010167393833398819,-0.026796599850058556,-0.21634630858898163,-0.16811098158359528,0.09727894514799118,0.16273173689842224,-0.21621611714363098,-0.3316895365715027,0.13108423352241516,-0.02319731004536152,0.123080313205719,0.06306171417236328,0.20896129310131073,0.15708091855049133,0.08603638410568237,0.032144948840141296,0.09127296507358551,0.002673408715054393,0.056828342378139496,-0.02306370437145233,-0.05824913829565048,-0.050440628081560135,0.2942880094051361,-0.01285732164978981,0.20657452940940857,0.18895822763442993,0.06433512270450592,0.016816824674606323,0.20779071748256683,-0.10675830394029617,-0.09072999656200409,-0.20060011744499207,0.10092255473136902,0.05821922421455383,-0.026812279596924782,-0.08125421404838562,-0.11963823437690735,0.16204971075057983,-0.19237570464611053,0.03052932769060135,-0.16045421361923218,-0.021313605830073357,0.11102937906980515,0.1800997257232666,0.041083451360464096,-0.1021343544125557,-0.1113542839884758,-0.06032150983810425,0.03500785306096077,-0.06230081245303154,0.10790806263685226,-0.20031964778900146,-0.039577778428792953,0.14801448583602905,0.033355627208948135,-0.08776309341192245,-0.16865628957748413,0.364729106426239,-0.08026228845119476,-0.017170816659927368
CHEMBL325,0.0377800352871418,-0.10205160826444626,0.0664224624633789,0.30616992712020874,0.06293066591024399,-0.07901448011398315,0.04493948072195053,-0.09868098795413971,-0.22114509344100952,-0.1455000340938568,0.06992735713720322,0.06853581219911575,-0.14061389863491058,0.06157897040247917,0.1099267303943634,-0.12857572734355927,0.007017167285084724,-0.02634872868657112,-0.026465076953172684,0.005699864123016596,-0.02290739119052887,-0.017489874735474586,0.10435520857572556,-0.05075591802597046,0.011787881143391132,0.06539503484964371,0.005903866607695818,0.06250561773777008,-0.07173678278923035,0.14119519293308258,-0.026762185618281364,0.3131655156612396,0.039021410048007965,-0.2410963773727417,0.0697876513004303,-0.23846566677093506,-0.02922113798558712,0.00835343822836876,0.06768066436052322,0.1905062049627304,0.15650665760040283,0.21687257289886475,-0.13005411624908447,-0.03133103623986244,0.06570664793252945,0.09702496230602264,-1.1361958980560303,0.029778452590107918,-0.12369086593389511,-0.11898696422576904,0.1770525723695755,-0.010604052804410458,-0.021147137507796288,0.08718130737543106,0.001040006522089243,-0.2614833116531372,0.17125080525875092,-0.12674178183078766,0.42201513051986694,-0.15284687280654907,0.03263111412525177,-0.14618940651416779,-4.105874061584473,-0.08539201319217682,-0.0151712941005826,0.05300471931695938,0.07958221435546875,0.07754360884428024,-0.12594227492809296,-0.011385828256607056,-0.25030291080474854,0.13173632323741913,0.003931061364710331,0.2744850516319275,0.013469220139086246,0.053243570029735565,-0.14031022787094116,0.0023972061462700367,0.05496036261320114,0.07478643208742142,0.08205495774745941,0.1263774037361145,0.04696279019117355,-0.06084442883729935,-0.012292036786675453,-0.08820337802171707,0.018252428621053696,-0.11866391450166702,0.1378401219844818,0.1776830554008484,-0.10293892025947571,-0.09127496182918549,0.08019974082708359,0.11676160991191864,-0.028985124081373215,0.08251655101776123,-0.03430429473519325,-0.08492124825716019,-0.1731003224849701,-0.0034001367166638374,0.17666207253932953,0.0708770602941513,-0.08270879089832306,0.259467750787735,-0.04718608781695366,0.03108726069331169,-0.09910833090543747,-0.05024094879627228,-0.19084981083869934,-0.01944797858595848,-0.09657412767410278,0.08204173296689987,-0.009857295081019402,0.11042660474777222,0.13492563366889954,0.15327806770801544,0.010671255178749561,0.09010546654462814,-0.16622595489025116,-0.0072236573323607445,0.04199475795030594,0.2444240152835846,0.19173696637153625,0.05366365611553192,0.18249192833900452,-0.05871966481208801,-0.022316841408610344,-0.16007816791534424,-0.12601815164089203,-0.09286675602197647,-0.012760745361447334,0.029943402856588364,-0.13776589930057526,-0.033994995057582855,0.15620680153369904,-0.007397123612463474,-0.19060468673706055,-0.11839868128299713,-0.18543624877929688,-0.2817787528038025,0.15404139459133148,-0.08190503716468811,0.021276643499732018,0.171285480260849,-0.09951164573431015,-0.01248706504702568,0.014243913814425468,0.14982540905475616,-0.12451228499412537,0.2220829725265503,0.11862708628177643,0.038747552782297134,-0.3686761260032654,-0.2410077452659607,-0.05709244683384895,0.1096113994717598,0.13611827790737152,0.2588188946247101,0.03089931607246399,0.10030512511730194,-0.031106704846024513,-0.09635510295629501,-0.06809371709823608,0.02895032800734043,-0.13929638266563416,0.06978224217891693,0.08732063323259354,-0.10456952452659607,-0.21304383873939514,0.05809647962450981,-0.017404189333319664,0.08933427929878235,0.11068025976419449,0.0160355307161808,-0.10046424716711044,0.05869431421160698,0.23534856736660004,-0.23519310355186462,-0.1292411834001541,-0.0655602514743805,0.11010092496871948,-0.18392138183116913,0.030348533764481544,0.06687022745609283,-0.12362732738256454,0.012086407281458378,-0.27714788913726807,0.27141469717025757,-0.02657090313732624,-0.06344453245401382,0.049938250333070755,0.025794655084609985,0.4447954595088959,0.13858255743980408,0.09283853322267532,-0.07989891618490219,-0.1774628609418869,0.1884375810623169,0.09263993054628372,0.13089580833911896,-0.07291955500841141,0.13236945867538452,0.053989212960004807,0.023900723084807396,-0.02151312492787838,0.1326119303703308,-0.02148304134607315,-0.15117976069450378,-0.0963248685002327,-0.05240114405751228,0.05528635159134865,-0.1899598240852356,-0.013775567524135113,0.17490828037261963,0.08719568699598312,-0.05134227126836777,-0.07487639784812927,-0.04645342752337456,-0.015300817787647247,-0.002683397149667144,-0.30122849345207214,-0.06164586916565895,0.09245704114437103,0.09626669436693192,0.1401306539773941,-0.0644172877073288,-0.10172818601131439,-0.037829671055078506,-0.059110190719366074,-0.019270580261945724,0.09092634171247482,0.01125191617757082,0.002445280086249113,-0.020112285390496254,0.014725936576724052,-0.04801376163959503,0.04528588056564331,-0.14214876294136047,0.05607523024082184,0.05331983417272568,0.0003174710727762431,-0.1388162523508072,-0.03491674363613129,0.030443411320447922,0.08664300292730331,0.06777030974626541,0.09552618116140366,0.07126230746507645,-0.010745174251496792,-0.17419639229774475,-0.16447114944458008,0.008748521097004414,-0.03668640926480293,0.07183615863323212,0.037163812667131424,0.10203780978918076,-0.10576169937849045,-0.0612044595181942,0.11816738545894623,-0.1283162534236908,-0.030502522364258766,-0.0659085288643837,-0.11173401772975922,-0.09988919645547867,0.12084349244832993,0.21286647021770477,-0.1348041594028473,-0.10978840291500092,0.17388451099395752,-0.0430864542722702,0.1450941562652588,0.05698087066411972,-0.062069620937108994,0.05763270705938339,0.14351727068424225,0.06820084154605865,0.1852898746728897,0.02346251904964447,0.17883294820785522,-0.0472724623978138,0.18714693188667297,-0.050548769533634186,0.2300524264574051,-0.05717608332633972,0.05655601620674133,0.2854871153831482,-0.17112132906913757,0.12038765102624893,-0.06892852485179901,-0.07038344442844391,-0.06497915089130402,-0.01530096773058176,0.029794692993164062,0.03246765211224556,0.009777854196727276,0.03693162277340889,-0.02690127305686474,-0.028565391898155212,-0.30832692980766296,0.09062838554382324,-0.20597858726978302,-0.02136087417602539,0.034285418689250946,-0.055344704538583755,0.03335486724972725,0.09209895879030228,-0.041284285485744476,-0.06050628051161766,0.10254686325788498,-0.14448094367980957,-0.03656424582004547,-0.1037711352109909,-0.07493749260902405,0.09407597780227661,0.10134619474411011,-0.1836552917957306,-0.027963019907474518,-0.0005581733421422541,-0.0032658064737915993,-0.013723306357860565
CHEMBL308,0.0137804439291358,-0.2480519711971283,0.20353803038597107,0.1604827642440796,0.23622271418571472,-0.30319860577583313,0.09623190015554428,-0.07881228625774384,-0.27055346965789795,-0.18583761155605316,0.19509634375572205,0.06086399778723717,-0.16108611226081848,-0.10288645327091217,0.09053074568510056,-0.2698529362678528,0.01936146803200245,-0.016478586941957474,-0.0826658234000206,0.028376320376992226,0.008725459687411785,-0.05033068731427193,-0.07869970053434372,-0.01682955212891102,0.12368104606866837,0.0587809756398201,-0.2661268711090088,0.0869307592511177,0.04580209404230118,0.09646042436361313,-0.06469931453466415,0.2806081473827362,0.07686195522546768,-0.41424551606178284,-0.0762372761964798,-0.2597429156303406,0.1197531595826149,0.17010295391082764,-0.11908315867185593,0.021353688091039658,0.2723311185836792,0.10926410555839539,0.049720171838998795,-0.10112795978784561,-0.21479067206382751,0.1645614355802536,-0.539724588394165,0.12670114636421204,-0.14973224699497223,-0.061365172266960144,-0.05841018632054329,-0.05557293817400932,-0.09682352095842361,0.09347379207611084,0.005667389836162329,-0.09906305372714996,0.2535669207572937,-0.15333588421344757,0.589197039604187,-0.1474655121564865,0.014701214618980885,-0.02702048234641552,-2.0676772594451904,-0.0825953260064125,0.10950332134962082,0.04455072805285454,-0.0020978443790227175,0.03942430391907692,-0.17108194530010223,-0.08746645599603653,-0.18837201595306396,0.1552639752626419,-0.033425118774175644,0.10646844655275345,0.043536871671676636,-0.12732315063476562,0.07040809094905853,-0.06521762907505035,0.04461739957332611,0.051593489944934845,0.0065008788369596004,0.013598429039120674,0.11451362818479538,-0.0034989353734999895,0.19068972766399384,-0.006175203714519739,0.07390011101961136,-0.05414293706417084,-0.08446557819843292,0.24922575056552887,0.005057617090642452,-0.37504497170448303,-0.04910396412014961,-0.34477928280830383,-0.30421730875968933,0.29564476013183594,-0.011939001269638538,0.0039826142601668835,-0.04800626263022423,0.4077942967414856,0.17151892185211182,0.12640880048274994,-0.07674942910671234,-0.021948697045445442,0.20377174019813538,0.1234833300113678,0.16673031449317932,0.026426827535033226,-0.18061770498752594,0.12280556559562683,-0.18605971336364746,0.09831850975751877,0.09644902497529984,-0.1355934590101242,-0.09229448437690735,-0.06739410758018494,-0.08651433885097504,0.07455052435398102,-0.05473705381155014,0.1375412940979004,0.010561039671301842,0.30042725801467896,-0.05739656090736389,-0.2710460424423218,0.05534756928682327,0.029122348874807358,-0.25703975558280945,-0.11934085190296173,-0.12266263365745544,-0.04222564771771431,-0.05102087929844856,0.3110526204109192,-0.18989670276641846,0.04111609607934952,0.3247421979904175,0.007682638242840767,-0.05857454985380173,-0.05157323181629181,-0.19559447467327118,-0.1562451720237732,0.21331188082695007,-0.051800236105918884,0.07478046417236328,0.009141476824879646,-0.07848919928073883,-0.11483367532491684,-0.1842958927154541,0.28269776701927185,-0.15079547464847565,0.30994105339050293,0.05233415216207504,-0.13912726938724518,-0.38736486434936523,-0.3554266095161438,-0.1812335103750229,-0.08383801579475403,0.01125303190201521,0.18850693106651306,0.010710951872169971,-0.15654416382312775,-0.12491921335458755,-0.1499551385641098,0.010292097926139832,0.0036016530357301235,-0.05676155909895897,0.06125336512923241,0.01274961419403553,-0.216863214969635,-0.045902151614427567,0.10667922347784042,0.21327322721481323,0.07368385791778564,0.03257577493786812,0.08132369816303253,-0.1826210618019104,0.1478782594203949,0.04940897971391678,-0.2593601644039154,0.00879933126270771,-0.23285165429115295,0.08561895787715912,-0.17281995713710785,0.14129087328910828,0.10856258124113083,0.04797167703509331,-0.07388846576213837,-0.21222755312919617,0.41108623147010803,-0.07633679360151291,-0.14584589004516602,-0.1098504364490509,0.04287457466125488,0.3590205907821655,-0.0031619295477867126,0.3691061735153198,-0.1081012710928917,-0.29066213965415955,-0.04020487889647484,0.015932820737361908,0.22858747839927673,-0.0673907995223999,0.21547678112983704,0.06109597533941269,0.0006263981922529638,0.12234341353178024,-0.11657997965812683,-0.10570962727069855,-0.2613787353038788,-0.05652007833123207,-0.06176672503352165,0.08300182968378067,-0.08374693244695663,-0.06393399089574814,-0.013693648390471935,0.07933301478624344,-0.13231401145458221,-0.11141752451658249,-0.0937599167227745,-0.009332961402833462,0.024444464594125748,-0.2375044822692871,-0.12068715691566467,0.051935385912656784,0.0047750044614076614,0.12818679213523865,-0.17319829761981964,-0.14427830278873444,-0.03060930036008358,-0.029121940955519676,-0.06310515105724335,-0.015274305827915668,0.06230319291353226,0.02100088819861412,0.029904307797551155,0.008131065405905247,-0.021341364830732346,-0.021644065156579018,-0.20551423728466034,0.03998425230383873,0.08991098403930664,0.11879640817642212,-0.016216523945331573,0.07045020908117294,0.23741625249385834,4.645494482247159e-05,-0.011119435541331768,0.2520587742328644,-0.10016431659460068,0.2729308307170868,0.09201846271753311,-0.25600937008857727,-0.09260750561952591,-0.2465779185295105,0.051348377019166946,-0.11607364565134048,-0.27817490696907043,-0.19233494997024536,-0.12656332552433014,0.3587685227394104,-0.17318516969680786,-0.05997386574745178,-0.05704028904438019,-0.26910001039505005,-0.12445684522390366,-0.02040405198931694,0.09095253050327301,-0.15437109768390656,-0.37154072523117065,0.11595399677753448,-0.04433249309659004,-0.0003864852769766003,0.05989967659115791,0.20804280042648315,0.07032454013824463,0.10819070786237717,0.005872164852917194,0.06383557617664337,0.05229759216308594,0.19353212416172028,-0.11251130700111389,0.05633768066763878,-0.09360090643167496,0.3045198917388916,-0.03807257488369942,0.07971223443746567,0.20782774686813354,0.04039466381072998,0.03324432298541069,0.3670685291290283,-0.04051240533590317,-0.04643876850605011,-0.22482384741306305,0.12154129147529602,0.14498786628246307,-0.0840245857834816,-0.0658559650182724,-0.09318442642688751,0.15476495027542114,-0.048515189439058304,-0.03153683617711067,-0.20971263945102692,-0.022062212228775024,0.13479571044445038,0.16174554824829102,0.03257179260253906,-0.0873882845044136,-0.08348298072814941,0.1532261073589325,0.08054636418819427,-0.1341496706008911,0.15172947943210602,-0.27896544337272644,-0.08154411613941193,0.10815813392400742,0.11795427650213242,-0.07064276188611984,-0.22272789478302002,0.32071924209594727,-0.03135959059000015,0.007623511366546154
CHEMBL332,-0.022769873961806297,-0.1231587752699852,0.09565063565969467,0.14887699484825134,0.0830613374710083,-0.1027856171131134,0.0368310883641243,-0.039709243923425674,-0.019663715735077858,-0.08379506319761276,0.09811300784349442,0.0735313892364502,-0.10830835998058319,-0.04041582718491554,0.13558556139469147,-0.193520188331604,0.08077422529459,-0.0632440373301506,0.06443416327238083,0.1462830901145935,0.009409104473888874,0.0473996177315712,-0.02617001160979271,0.06035182997584343,-0.0012505727354437113,0.05630580335855484,-0.12382777780294418,0.015071893110871315,0.007175719831138849,0.1643403023481369,-0.08767346292734146,0.24651487171649933,0.17242300510406494,-0.03956250473856926,-0.020262988284230232,-0.136272132396698,-0.019258879125118256,-0.09553945809602737,0.043315812945365906,0.11062892526388168,-0.02083701454102993,0.1481076031923294,0.04113581404089928,0.03750048577785492,-0.1245049461722374,-0.045156318694353104,-1.221840500831604,0.12524789571762085,-0.1609026938676834,-0.09606055915355682,-0.16142982244491577,-0.07010652869939804,0.03702209144830704,0.22899293899536133,0.0008603651076555252,-0.048536039888858795,0.2817957401275635,-0.034260839223861694,0.16420282423496246,-0.10417879372835159,-0.003225665772333741,-0.12376285344362259,-4.318531036376953,-0.20008976757526398,-0.01842108555138111,-0.01932041347026825,0.06059803068637848,0.0980214774608612,0.07957708090543747,0.03764970600605011,-0.074428491294384,0.09076173603534698,-0.08233942091464996,0.06818508356809616,-0.03819309547543526,-0.021530654281377792,0.0815906748175621,0.061815015971660614,-0.08719247579574585,-0.035523444414138794,0.06648638844490051,0.05173952504992485,0.0415734127163887,6.732009205734357e-05,0.06276877969503403,-0.05189630761742592,0.06938783824443817,-0.1426929384469986,-0.08199059218168259,0.14550000429153442,-0.03127265349030495,-0.02702658250927925,0.02274910733103752,0.18981771171092987,-0.3033983111381531,0.1099037453532219,0.002979298820719123,0.0052999164909124374,-0.08734151721000671,0.009124300442636013,0.1886340081691742,-0.03759364038705826,-0.02021823823451996,0.024106904864311218,-0.026663528755307198,0.17015622556209564,-0.1158066838979721,0.03447076305747032,-0.15731419622898102,-0.14091138541698456,-0.02958754077553749,0.025171834975481033,0.01639891415834427,-0.08855177462100983,-0.18193526566028595,0.03154371678829193,0.039974380284547806,0.27734100818634033,-0.20868587493896484,0.04769514501094818,0.137786865234375,0.12495248764753342,0.13894163072109222,0.09864141047000885,0.1825447827577591,-0.05670750141143799,-0.0549740307033062,-0.13500498235225677,-0.21836580336093903,-0.09805135428905487,0.17868132889270782,-0.10600478202104568,0.006319219246506691,-0.0006338839884847403,0.22577370703220367,-0.05273197218775749,-0.10757877677679062,-0.06440538167953491,-0.17029255628585815,-0.23818491399288177,0.2313641756772995,-0.11942916363477707,0.08161907643079758,0.05018579959869385,0.006624135654419661,0.056236665695905685,0.0785626769065857,0.16937555372714996,-0.20027999579906464,-0.05166203901171684,0.0002756656613200903,0.03292941674590111,-0.2439941018819809,-0.2181001752614975,0.02651185356080532,0.0978400781750679,-0.03269042447209358,0.15324260294437408,-0.12757140398025513,-0.027434637770056725,0.01422439981251955,-0.011759446933865547,0.06792290508747101,-0.002211341867223382,-0.09484856575727463,0.011807352304458618,0.11473017185926437,0.04152003303170204,-0.07143933326005936,0.04575083777308464,0.0950327217578888,-0.012968678958714008,0.12901116907596588,-0.04920532554388046,0.06059984490275383,0.1361825168132782,0.04823380708694458,-0.03599441796541214,-0.12072733044624329,-0.10399036109447479,0.2081340253353119,-0.2917570471763611,0.129769966006279,0.009175059385597706,-0.0536017119884491,-0.09841013699769974,-0.04862084239721298,0.3306385278701782,-0.0401492565870285,-0.2092752307653427,-0.10999076813459396,0.11419248580932617,0.22384673357009888,0.05479012429714203,-0.007350455969572067,0.052712272852659225,-0.06335999816656113,0.10902757197618484,-0.03210503235459328,0.22172877192497253,-0.10469644516706467,0.20926253497600555,0.1733333319425583,0.11574368178844452,-0.004991887602955103,0.08278466761112213,-0.026092251762747765,-0.05622066184878349,-0.16217564046382904,0.09800148755311966,0.10039219260215759,-0.0808725655078888,-0.01662003993988037,0.09234634041786194,0.09442725777626038,-0.0142160439863801,-0.128308966755867,-0.008573880419135094,0.03918135538697243,0.04936734214425087,-0.2351510226726532,-0.037799056619405746,0.09556113183498383,-0.010000384412705898,0.19925729930400848,-0.007266040425747633,-0.06994892656803131,-0.18390268087387085,-0.01912117563188076,-0.10265996307134628,0.02872435934841633,0.04880061373114586,0.15836209058761597,0.0937095358967781,0.03805005922913551,-0.007355471607297659,0.18590298295021057,-0.03917298838496208,0.00889456458389759,0.10987536609172821,-0.05218030512332916,-0.07222592830657959,0.17034287750720978,-0.1314956545829773,0.11438727378845215,0.028192464262247086,0.10959769040346146,0.12379175424575806,-0.06040208414196968,-0.04267236590385437,-0.07349736243486404,-0.08447135239839554,0.043537624180316925,0.009732086211442947,-0.04231462627649307,0.21790480613708496,-0.07474489510059357,-0.007364238612353802,0.18317748606204987,0.03814699128270149,-0.07992024719715118,-0.05959465727210045,-0.06812015920877457,-0.084322489798069,0.027177292853593826,0.2034977227449417,-0.1539967805147171,-0.21381233632564545,0.23547473549842834,-0.10862114280462265,0.03265423700213432,0.09503653645515442,0.058331772685050964,0.09564084559679031,0.04248034954071045,0.049623966217041016,0.10581884533166885,0.010789617896080017,0.0016343171009793878,-0.020317336544394493,-0.1977802813053131,-0.11696700751781464,0.15675224363803864,-0.012555648572742939,0.1212816834449768,0.24075651168823242,-0.09490730613470078,-0.13513392210006714,0.10202844440937042,0.05404214560985565,-0.1222938522696495,-0.1537582129240036,0.1618550568819046,0.06045261770486832,-0.030437268316745758,-0.11741837114095688,-0.01938706263899803,0.0326610691845417,-0.227251797914505,0.14715592563152313,0.01727723330259323,-0.040556732565164566,0.032881658524274826,0.1316125988960266,-0.12279804795980453,-0.06563425809144974,-0.07422404736280441,-0.028289098292589188,-0.05914827436208725,-0.2858908772468567,0.11442410945892334,-0.05184793472290039,-0.003996498882770538,0.04650217667222023,0.10128805041313171,-0.20720842480659485,0.04726487770676613,0.2881368100643158,0.1501156985759735,-0.10133568942546844
CHEMBL333,-0.009654690511524677,-0.01901313103735447,0.11260173469781876,0.08799611032009125,0.15022505819797516,0.03976047411561012,0.050132133066654205,-0.10377150774002075,-0.05746381729841232,-0.08599779009819031,0.17933903634548187,0.0249701589345932,-0.05720769613981247,-0.0426015630364418,0.11345422267913818,-0.21861211955547333,0.047617293894290924,-0.041039370000362396,-0.07365499436855316,0.21098387241363525,-0.0368117019534111,0.044239241629838943,-0.020063048228621483,-0.02396145462989807,-0.019264662638306618,0.1181420236825943,-0.13858366012573242,0.0164504237473011,0.07375692576169968,0.22682425379753113,-0.05994955822825432,0.27005502581596375,0.21784472465515137,0.04124388098716736,0.11387090384960175,-0.10041777044534683,-0.1404842734336853,-0.12750257551670074,0.18578723073005676,0.1509314328432083,0.008703483268618584,0.12476599961519241,0.014416842721402645,0.03574380278587341,0.016026286408305168,0.023454729467630386,-1.0892338752746582,0.13711439073085785,-0.24359987676143646,0.03935178741812706,-0.18527865409851074,-0.046343643218278885,-0.0037931527476757765,0.135422483086586,-0.01709699258208275,-0.0985180139541626,0.2790246307849884,0.09105917811393738,0.26247209310531616,-0.11015867441892624,-0.022119177505373955,-0.07263139635324478,-4.427697658538818,-0.1798209846019745,-0.02391470968723297,0.0027386732399463654,0.02705412358045578,0.0645255371928215,0.05992896482348442,0.07377349585294724,-0.08092028647661209,0.12559832632541656,-0.03835773095488548,-0.07911187410354614,-0.005041897296905518,0.042545318603515625,0.08599556237459183,0.04626886174082756,-0.0804203674197197,-0.1556326001882553,0.13628335297107697,-0.034092798829078674,-0.044966693967580795,-0.05776859447360039,0.10299956798553467,-0.06836584955453873,0.04492540284991264,-0.0882452204823494,-0.10651969164609909,0.23270660638809204,-0.02050975151360035,0.003937756642699242,0.021692827343940735,0.12935790419578552,-0.21231049299240112,0.12817104160785675,0.007761415094137192,0.02670295350253582,-0.014664791524410248,0.028103411197662354,0.21781353652477264,-0.12692804634571075,-0.0901220366358757,0.04148180037736893,-0.16691648960113525,0.15291868150234222,-0.1011776402592659,0.042298220098018646,-0.11013683676719666,-0.17585399746894836,-0.030045514926314354,0.07816264033317566,-0.03575282543897629,-0.03015032224357128,-0.08067862689495087,0.0008816178888082504,0.08204622566699982,0.23322273790836334,-0.11490702629089355,0.08963261544704437,0.1263343095779419,0.14470787346363068,0.11577056348323822,0.21601231396198273,0.1482265740633011,0.035731781274080276,-0.046422652900218964,-0.11329823732376099,-0.16255319118499756,-0.06511549651622772,0.08799072355031967,-0.14554722607135773,-0.10344236344099045,0.011491385288536549,0.15456148982048035,-0.026084044948220253,-0.18309535086154938,-0.10480304807424545,-0.15823030471801758,-0.16612835228443146,0.24065445363521576,-0.22351007163524628,0.19500230252742767,0.06317595392465591,0.020338086411356926,-0.003330992069095373,0.07786843925714493,0.1543116271495819,-0.16859491169452667,0.01742289587855339,0.029058421030640602,-0.012565006501972675,-0.2092680186033249,-0.2147689312696457,-0.07770013064146042,0.06310830265283585,-0.053069449961185455,0.13890282809734344,-0.04505092278122902,0.04726741090416908,0.06375636905431747,0.00817116443067789,0.09829909354448318,0.13533972203731537,-0.0726672038435936,0.007982254028320312,0.13139179348945618,0.01331811398267746,-0.14376452565193176,0.03524577617645264,0.09048327058553696,0.024596134200692177,0.04642149433493614,-0.07389097660779953,0.01653040573000908,0.21192777156829834,0.025327524170279503,0.001081507420167327,-0.08740655332803726,-0.08460913598537445,0.2681323289871216,-0.31027698516845703,0.17105750739574432,0.05117391049861908,-0.05021661892533302,-0.09660603106021881,-0.08629372715950012,0.24677900969982147,0.004436552058905363,-0.23620226979255676,-0.12068744748830795,0.12087631225585938,-0.04879767820239067,0.030929643660783768,-0.14588315784931183,0.05223735794425011,-0.19085995852947235,0.08701512217521667,-0.002080171601846814,0.18975526094436646,-0.21489690244197845,0.25462910532951355,0.13207630813121796,0.08181676268577576,-0.052923865616321564,0.0621514618396759,-0.009910588152706623,0.0685056746006012,-0.24070924520492554,0.13818146288394928,0.04551886022090912,-0.11868228763341904,0.045899081975221634,0.0841759517788887,0.1190582662820816,0.07286442071199417,-0.14035068452358246,-0.11636287719011307,0.07407001405954361,0.015690462663769722,-0.09377048909664154,-0.028607290238142014,0.018815739080309868,0.006620519328862429,0.2830137610435486,-0.08644437789916992,-0.15221473574638367,-0.103037528693676,-0.04350387677550316,-0.06292857974767685,0.03818238154053688,0.04022703319787979,0.08957711607217789,0.03062557987868786,0.03944048658013344,-0.07317529618740082,0.12905406951904297,0.028451573103666306,0.060264747589826584,0.13322845101356506,0.02459968626499176,-0.050651274621486664,0.2735522389411926,-0.10735277086496353,0.16482552886009216,-0.023260537534952164,0.07913070172071457,0.08833317458629608,0.0434332899749279,-0.08261304348707199,-0.03470683470368385,-0.01647534780204296,0.025904512032866478,-0.03286188095808029,-0.13445867598056793,0.1950179785490036,-0.01924014650285244,-0.03935249522328377,0.15608438849449158,0.038841042667627335,-0.015237259678542614,-0.157207652926445,-0.07881978154182434,-0.05177241563796997,0.043148428201675415,0.16697362065315247,-0.1449270397424698,-0.04252651706337929,0.1805647909641266,-0.1340242326259613,0.17418739199638367,0.08870033174753189,-0.01981949247419834,0.0539141409099102,-0.05625017732381821,0.11419285833835602,0.08496696501970291,0.04145228862762451,-0.012514379806816578,0.0128422100096941,-0.139553964138031,-0.11437181383371353,0.12225404381752014,-0.051401909440755844,0.18383073806762695,0.16203565895557404,-0.09734959900379181,-0.0758831575512886,0.07616984844207764,-0.10751054435968399,-0.13035529851913452,-0.1632404327392578,0.15601703524589539,0.03138243779540062,0.10780300199985504,-0.1349392980337143,-0.08058381080627441,-0.0742809846997261,-0.18458899855613708,0.14406231045722961,0.03610193729400635,-0.0661809965968132,-0.015602583065629005,0.10321477055549622,-0.16331231594085693,-0.21039095520973206,-0.041617851704359055,-0.12124229222536087,-0.03442176431417465,-0.24450068175792694,0.12011434882879257,0.08029189705848694,-0.10574941337108612,0.0611245296895504,-0.005097275599837303,-0.22963613271713257,-0.027294332161545753,0.23373791575431824,0.11317737400531769,-0.0694618821144104
CHEMBL279,-0.1327018439769745,-0.12252595275640488,0.0691869929432869,0.043084725737571716,0.2546241581439972,-0.23885135352611542,0.07877584546804428,0.03812364861369133,-0.1553204506635666,-0.07184396684169769,0.12530462443828583,0.18728210031986237,0.06031273305416107,0.1516730785369873,0.09612248092889786,-0.11416773498058319,0.09650961309671402,-0.16425596177577972,-0.07036156207323074,-0.005840717349201441,0.04557325690984726,-0.12987342476844788,-0.013909341767430305,0.0695963203907013,-0.16261786222457886,0.12127126753330231,-0.011361263692378998,0.06354007124900818,0.12920363247394562,0.21597705781459808,-0.1159437745809555,0.5054228901863098,0.14183521270751953,-0.28378748893737793,-0.007743600755929947,-0.3176673352718353,0.18258415162563324,0.16069112718105316,-0.013643190264701843,-0.00997413694858551,0.032986581325531006,0.07406320422887802,0.1778353899717331,-0.010752422735095024,-0.14457368850708008,0.11090348660945892,-1.0488401651382446,0.13423439860343933,-0.10309960693120956,-0.15923364460468292,-0.12908832728862762,0.04739442840218544,0.06048881635069847,0.1600293517112732,-0.10999034345149994,-0.22502556443214417,0.15435802936553955,-0.07359932363033295,0.3791201412677765,-0.23352651298046112,-0.018084703013300896,-0.15832220017910004,-3.3529627323150635,-0.15717670321464539,-0.07257109135389328,-0.07380993664264679,0.008550960570573807,0.15266498923301697,-0.030525926500558853,-0.09614884108304977,-0.14508575201034546,0.16969910264015198,0.09954225271940231,0.15650629997253418,0.07072928547859192,-0.06407634168863297,0.18156786262989044,-0.15393798053264618,0.04944199323654175,-0.04906890541315079,0.08926687389612198,0.07540524750947952,0.1800278276205063,0.015977319329977036,0.04911007732152939,-0.04077231138944626,0.2226225584745407,-0.0856119766831398,-0.07893532514572144,0.17933131754398346,-0.151300847530365,-0.27203473448753357,-0.04217896610498428,-0.05755440890789032,-0.4061712622642517,0.1915174424648285,-0.06716860085725784,-0.11257770657539368,0.11863166093826294,0.07918582111597061,0.1657795011997223,0.06398754566907883,0.10735449939966202,-0.06871369481086731,-0.07364875078201294,0.24377362430095673,-0.02188771963119507,0.12079876661300659,-0.09186334908008575,0.04428310692310333,-0.030301550403237343,0.09710536897182465,0.2017887383699417,0.012339147739112377,-0.1854265034198761,0.005754983983933926,0.21057359874248505,0.17326772212982178,-0.052682604640722275,0.18478691577911377,0.06298384815454483,0.2570095956325531,0.2307329773902893,0.006159158889204264,-0.052767377346754074,-0.28750330209732056,-0.16672344505786896,-0.1889856606721878,-0.1520710289478302,0.03643237426877022,0.034666527062654495,0.1225823163986206,-0.1591557264328003,0.027959033846855164,0.26934367418289185,-0.03949259594082832,-0.14409756660461426,-0.1594504565000534,-0.10244793444871902,-0.3703453838825226,0.0854177474975586,0.0340476855635643,0.18653245270252228,-0.06325885653495789,-0.11100015044212341,-0.13187679648399353,-0.17873425781726837,0.26065489649772644,-0.06005692109465599,0.20993037521839142,-0.035412490367889404,-0.21163439750671387,-0.2519944906234741,-0.27857810258865356,-0.19153375923633575,0.1693221628665924,-0.10187692195177078,0.08884605020284653,-0.10161396116018295,-0.0519428513944149,0.03204803168773651,-0.06853751838207245,0.12394413352012634,0.1479751467704773,0.017435122281312943,-0.05622244253754616,0.12347259372472763,-0.16483505070209503,-0.17564819753170013,0.03569828346371651,-0.0971093624830246,0.051088638603687286,0.06806665658950806,0.09554577618837357,-0.15231722593307495,0.08408306539058685,0.07763101905584335,-0.13576330244541168,-0.1202656552195549,-0.2423960417509079,0.04538626968860626,-0.45639297366142273,0.08373474329710007,0.014896638691425323,0.057726893573999405,-0.017386678606271744,-0.19308172166347504,0.08722680807113647,-0.0891147181391716,-0.0775022804737091,-0.10263238847255707,0.08917492628097534,0.4155215322971344,-0.020363617688417435,0.16549129784107208,0.09551466256380081,-0.2575783431529999,0.02630416862666607,0.13035018742084503,0.26499173045158386,-0.10512872040271759,0.1542174071073532,-0.16050755977630615,0.07553143799304962,0.036556996405124664,-0.032052405178546906,-0.2130555510520935,-0.16337467730045319,-0.012944337911903858,-0.05514192581176758,0.05770526081323624,-0.0761810690164566,-0.10829205065965652,-0.055485449731349945,0.02339523285627365,0.13521116971969604,-0.12126694619655609,-0.02464805357158184,-0.05365597456693649,-0.04586581885814667,-0.3069687783718109,-0.08528972417116165,0.1476372629404068,0.1513318419456482,0.22982840240001678,-0.09239223599433899,-0.11946264654397964,-0.08746712654829025,0.13391005992889404,0.006056895013898611,-0.022728178650140762,-0.029734952375292778,0.1314922273159027,0.060339223593473434,0.2609121799468994,0.02580404467880726,0.009800945408642292,-0.14984853565692902,0.06689774245023727,0.10694573074579239,0.00115090305916965,-0.08199610561132431,0.03989313170313835,0.19961968064308167,-0.056322865188121796,-0.000346099870512262,0.2144869565963745,-0.05636933818459511,0.10898621380329132,-0.08994104713201523,-0.2021007090806961,-0.04676417261362076,-0.15315748751163483,-0.009835495613515377,-0.08640768378973007,-0.053684432059526443,-0.12057337909936905,0.00850608292967081,0.21706940233707428,-0.05146980658173561,-0.02608766406774521,-0.003674359992146492,-0.2667767405509949,-0.1478448212146759,0.07603412866592407,0.17146264016628265,-0.14398258924484253,-0.23031598329544067,-0.002046293579041958,-0.04832448810338974,0.0705568790435791,0.13138215243816376,0.11150769144296646,0.12141173332929611,0.022781848907470703,0.0028084421064704657,-0.15414251387119293,0.025130750611424446,0.04900205135345459,0.07239958643913269,0.08585002273321152,-0.24118860065937042,0.20216169953346252,0.055963288992643356,0.3474031090736389,0.2101677507162094,-0.03416327387094498,0.20518723130226135,0.11060784012079239,0.0783957839012146,-0.0596044585108757,-0.3097893297672272,0.004627259448170662,0.07866322994232178,0.09216052293777466,-0.13921989500522614,0.006016048137098551,0.20624248683452606,-0.3562023937702179,0.2565111517906189,-0.07511167228221893,0.036216240376234055,-0.09242451190948486,0.33057400584220886,0.044189002364873886,-0.06112731620669365,-0.15843789279460907,0.056682951748371124,-0.0020403971429914236,-0.10297148674726486,0.17024318873882294,-0.07033707201480865,0.030700312927365303,0.1936938315629959,-0.04178304225206375,-0.07537588477134705,-0.040695663541555405,0.3156152367591858,-0.09289282560348511,-0.05330129712820053
CHEMBL1913,-0.07401341944932938,-0.12739333510398865,0.11297125369310379,0.03901490196585655,0.277486652135849,-0.24470208585262299,0.10490301251411438,0.05337415635585785,-0.12631070613861084,-0.07850534468889236,0.1778387874364853,0.12091648578643799,0.045848947018384933,0.10394318401813507,0.0264273714274168,-0.1643010973930359,0.09119702130556107,-0.19806067645549774,-0.08456248790025711,0.02480265125632286,0.07840315252542496,-0.14056850969791412,-0.0419631227850914,0.07659530639648438,-0.10639131814241409,0.13939398527145386,0.01193194929510355,0.06672520935535431,0.13493478298187256,0.22292500734329224,-0.07443200051784515,0.33916935324668884,0.13516037166118622,-0.3317880630493164,-0.005183893721550703,-0.3635731637477875,0.2237425148487091,0.20367911458015442,-0.07083876430988312,-0.040652014315128326,0.031845785677433014,0.08607818186283112,0.21234780550003052,0.006269414443522692,-0.14323802292346954,0.08941709995269775,-0.9720271825790405,0.061651382595300674,-0.058333344757556915,-0.1330985128879547,-0.15903377532958984,0.045087698847055435,0.06686396896839142,0.24488411843776703,-0.0943857878446579,-0.23941299319267273,0.17547185719013214,-0.10476752370595932,0.354779452085495,-0.21886245906352997,-0.018420882523059845,-0.12836994230747223,-3.4269964694976807,-0.11139187961816788,-0.11305447667837143,-0.09383574873209,0.0021913438104093075,0.16680870950222015,-0.10669492185115814,-0.08364910632371902,-0.13682471215724945,0.12033244967460632,-0.00957636907696724,0.18459318578243256,0.057880181819200516,-0.01778634823858738,0.104312464594841,-0.20943278074264526,0.03621456027030945,-0.012891897931694984,0.08185660094022751,0.03979197517037392,0.13530537486076355,0.06828261911869049,0.02756592072546482,-0.07881058752536774,0.20598940551280975,-0.13159829378128052,-0.08424065262079239,0.18452008068561554,-0.15075093507766724,-0.18295487761497498,-0.12876096367835999,-0.050180889666080475,-0.4107348620891571,0.18863998353481293,0.01570526696741581,-0.09404779970645905,0.15750950574874878,0.09444188326597214,0.07953690737485886,0.1137947216629982,0.15892668068408966,-0.04832201078534126,-0.05493498593568802,0.2458232194185257,0.01314939372241497,0.05480043962597847,-0.1036471351981163,0.09261826425790787,-0.045472122728824615,0.07169225066900253,0.22953738272190094,-0.03209824115037918,-0.23774603009223938,0.025131534785032272,0.10403257608413696,0.21167491376399994,-0.07366646081209183,0.24065732955932617,-0.005960173439234495,0.2575196325778961,0.2525467872619629,0.06006524711847305,-0.06087160483002663,-0.31880515813827515,-0.18213969469070435,-0.16675059497356415,-0.1553695797920227,0.028030328452587128,0.03763658553361893,0.10206510871648788,-0.16085562109947205,0.043895602226257324,0.24644528329372406,-0.07773947715759277,-0.1482357680797577,-0.17647914588451385,-0.07549446821212769,-0.298964262008667,0.016347873955965042,0.10027481615543365,0.18291246891021729,-0.020768169313669205,-0.12356492877006531,-0.05441898852586746,-0.21464447677135468,0.24431219696998596,-0.10744121670722961,0.21323421597480774,-0.05358486250042915,-0.25789496302604675,-0.24591678380966187,-0.34276342391967773,-0.155456081032753,0.10473626106977463,-0.11082159727811813,0.0988357812166214,-0.07346059381961823,-0.0880393236875534,-0.007958244532346725,-0.08814316987991333,0.10529302060604095,0.09897513687610626,-0.04093015938997269,-0.10951344668865204,0.09200833737850189,-0.16825880110263824,-0.1528245508670807,0.04686962068080902,-0.008892608806490898,0.026952514424920082,0.024952037259936333,0.17418934404850006,-0.06850138306617737,0.09436390548944473,0.14322470128536224,-0.09356436878442764,-0.04351646080613136,-0.19955497980117798,0.08375927060842514,-0.39825204014778137,0.1077965721487999,-0.00922843161970377,0.08041242510080338,-0.011036580428481102,-0.16556696593761444,0.11624006181955338,-0.05185256525874138,-0.10301252454519272,-0.13198994100093842,0.08885213732719421,0.40926024317741394,-0.01710524968802929,0.15983346104621887,0.0818033218383789,-0.21757443249225616,-0.039083611220121384,0.13283389806747437,0.2301023006439209,-0.033645253628492355,0.14579041302204132,-0.06791461259126663,0.03477224335074425,-0.006416573654860258,-0.04249938204884529,-0.24959784746170044,-0.02061885967850685,0.028537821024656296,0.0189533568918705,0.06981274485588074,-0.09107322245836258,-0.12124409526586533,-0.10795595496892929,-0.004394471179693937,0.14152193069458008,-0.060729362070560455,-0.02375287376344204,-0.03252967447042465,-0.05522065982222557,-0.26237952709198,-0.04293794929981232,0.13104340434074402,0.10994579643011093,0.19208338856697083,-0.015946488827466965,-0.11833492666482925,-0.14014825224876404,0.1046975776553154,0.04869503900408745,-0.03245218098163605,0.033475909382104874,0.09111608564853668,0.09421854466199875,0.23441386222839355,0.005277031101286411,0.04169151186943054,-0.12878668308258057,0.03293569013476372,0.09814285486936569,0.01920013688504696,-0.05456065759062767,0.03146421164274216,0.18973690271377563,-0.06576837599277496,0.010181767866015434,0.24402844905853271,-0.0456380732357502,0.1182706281542778,-0.07322777807712555,-0.27584126591682434,-0.10295194387435913,-0.14623723924160004,-0.012506350874900818,-0.08279750496149063,-0.059482671320438385,-0.119635671377182,0.008956406265497208,0.13162608444690704,-0.053686197847127914,-0.016246501356363297,-0.0187973789870739,-0.23063704371452332,-0.13008424639701843,0.06980451941490173,0.10873527079820633,-0.16451412439346313,-0.2566365599632263,-0.05649431049823761,-0.026895901188254356,0.10213889181613922,0.1503273993730545,0.17173349857330322,0.15419134497642517,0.07454264163970947,-0.07002672553062439,-0.16395694017410278,0.029601244255900383,0.09328759461641312,-0.0010423393687233329,0.07287003099918365,-0.23812073469161987,0.2265106439590454,0.03544841706752777,0.3921724855899811,0.15498413145542145,-0.02381422556936741,0.19710177183151245,0.14151214063167572,0.05745779350399971,-0.02414557710289955,-0.2595706582069397,0.05990450456738472,0.06486760079860687,0.11094734072685242,-0.11450798809528351,-0.03685278445482254,0.2635785639286041,-0.3266853094100952,0.29635384678840637,-0.06459550559520721,-0.010271837934851646,-0.09182994067668915,0.2814520001411438,0.07147131860256195,-0.027670351788401604,-0.16005079448223114,0.05142693966627121,0.005285480059683323,-0.04005470126867294,0.141723170876503,-0.1140277087688446,0.022638441994786263,0.1666199415922165,-0.05026775971055031,-0.07427814602851868,-0.012527423910796642,0.3169481158256531,-0.06559363752603531,-0.09472089260816574
CHEMBL262,-0.007658621296286583,-0.20373034477233887,0.1509614735841751,0.10275273770093918,0.1956513524055481,-0.18885821104049683,0.05113901197910309,-0.0706787109375,-0.1705583930015564,-0.216413676738739,0.15927527844905853,0.03491053357720375,-0.04696972668170929,-0.0064425040036439896,0.06515875458717346,-0.29577308893203735,0.010732006281614304,-0.02400127798318863,-0.07818661630153656,0.09078408032655716,0.029451871290802956,0.08243551105260849,-0.043313879519701004,0.014287584461271763,0.07295431941747665,0.13004028797149658,-0.12227749824523926,0.060531578958034515,0.05070900917053223,0.10577523708343506,-0.0496717169880867,0.0680069550871849,0.07046113908290863,-0.377432256937027,-0.04446498304605484,-0.24033856391906738,0.21651381254196167,0.13533292710781097,0.03148582950234413,0.06511718779802322,0.15625369548797607,0.052357517182826996,0.06227477639913559,-0.07868323475122452,-0.14527814090251923,0.13015224039554596,-0.738631546497345,0.08612264692783356,-0.07975322753190994,-0.022158054634928703,-0.05099311098456383,-0.022194311022758484,-0.08099020272493362,0.08074087649583817,-0.01102389208972454,-0.08944354951381683,0.20293934643268585,-0.09660543501377106,0.5143697261810303,-0.14248117804527283,-0.06430349498987198,0.015937622636556625,-3.2158491611480713,-0.12008977681398392,0.07096599042415619,0.015728697180747986,-0.05442687124013901,0.08885912597179413,-0.07521681487560272,-0.05343570560216904,-0.17485667765140533,0.1159677803516388,-0.10954595357179642,0.07124849408864975,-0.1593921184539795,-0.10847196727991104,0.0046021477319300175,-0.01644096150994301,0.020820893347263336,0.09949701279401779,-0.007042938843369484,0.09065771102905273,-0.0001273697562282905,-0.029642846435308456,0.0968189612030983,-0.07441426813602448,0.0945952832698822,-0.05895440652966499,-0.025614963844418526,0.2584448754787445,-0.044248636811971664,-0.1879451870918274,-0.032886479049921036,-0.17660261690616608,-0.24562333524227142,0.24952220916748047,-0.004602781962603331,0.11839142441749573,-0.058325231075286865,0.21320250630378723,0.15584343671798706,0.05735345184803009,-0.0354037769138813,-0.0266298595815897,0.11978492885828018,0.06754909455776215,0.07788354158401489,0.051252581179142,-0.10111197829246521,0.10606177151203156,-0.11507271975278854,0.14175945520401,0.14677321910858154,-0.09734492748975754,-0.007995393127202988,-0.003542335005477071,0.015462086535990238,0.26971542835235596,-0.10933387279510498,0.15230241417884827,0.09010275453329086,0.28175824880599976,0.0359005481004715,-0.06271608173847198,0.0562434047460556,-0.011204127222299576,-0.24454165995121002,-0.22036342322826385,-0.1333865523338318,0.025468973442912102,-0.028675217181444168,0.1796218752861023,-0.25220832228660583,-0.029579684138298035,0.23949706554412842,0.03668076545000076,-0.13243791460990906,-0.026888875290751457,-0.17292161285877228,-0.05053549259901047,0.18223460018634796,-0.052513688802719116,0.11114022880792618,0.07965109497308731,-0.12653063237667084,-0.027981629595160484,-0.13522082567214966,0.23277683556079865,-0.18194255232810974,0.3364834189414978,0.053464461117982864,-0.15059004724025726,-0.29823607206344604,-0.2544008195400238,-0.1665201485157013,0.0055210464634001255,0.034217700362205505,0.12994544208049774,-0.06981602311134338,-0.10422570258378983,-0.1275695264339447,-0.11359159648418427,0.002575548831373453,-0.03940538316965103,-0.05670199543237686,0.028667034581303596,0.05828514322638512,-0.23039433360099792,0.03438996151089668,0.07912817597389221,0.1782660335302353,0.04070115089416504,-0.03390022739768028,0.06600292026996613,-0.015893667936325073,0.13450509309768677,0.003048485377803445,-0.17319698631763458,0.06421486288309097,-0.22048528492450714,0.2008683979511261,-0.12717105448246002,0.04205784946680069,0.05683799460530281,0.14220386743545532,-0.07596041262149811,-0.21410346031188965,0.3388898968696594,-0.05973681062459946,-0.19917874038219452,-0.17337094247341156,0.027841772884130478,0.4023015797138214,0.013445415534079075,0.2627451419830322,-0.02315519005060196,-0.2741006910800934,0.06331527233123779,0.06944167613983154,0.12383273243904114,-0.12071224302053452,0.2552456557750702,0.1003192886710167,-0.04774489998817444,0.05118422582745552,0.01507106889039278,-0.0951218232512474,-0.0415646955370903,-0.10534410178661346,-0.06950879842042923,-0.02156796120107174,-0.03434578329324722,-0.17373740673065186,0.04816049709916115,-0.012043138965964317,-0.009389015845954418,-0.06490568071603775,-0.1427074521780014,0.015302412211894989,-0.012428401038050652,-0.27449479699134827,-0.20229341089725494,0.07765349000692368,0.12208104878664017,0.09218557924032211,-0.1498795747756958,-0.1030900627374649,-0.03723430633544922,-0.06480705738067627,-0.03832286596298218,-0.04754478856921196,0.1314537674188614,0.03337028995156288,0.007697524037212133,0.09366700053215027,0.002808018820360303,-0.06731123477220535,-0.06744607537984848,0.05548567697405815,0.059850819408893585,-0.00639408128336072,-0.05910461023449898,0.0789300799369812,0.19481486082077026,0.1545160710811615,-0.010677866637706757,0.2062387317419052,0.012182713486254215,0.19240236282348633,-0.001196156139485538,-0.12728670239448547,-0.030465200543403625,-0.2142762988805771,0.01482955738902092,-0.07634518295526505,-0.12427213042974472,-0.11336102336645126,-0.07694414258003235,0.3193320035934448,-0.017098858952522278,-0.04277286306023598,0.01152245607227087,-0.19705674052238464,-0.10545225441455841,-0.005277909338474274,0.06237298622727394,-0.22753895819187164,-0.17295220494270325,0.10552354156970978,-0.019397461786866188,0.038234926760196686,0.04287871718406677,0.22877292335033417,0.08765850961208344,0.01536579616367817,-0.02759893611073494,0.06296690553426743,0.029021473601460457,0.06330933421850204,-0.07837921380996704,-0.027886930853128433,-0.1190268024802208,0.3108171224594116,0.011796184815466404,0.18483206629753113,0.2008127123117447,-0.028337202966213226,-0.0672285184264183,0.13560594618320465,-0.04402171075344086,-0.08143056929111481,-0.11703113466501236,0.12085898965597153,0.10879351198673248,-0.12119904160499573,-0.0327165387570858,-0.16876406967639923,0.16651828587055206,-0.1609226018190384,0.054190926253795624,-0.12779448926448822,-0.05555223301053047,0.0751466378569603,0.2561281621456146,0.008395927958190441,-0.14690421521663666,-0.077751025557518,-0.03753117099404335,0.051929086446762085,-0.11888822168111801,0.06317396461963654,-0.18767499923706055,0.006519709713757038,0.10117578506469727,0.05393464118242264,-0.1307244449853897,-0.18870028853416443,0.39615416526794434,-0.09953760355710983,-0.015589688904583454
CHEMBL340,0.012301483191549778,-0.07766450941562653,0.2860700190067291,0.07117289304733276,0.15639129281044006,-0.19602884352207184,0.155524343252182,-0.1413956582546234,-0.36162617802619934,0.07625754922628403,0.11582860350608826,-0.2429906576871872,-0.23331093788146973,0.26412463188171387,0.3168060779571533,-0.2566273510456085,-0.10269740223884583,0.01345148030668497,-0.06555140018463135,-0.028927022591233253,-0.03998051583766937,-0.17770765721797943,-0.08693891763687134,-0.08843513578176498,0.1310783177614212,-0.1479233056306839,-0.21154385805130005,0.10410483926534653,0.02225276455283165,0.20569300651550293,0.14649058878421783,0.29367485642433167,0.05835564434528351,-0.19199781119823456,-0.19123584032058716,-0.23084354400634766,0.03540502116084099,0.06080201268196106,-0.10584530979394913,0.1795738935470581,0.2535214424133301,0.1669132262468338,-0.2627612352371216,0.08073587715625763,-0.29449397325515747,0.16932429373264313,-0.3861008584499359,0.41057491302490234,-0.009868880733847618,-0.28368473052978516,0.07097338885068893,0.019916998222470284,-0.20898325741291046,0.09372976422309875,-0.003271012334153056,-0.1501675695180893,-0.006995640695095062,-0.04283098503947258,0.50873863697052,-0.1638222634792328,-0.03260359913110733,0.06975686550140381,-2.242011785507202,-0.1855110377073288,0.18248248100280762,-0.06342865526676178,-0.07753504812717438,0.08802937716245651,-0.0013681845739483833,0.0026571594644337893,-0.143559068441391,0.17516368627548218,-0.067637138068676,0.25716841220855713,0.04187583178281784,-0.08042684197425842,0.027641678228974342,-0.10026001930236816,-0.11060407757759094,-0.1851535588502884,0.25015848875045776,0.17477291822433472,0.09867125004529953,-0.035193461924791336,0.12343722581863403,-0.006112497299909592,-0.020728420466184616,-0.14095449447631836,-0.006196021102368832,0.1477653682231903,-0.2630252540111542,-0.15396541357040405,0.08452346920967102,-0.2068912386894226,-0.30398911237716675,0.2286931425333023,-0.01615600660443306,0.004164436832070351,-0.06518559157848358,0.3274167478084564,0.15101435780525208,0.005844110623002052,-0.15235580503940582,0.16026794910430908,0.28989601135253906,0.3266448676586151,-0.19601507484912872,0.022704437375068665,-0.1520928293466568,0.17352454364299774,-0.09201822429895401,-0.02436341531574726,-0.04736535996198654,-0.12126480787992477,-0.18236258625984192,-0.14975163340568542,-0.04306219518184662,0.26835334300994873,-0.37556353211402893,0.02731543779373169,0.0504714734852314,0.24184542894363403,-0.004532600753009319,-0.15504340827465057,0.3034234642982483,0.1784936636686325,-0.07482345402240753,-0.03340550512075424,-0.14282667636871338,0.057962775230407715,-0.10559204965829849,0.23369188606739044,0.050890274345874786,-0.04130213335156441,0.3958838880062103,0.13223843276500702,0.01813911274075508,-0.10761096328496933,-0.14991433918476105,-0.2138623595237732,0.14135436713695526,-0.10198855400085449,-0.036458708345890045,-0.03359517082571983,-0.003471910720691085,-0.026703009381890297,-0.08287521451711655,0.3543373942375183,-0.3011852502822876,0.33438780903816223,0.06032996624708176,-0.17386987805366516,-0.535168468952179,-0.23886516690254211,-0.19393214583396912,0.1873500645160675,0.05490972474217415,0.3222661316394806,-0.06411631405353546,-0.17483031749725342,0.026339003816246986,0.03959556296467781,0.025346990674734116,-0.1874309927225113,-0.13697576522827148,0.057451024651527405,0.25102710723876953,-0.360315203666687,-0.024141795933246613,0.24160271883010864,-0.12373647093772888,0.32536211609840393,0.041974026709795,0.10333925485610962,-0.4175989627838135,-0.05008251965045929,0.1866275668144226,-0.24199774861335754,-0.12093078345060349,-0.0841941088438034,0.06604593992233276,-0.5179778933525085,0.09914154559373856,0.0008310034754686058,-0.017067281529307365,-0.006995887495577335,-0.10417494177818298,0.30361291766166687,-0.2976999282836914,-0.17579948902130127,-0.0987284928560257,0.28928399085998535,0.22518956661224365,0.050155557692050934,0.4001544117927551,-0.13191045820713043,-0.1356193721294403,0.23331628739833832,-0.026438182219862938,0.2853088974952698,0.2001958042383194,0.005648727994412184,0.06841443479061127,0.023489385843276978,0.2109353244304657,-0.06626537442207336,-0.11131632328033447,-0.006108063273131847,-0.12179728597402573,0.04084103927016258,-0.15393328666687012,-0.33103227615356445,-0.04760553315281868,0.031962767243385315,-0.01208370178937912,-0.30631646513938904,-0.0858287513256073,-0.11111830919981003,0.003251759335398674,-0.01616206392645836,-0.29007458686828613,-0.2567141652107239,0.3117532432079315,0.20972171425819397,0.061963073909282684,-0.028735065832734108,0.1268908977508545,-0.10914144665002823,-0.024839935824275017,-0.03801500424742699,0.03245162591338158,0.07622388750314713,0.1558016538619995,-0.11337769776582718,0.14922389388084412,-0.06280717253684998,0.05624552071094513,-0.31273114681243896,0.03555227443575859,0.016080403700470924,-0.10061261802911758,-0.07190796732902527,-0.0005318481125868857,0.04554706811904907,0.14274924993515015,0.013804271817207336,0.21488000452518463,0.006047921255230904,0.23789526522159576,-0.059436552226543427,-0.10561923682689667,-0.2559606432914734,-0.22399941086769104,-0.18345272541046143,-0.11166270822286606,-0.012170331552624702,-0.21267041563987732,-0.024473289027810097,0.43394431471824646,-0.18355487287044525,0.029457062482833862,-0.3514099717140198,-0.02939935028553009,-0.10510066151618958,-0.08464288711547852,0.19306136667728424,-0.14791806042194366,-0.18680325150489807,0.03506011143326759,-0.11050313711166382,0.13383354246616364,0.08275150507688522,0.09225887060165405,-0.03585264831781387,0.16065305471420288,0.05335500091314316,0.033331166952848434,-0.09180931001901627,-0.026965873315930367,0.07752950489521027,0.20515376329421997,-0.2291407287120819,0.2265632599592209,-0.09126728773117065,-0.2002539336681366,0.013847551308572292,-0.20166388154029846,0.0539168119430542,0.2284090667963028,-0.047805462032556534,0.029317621141672134,-0.2706139385700226,0.15404626727104187,0.21623603999614716,-0.22764918208122253,-0.009909631684422493,0.005546791944652796,0.03588837757706642,-0.18045537173748016,0.1202261745929718,-0.1336476355791092,-0.05448421835899353,0.02460474893450737,0.015605922788381577,0.2103453129529953,-0.03303063288331032,-0.08220215141773224,-0.15970410406589508,-0.07129376381635666,-0.1489168256521225,0.0792795792222023,-0.30396848917007446,-0.16975001990795135,0.33357352018356323,0.024044089019298553,-0.1415136307477951,-0.0795430839061737,0.31778112053871155,-0.0710432305932045,0.15718089044094086
CHEMBL301,-0.010695439763367176,-0.27949708700180054,0.21388405561447144,0.1377508044242859,0.19861473143100739,-0.32155853509902954,0.09384914487600327,-0.1043030172586441,-0.32136544585227966,-0.13988985121250153,0.20790067315101624,0.052792344242334366,-0.09697696566581726,-0.13305549323558807,0.11562428623437881,-0.27572622895240784,-0.015806932002305984,0.0023966121952980757,-0.07583393901586533,0.0393647626042366,-0.017871687188744545,-0.04515518993139267,-0.10342083871364594,-0.0034946941304951906,0.09925457090139389,0.04365694522857666,-0.19529995322227478,0.07197052985429764,-0.01509025227278471,0.1151830181479454,-0.09613680839538574,0.17522606253623962,0.03183892369270325,-0.43819335103034973,-0.1200248971581459,-0.28007325530052185,0.1721358448266983,0.20612388849258423,-0.11752161383628845,0.015593430027365685,0.2907371520996094,0.07463293522596359,0.06620115786790848,-0.08087584376335144,-0.22609131038188934,0.1667918711900711,-0.5005801320075989,0.1310419738292694,-0.1250835806131363,-0.06618894636631012,-0.0744079053401947,-0.06020841747522354,-0.13180656731128693,0.15361356735229492,0.013961908407509327,-0.0799456313252449,0.2501370906829834,-0.1796049177646637,0.6303972601890564,-0.15655460953712463,0.02840796485543251,-0.0006993452552706003,-1.9255985021591187,-0.08008066564798355,0.09576462209224701,0.020497051998972893,-0.046272266656160355,0.022616343572735786,-0.11745040863752365,-0.11060316860675812,-0.21427719295024872,0.1882312297821045,-0.06937766075134277,0.08953486382961273,-0.005937754176557064,-0.14558027684688568,0.034927647560834885,-0.07993185520172119,0.032873935997486115,0.027382733300328255,-0.030324354767799377,0.014955967664718628,0.12413215637207031,-0.014338025823235512,0.15961994230747223,-0.04033529385924339,0.0667138621211052,-0.029336631298065186,-0.11166184395551682,0.2857320010662079,-0.016239680349826813,-0.300182580947876,-0.08750684559345245,-0.3465181589126587,-0.31024932861328125,0.36223703622817993,0.03324941173195839,0.0832984670996666,-0.08582429587841034,0.39596518874168396,0.1500575691461563,0.11141280829906464,-0.09023968875408173,-0.018881121650338173,0.19044633209705353,0.14092601835727692,0.16244803369045258,0.03361833095550537,-0.15803731977939606,0.14802443981170654,-0.21724632382392883,0.1365477591753006,0.09561092406511307,-0.17498542368412018,-0.051047369837760925,-0.052752912044525146,-0.12442465126514435,0.13297900557518005,-0.1044410690665245,0.1364484280347824,0.0471375398337841,0.3150300085544586,-0.0340222492814064,-0.20695818960666656,0.008614807389676571,0.028390636667609215,-0.3011602759361267,-0.13013313710689545,-0.11473481357097626,-0.02674795873463154,-0.09091522544622421,0.33613336086273193,-0.2567887008190155,0.00371541571803391,0.2749296724796295,0.060949768871068954,-0.06810539215803146,-0.06488495320081711,-0.12915240228176117,-0.12876810133457184,0.25290897488594055,-0.02249363251030445,0.09397218376398087,0.01589946262538433,-0.1254417449235916,-0.12548457086086273,-0.17508545517921448,0.2881988286972046,-0.19369718432426453,0.3091558814048767,0.035062626004219055,-0.16969311237335205,-0.40146130323410034,-0.29521507024765015,-0.13957658410072327,-0.08153768628835678,0.010868978686630726,0.18833932280540466,0.0282541885972023,-0.16996589303016663,-0.11918280273675919,-0.12527163326740265,0.022449200972914696,-0.053349316120147705,-0.10382920503616333,0.08454489707946777,0.020358974114060402,-0.21409063041210175,-0.04775923490524292,0.12386246770620346,0.26179108023643494,0.10354264825582504,0.004789380822330713,0.10474463552236557,-0.18687184154987335,0.11301661282777786,0.06903804838657379,-0.27069807052612305,0.013259592466056347,-0.15755140781402588,0.11698827147483826,-0.13370825350284576,0.1425846368074417,0.09978429973125458,0.10056240856647491,-0.10695237666368484,-0.17453505098819733,0.4515690505504608,-0.09279501438140869,-0.197543665766716,-0.1480441689491272,0.013457763940095901,0.42990773916244507,-0.02323235757648945,0.3883492946624756,-0.11264612525701523,-0.3017010986804962,0.011462760157883167,-0.00504828616976738,0.18479719758033752,-0.1022261306643486,0.21999776363372803,0.058476999402046204,-0.010427875444293022,0.1598527729511261,-0.05922841280698776,-0.14768889546394348,-0.10769969969987869,-0.09998312592506409,-0.0249436404556036,0.03708060458302498,-0.03451953083276749,-0.025940680876374245,0.007508188020437956,0.07383285462856293,-0.08965303748846054,-0.16230258345603943,-0.11461268365383148,0.0062537421472370625,0.014143912121653557,-0.2395704835653305,-0.22375085949897766,0.02391432784497738,0.06957647949457169,0.16167716681957245,-0.1612619012594223,-0.13628529012203217,-0.08315695077180862,-0.04167809709906578,-0.11035415530204773,-0.06674261391162872,0.07205547392368317,0.002993338042870164,0.03256494551897049,0.0580504909157753,-0.02398792840540409,-0.04904279112815857,-0.2052730768918991,0.022564159706234932,0.07866162061691284,0.11450958251953125,-0.08823466300964355,0.10580308735370636,0.21502527594566345,0.02795318514108658,-0.021584492176771164,0.20418938994407654,-0.10374616086483002,0.3159829378128052,0.04729586839675903,-0.27132782340049744,-0.085958331823349,-0.33652207255363464,0.033500440418720245,-0.12280789762735367,-0.21940894424915314,-0.14378587901592255,-0.1195429340004921,0.342921644449234,-0.1462138593196869,-0.07226252555847168,-0.031413543969392776,-0.2433207482099533,-0.12069743871688843,-0.044685374945402145,0.09404674172401428,-0.1841505914926529,-0.29464319348335266,0.15535186231136322,-0.056492291390895844,-0.00020069758465979248,0.04603065550327301,0.23206466436386108,0.11773309111595154,0.08912193775177002,-0.0021235921885818243,0.07076077908277512,0.05894903838634491,0.17216238379478455,-0.06702671200037003,0.016944753006100655,-0.07763553410768509,0.2987992763519287,-0.036375656723976135,0.11103378236293793,0.19028706848621368,-0.04808073490858078,0.04007972776889801,0.2967381179332733,0.002194191562011838,-0.02339264005422592,-0.19917012751102448,0.1674690544605255,0.1633576601743698,-0.10847877711057663,-0.058306485414505005,-0.10041039437055588,0.17224076390266418,-0.08950630575418472,-0.047656625509262085,-0.21312308311462402,-0.03221772983670235,0.11829084903001785,0.19437865912914276,0.04019510746002197,-0.09550470113754272,-0.10612379759550095,0.04718950390815735,0.0914585068821907,-0.1479363739490509,0.16251663863658905,-0.28214433789253235,-0.096218541264534,0.12858812510967255,0.06461897492408752,-0.10647603124380112,-0.18781475722789764,0.3895137310028076,-0.05164423957467079,-0.02750197984278202
CHEMBL1936,-0.12283594161272049,-0.10723626613616943,0.09967813640832901,0.08175373822450638,0.21599549055099487,-0.2657807469367981,0.0833907350897789,-0.012977976351976395,-0.15218354761600494,-0.10540054738521576,0.14203764498233795,0.1565278172492981,0.08755389600992203,0.10045278817415237,0.10874989628791809,-0.12914016842842102,0.13099655508995056,-0.1440548449754715,-0.0750446617603302,0.04672650620341301,0.07085786014795303,-0.12271694093942642,0.01337269227951765,0.06972876191139221,-0.1241137757897377,0.12057111412286758,-0.09420586377382278,0.08120224624872208,0.05786997079849243,0.2649841010570526,-0.11551327258348465,0.4918283522129059,0.16694997251033783,-0.29628416895866394,0.004059395752847195,-0.3412502408027649,0.17205199599266052,0.12899263203144073,-0.011112154461443424,0.041195522993803024,0.04191713035106659,0.07448276877403259,0.14854320883750916,-0.025243427604436874,-0.15236137807369232,0.1216343492269516,-1.0304476022720337,0.1252787709236145,-0.12515313923358917,-0.15632392466068268,-0.11810994148254395,0.013317279517650604,0.03231336921453476,0.168736532330513,-0.14034965634346008,-0.23189866542816162,0.17435117065906525,-0.06516583263874054,0.36963579058647156,-0.17447859048843384,0.018436988815665245,-0.15306082367897034,-3.2316854000091553,-0.17680798470973969,-0.04044532775878906,-0.04130644351243973,-0.010953809134662151,0.15478074550628662,-0.031832460314035416,-0.08437109738588333,-0.13714171946048737,0.15449538826942444,0.047620173543691635,0.13279315829277039,0.04700257256627083,-0.05677070841193199,0.13233186304569244,-0.13666455447673798,0.044597361236810684,-0.012734821997582912,0.08176657557487488,0.0968659445643425,0.1709255874156952,0.003367108991369605,0.05569437891244888,0.02397071197628975,0.21551910042762756,-0.11965372413396835,-0.03870071470737457,0.1915467381477356,-0.09896095097064972,-0.295812726020813,-0.03819676488637924,-0.06971441209316254,-0.40881139039993286,0.1748439520597458,-0.003447868162766099,-0.10126544535160065,0.05124817043542862,0.09282082319259644,0.13968588411808014,0.1122906282544136,0.11693228036165237,-0.05570337921380997,0.008757878094911575,0.25982239842414856,0.017523150891065598,0.09259716421365738,-0.0933532863855362,0.06938307732343674,-0.100438691675663,0.10571636259555817,0.17352294921875,-0.0316871702671051,-0.22788269817829132,0.044972412288188934,0.20347508788108826,0.15829868614673615,-0.10213904827833176,0.14365623891353607,0.039313774555921555,0.27158623933792114,0.19493693113327026,-0.022542530670762062,-0.030955426394939423,-0.26258188486099243,-0.18769605457782745,-0.16263477504253387,-0.13485920429229736,0.007531123235821724,0.028123725205659866,0.11759921163320541,-0.17585094273090363,0.04250791296362877,0.2787782847881317,-0.043203406035900116,-0.15567058324813843,-0.09382153302431107,-0.14723867177963257,-0.39004313945770264,0.11355429887771606,0.058901555836200714,0.1722666323184967,-0.039034370332956314,-0.10026431828737259,-0.13998310267925262,-0.14853809773921967,0.25826796889305115,-0.11103050410747528,0.21625055372714996,-0.034207820892333984,-0.22956858575344086,-0.25910794734954834,-0.2368255853652954,-0.16417261958122253,0.14707110822200775,-0.14320793747901917,0.14169184863567352,-0.09851343929767609,-0.047787249088287354,0.02716466598212719,-0.04994385689496994,0.1239398941397667,0.1874629110097885,-0.09049886465072632,-0.06651599705219269,0.13497130572795868,-0.18703241646289825,-0.1003619059920311,0.043540097773075104,-0.1026344895362854,0.022056221961975098,0.0872034877538681,0.05218978971242905,-0.12782618403434753,0.10321225970983505,0.09761426597833633,-0.13357014954090118,-0.12954328954219818,-0.2140890508890152,0.07014789432287216,-0.45333635807037354,0.10488642007112503,0.055254895240068436,0.077686607837677,-0.015180336311459541,-0.17951896786689758,0.13879036903381348,-0.060507673770189285,-0.10719601809978485,-0.18777351081371307,0.11935080587863922,0.3975231945514679,-0.06975279003381729,0.17731155455112457,0.0758611261844635,-0.2558480203151703,0.04200999066233635,0.11671542376279831,0.24487963318824768,-0.10323246568441391,0.16659808158874512,-0.11015058308839798,0.08476222306489944,0.04063558205962181,-0.028395820409059525,-0.222625732421875,-0.1724010705947876,-0.03955206274986267,-0.06827117502689362,0.06207449361681938,-0.050640005618333817,-0.1334937959909439,-0.05066407099366188,-0.0007582617690786719,0.1282743215560913,-0.07721222192049026,0.0015126814832910895,-0.04249968379735947,-0.022544225677847862,-0.31739115715026855,-0.10640313476324081,0.10684359818696976,0.12301699817180634,0.19958555698394775,-0.10175883024930954,-0.08676499128341675,-0.08485943078994751,0.15475837886333466,0.040345288813114166,-0.0029341483023017645,0.006727791856974363,0.08056685328483582,0.0415637232363224,0.30948230624198914,0.03293275460600853,0.018163500353693962,-0.18607506155967712,0.06520769000053406,0.08857598155736923,-0.002044584136456251,-0.10527922213077545,0.09722249954938889,0.15874095261096954,-0.03858377784490585,-0.021141039207577705,0.22324983775615692,-0.04873514547944069,0.11044501513242722,-0.09600268304347992,-0.17899009585380554,-0.029909096658229828,-0.2399321049451828,-0.0037877270951867104,-0.15412195026874542,-0.0627763569355011,-0.1386297643184662,0.05371924862265587,0.22430430352687836,-0.0594484768807888,-0.0683819130063057,0.0021464654710143805,-0.2629697322845459,-0.16955631971359253,0.04970358684659004,0.151868999004364,-0.13920889794826508,-0.2964440584182739,0.05954310670495033,-0.05660538375377655,0.03384445235133171,0.12991797924041748,0.1254197061061859,0.11331791430711746,0.04133196547627449,0.01593494974076748,-0.09680535644292831,0.015984270721673965,0.07834559679031372,0.06604424864053726,0.05072394013404846,-0.19379128515720367,0.24690492451190948,0.029757916927337646,0.3560493588447571,0.23752450942993164,-0.028068145737051964,0.15909767150878906,0.1394190490245819,0.09140165895223618,-0.07350592315196991,-0.318562775850296,0.011881658807396889,0.09409495443105698,0.07629812508821487,-0.10009211301803589,-0.008900667540729046,0.1512475609779358,-0.3302288055419922,0.256028950214386,-0.047992926090955734,0.0071478309109807014,-0.08998548984527588,0.33827656507492065,0.04971928894519806,-0.09369810670614243,-0.1791999340057373,0.006556951906532049,-0.04440131410956383,-0.08367394655942917,0.16693225502967834,-0.08573037385940552,0.0019496282329782844,0.14522771537303925,-0.04547187685966492,-0.13322526216506958,-0.11382785439491272,0.330344021320343,-0.059392049908638,-0.02152198553085327
CHEMBL1871,-0.007569433189928532,-0.2321746051311493,0.04832923039793968,0.11047790199518204,0.17872023582458496,-0.08838162571191788,-0.04388151317834854,0.03271696716547012,0.03126109391450882,-0.03262115269899368,0.1546153426170349,0.212559312582016,-0.048342514783144,0.11330191791057587,-0.019048675894737244,-0.14865024387836456,0.08916255831718445,-0.10090995579957962,-0.1580829620361328,0.16302263736724854,-0.11134825646877289,0.06645278632640839,-0.040960196405649185,-0.07530517876148224,-0.0922858864068985,0.30755653977394104,0.12971077859401703,0.14038680493831635,0.1473803073167801,0.17033794522285461,-0.1853226274251938,-0.06600913405418396,0.10513048619031906,-0.1665019989013672,0.17645296454429626,-0.3191939890384674,0.04032823070883751,-0.003788925241678953,0.12019551545381546,0.10421857237815857,-0.04664077237248421,0.05786830559372902,0.22328461706638336,0.06485182791948318,0.15094947814941406,0.002036463003605604,-1.0548752546310425,-0.015613634139299393,-0.0894208624958992,0.06448289006948471,0.030123494565486908,0.06850068271160126,0.005105312447994947,0.2513168156147003,-0.1401788890361786,-0.10923662781715393,0.2444770187139511,-0.040958791971206665,0.45836499333381653,-0.255002498626709,-0.035722773522138596,0.06441547721624374,-4.860356330871582,-0.15568186342716217,-0.10278403759002686,-0.11102861166000366,0.03810271620750427,0.21047130227088928,-0.15038816630840302,-0.04613776504993439,-0.2236635386943817,0.0918261781334877,-0.10921871662139893,0.22880515456199646,-0.18275336921215057,0.14019273221492767,0.028314407914876938,-0.1772581934928894,0.05223871022462845,0.07181311398744583,0.10084068775177002,-0.06918483227491379,-0.09015251696109772,0.11756472289562225,-0.1556270718574524,-0.23547102510929108,0.00323398201726377,0.07673562318086624,0.0030221545603126287,0.16652533411979675,-0.13772016763687134,0.07702639698982239,-0.117250956594944,-0.005334870889782906,-0.029584569856524467,0.18767622113227844,0.06771524250507355,0.12232117354869843,0.20273829996585846,-0.09627936780452728,0.02504517324268818,-0.053296662867069244,-0.09066104143857956,0.111463263630867,-0.07304691523313522,0.11762084811925888,-0.049378275871276855,0.01759239286184311,-0.05640567094087601,-0.10569984465837479,0.03997030109167099,0.16159814596176147,0.11262534558773041,0.039813507348299026,0.05187448486685753,-0.004145528189837933,-0.0017549996264278889,0.280428022146225,-0.2098453938961029,0.2529868185520172,0.1444450467824936,0.22139833867549896,0.3573613166809082,0.182872012257576,0.0901925340294838,-0.1036733016371727,-0.011731700040400028,-0.2182338684797287,-0.2622959315776825,0.08441698551177979,0.07409950345754623,-0.08606833219528198,-0.19923825562000275,-0.05011819675564766,0.1322324126958847,-0.020690713077783585,-0.19861678779125214,-0.0473155602812767,-0.054392147809267044,-0.03628362715244293,0.1441139280796051,-0.030424945056438446,0.06238442659378052,0.09101957082748413,-0.10709834843873978,-0.10005192458629608,-0.08975987136363983,0.09090592712163925,-0.13935020565986633,0.3100321590900421,0.003767668269574642,-0.024958664551377296,-0.14165306091308594,-0.25718504190444946,-0.12126316875219345,-0.0006740139797329903,0.07012929022312164,0.027506697922945023,-0.04097848758101463,0.051140960305929184,0.007910139858722687,-0.07886730134487152,-0.0948285236954689,-0.021359145641326904,-0.05145195871591568,-0.030855761840939522,0.0157184936106205,-0.020247003063559532,0.010185976512730122,0.08246906101703644,0.20994551479816437,-0.09211064875125885,0.05542292818427086,0.09335726499557495,0.06789831072092056,0.07174964249134064,0.2397419959306717,-0.0761098712682724,0.17992030084133148,-0.11434502899646759,0.1939777433872223,-0.28432637453079224,-0.09019262343645096,-0.03979147598147392,0.04447207599878311,0.03449452668428421,-0.3101409077644348,0.12845857441425323,-0.06008453667163849,-0.25030744075775146,-0.04134775325655937,-0.06640470772981644,0.32232335209846497,0.1344962865114212,0.08340807259082794,0.0576503686606884,-0.18282413482666016,0.16217073798179626,0.22235184907913208,0.18712690472602844,-0.047491978853940964,0.2503978908061981,-0.01925630308687687,-0.01969698630273342,0.005304313730448484,0.12802951037883759,-0.1446012705564499,0.09644532948732376,0.04540436342358589,-0.027157191187143326,0.03683532401919365,-0.08658735454082489,-0.11097158491611481,0.10017126798629761,-0.10051877796649933,0.2029234915971756,0.009681097231805325,-0.11100374907255173,-0.022842708975076675,-0.20375387370586395,-0.03063815087080002,0.010353744961321354,0.11621405929327011,-0.003476883517578244,0.10179322957992554,-0.11266825348138809,-0.21144063770771027,-0.06387664377689362,-0.02497844770550728,0.02044016122817993,-0.08687340468168259,0.08214729279279709,0.22778861224651337,0.03274983912706375,0.19219370186328888,-0.050252605229616165,0.025103889405727386,0.01874210685491562,0.06872628629207611,0.0217589084059,-0.020082954317331314,-0.19112394750118256,0.0055674039758741856,0.1282101422548294,-0.03709818422794342,0.006984706502407789,0.1312730759382248,0.06959998607635498,-0.029674526304006577,-0.1391366422176361,-0.23423483967781067,-0.07124315202236176,0.17583689093589783,-0.1969115287065506,-0.22196528315544128,-0.02085714600980282,0.15619714558124542,-0.07078369706869125,0.1439359486103058,0.09415253251791,0.16997893154621124,-0.18207193911075592,-0.10415776818990707,-0.05608658120036125,0.07020480185747147,0.03979317471385002,-0.12526661157608032,0.02435406669974327,0.1637859046459198,0.10185807943344116,0.1482972800731659,0.06021280214190483,-0.06364167481660843,0.2575575113296509,-0.009935534559190273,-0.0934906154870987,-0.10285193473100662,0.1254120171070099,0.015410336665809155,-0.10447674989700317,-0.07127895206212997,0.11338815838098526,0.2696949541568756,-0.02173287607729435,0.20346084237098694,-0.04674990847706795,-0.035806186497211456,0.1523667871952057,-0.1477343738079071,-0.05227748304605484,-0.10918276757001877,0.0004001581692136824,0.10025416314601898,-0.019665909931063652,0.008925436064600945,-0.0638095960021019,-0.2947426438331604,0.07521339505910873,-0.4157569110393524,0.22568266093730927,-0.03199036046862602,-0.11112594604492188,-0.07898423075675964,0.19071067869663239,-0.13482831418514252,-0.02179962396621704,-0.09380005300045013,-0.2085736244916916,0.05614032223820686,0.05580590292811394,-0.00590719748288393,-0.049091946333646774,0.015150986611843109,0.04467099905014038,-0.06989849358797073,0.04342862218618393,-0.003066302975639701,0.23406216502189636,-0.13486215472221375,-0.044862013310194016
