Target_ID,embedding_0,embedding_1,embedding_2,embedding_3,embedding_4,embedding_5,embedding_6,embedding_7,embedding_8,embedding_9,embedding_10,embedding_11,embedding_12,embedding_13,embedding_14,embedding_15,embedding_16,embedding_17,embedding_18,embedding_19,embedding_20,embedding_21,embedding_22,embedding_23,embedding_24,embedding_25,embedding_26,embedding_27,embedding_28,embedding_29,embedding_30,embedding_31,embedding_32,embedding_33,embedding_34,embedding_35,embedding_36,embedding_37,embedding_38,embedding_39,embedding_40,embedding_41,embedding_42,embedding_43,embedding_44,embedding_45,embedding_46,embedding_47,embedding_48,embedding_49,embedding_50,embedding_51,embedding_52,embedding_53,embedding_54,embedding_55,embedding_56,embedding_57,embedding_58,embedding_59,embedding_60,embedding_61,embedding_62,embedding_63,embedding_64,embedding_65,embedding_66,embedding_67,embedding_68,embedding_69,embedding_70,embedding_71,embedding_72,embedding_73,embedding_74,embedding_75,embedding_76,embedding_77,embedding_78,embedding_79,embedding_80,embedding_81,embedding_82,embedding_83,embedding_84,embedding_85,embedding_86,embedding_87,embedding_88,embedding_89,embedding_90,embedding_91,embedding_92,embedding_93,embedding_94,embedding_95,embedding_96,embedding_97,embedding_98,embedding_99,embedding_100,embedding_101,embedding_102,embedding_103,embedding_104,embedding_105,embedding_106,embedding_107,embedding_108,embedding_109,embedding_110,embedding_111,embedding_112,embedding_113,embedding_114,embedding_115,embedding_116,embedding_117,embedding_118,embedding_119,embedding_120,embedding_121,embedding_122,embedding_123,embedding_124,embedding_125,embedding_126,embedding_127,embedding_128,embedding_129,embedding_130,embedding_131,embedding_132,embedding_133,embedding_134,embedding_135,embedding_136,embedding_137,embedding_138,embedding_139,embedding_140,embedding_141,embedding_142,embedding_143,embedding_144,embedding_145,embedding_146,embedding_147,embedding_148,embedding_149,embedding_150,embedding_151,embedding_152,embedding_153,embedding_154,embedding_155,embedding_156,embedding_157,embedding_158,embedding_159,embedding_160,embedding_161,embedding_162,embedding_163,embedding_164,embedding_165,embedding_166,embedding_167,embedding_168,embedding_169,embedding_170,embedding_171,embedding_172,embedding_173,embedding_174,embedding_175,embedding_176,embedding_177,embedding_178,embedding_179,embedding_180,embedding_181,embedding_182,embedding_183,embedding_184,embedding_185,embedding_186,embedding_187,embedding_188,embedding_189,embedding_190,embedding_191,embedding_192,embedding_193,embedding_194,embedding_195,embedding_196,embedding_197,embedding_198,embedding_199,embedding_200,embedding_201,embedding_202,embedding_203,embedding_204,embedding_205,embedding_206,embedding_207,embedding_208,embedding_209,embedding_210,embedding_211,embedding_212,embedding_213,embedding_214,embedding_215,embedding_216,embedding_217,embedding_218,embedding_219,embedding_220,embedding_221,embedding_222,embedding_223,embedding_224,embedding_225,embedding_226,embedding_227,embedding_228,embedding_229,embedding_230,embedding_231,embedding_232,embedding_233,embedding_234,embedding_235,embedding_236,embedding_237,embedding_238,embedding_239,embedding_240,embedding_241,embedding_242,embedding_243,embedding_244,embedding_245,embedding_246,embedding_247,embedding_248,embedding_249,embedding_250,embedding_251,embedding_252,embedding_253,embedding_254,embedding_255,embedding_256,embedding_257,embedding_258,embedding_259,embedding_260,embedding_261,embedding_262,embedding_263,embedding_264,embedding_265,embedding_266,embedding_267,embedding_268,embedding_269,embedding_270,embedding_271,embedding_272,embedding_273,embedding_274,embedding_275,embedding_276,embedding_277,embedding_278,embedding_279,embedding_280,embedding_281,embedding_282,embedding_283,embedding_284,embedding_285,embedding_286,embedding_287,embedding_288,embedding_289,embedding_290,embedding_291,embedding_292,embedding_293,embedding_294,embedding_295,embedding_296,embedding_297,embedding_298,embedding_299,embedding_300,embedding_301,embedding_302,embedding_303,embedding_304,embedding_305,embedding_306,embedding_307,embedding_308,embedding_309,embedding_310,embedding_311,embedding_312,embedding_313,embedding_314,embedding_315,embedding_316,embedding_317,embedding_318,embedding_319,embedding_320,embedding_321,embedding_322,embedding_323,embedding_324,embedding_325,embedding_326,embedding_327,embedding_328,embedding_329,embedding_330,embedding_331,embedding_332,embedding_333,embedding_334,embedding_335,embedding_336,embedding_337,embedding_338,embedding_339,embedding_340,embedding_341,embedding_342,embedding_343,embedding_344,embedding_345,embedding_346,embedding_347,embedding_348,embedding_349,embedding_350,embedding_351,embedding_352,embedding_353,embedding_354,embedding_355,embedding_356,embedding_357,embedding_358,embedding_359,embedding_360,embedding_361,embedding_362,embedding_363,embedding_364,embedding_365,embedding_366,embedding_367,embedding_368,embedding_369,embedding_370,embedding_371,embedding_372,embedding_373,embedding_374,embedding_375,embedding_376,embedding_377,embedding_378,embedding_379,embedding_380,embedding_381,embedding_382,embedding_383,embedding_384,embedding_385,embedding_386,embedding_387,embedding_388,embedding_389,embedding_390,embedding_391,embedding_392,embedding_393,embedding_394,embedding_395,embedding_396,embedding_397,embedding_398,embedding_399,embedding_400,embedding_401,embedding_402,embedding_403,embedding_404,embedding_405,embedding_406,embedding_407,embedding_408,embedding_409,embedding_410,embedding_411,embedding_412,embedding_413,embedding_414,embedding_415,embedding_416,embedding_417,embedding_418,embedding_419,embedding_420,embedding_421,embedding_422,embedding_423,embedding_424,embedding_425,embedding_426,embedding_427,embedding_428,embedding_429,embedding_430,embedding_431,embedding_432,embedding_433,embedding_434,embedding_435,embedding_436,embedding_437,embedding_438,embedding_439,embedding_440,embedding_441,embedding_442,embedding_443,embedding_444,embedding_445,embedding_446,embedding_447,embedding_448,embedding_449,embedding_450,embedding_451,embedding_452,embedding_453,embedding_454,embedding_455,embedding_456,embedding_457,embedding_458,embedding_459,embedding_460,embedding_461,embedding_462,embedding_463,embedding_464,embedding_465,embedding_466,embedding_467,embedding_468,embedding_469,embedding_470,embedding_471,embedding_472,embedding_473,embedding_474,embedding_475,embedding_476,embedding_477,embedding_478,embedding_479,embedding_480,embedding_481,embedding_482,embedding_483,embedding_484,embedding_485,embedding_486,embedding_487,embedding_488,embedding_489,embedding_490,embedding_491,embedding_492,embedding_493,embedding_494,embedding_495,embedding_496,embedding_497,embedding_498,embedding_499,embedding_500,embedding_501,embedding_502,embedding_503,embedding_504,embedding_505,embedding_506,embedding_507,embedding_508,embedding_509,embedding_510,embedding_511,embedding_512,embedding_513,embedding_514,embedding_515,embedding_516,embedding_517,embedding_518,embedding_519,embedding_520,embedding_521,embedding_522,embedding_523,embedding_524,embedding_525,embedding_526,embedding_527,embedding_528,embedding_529,embedding_530,embedding_531,embedding_532,embedding_533,embedding_534,embedding_535,embedding_536,embedding_537,embedding_538,embedding_539,embedding_540,embedding_541,embedding_542,embedding_543,embedding_544,embedding_545,embedding_546,embedding_547,embedding_548,embedding_549,embedding_550,embedding_551,embedding_552,embedding_553,embedding_554,embedding_555,embedding_556,embedding_557,embedding_558,embedding_559,embedding_560,embedding_561,embedding_562,embedding_563,embedding_564,embedding_565,embedding_566,embedding_567,embedding_568,embedding_569,embedding_570,embedding_571,embedding_572,embedding_573,embedding_574,embedding_575,embedding_576,embedding_577,embedding_578,embedding_579,embedding_580,embedding_581,embedding_582,embedding_583,embedding_584,embedding_585,embedding_586,embedding_587,embedding_588,embedding_589,embedding_590,embedding_591,embedding_592,embedding_593,embedding_594,embedding_595,embedding_596,embedding_597,embedding_598,embedding_599,embedding_600,embedding_601,embedding_602,embedding_603,embedding_604,embedding_605,embedding_606,embedding_607,embedding_608,embedding_609,embedding_610,embedding_611,embedding_612,embedding_613,embedding_614,embedding_615,embedding_616,embedding_617,embedding_618,embedding_619,embedding_620,embedding_621,embedding_622,embedding_623,embedding_624,embedding_625,embedding_626,embedding_627,embedding_628,embedding_629,embedding_630,embedding_631,embedding_632,embedding_633,embedding_634,embedding_635,embedding_636,embedding_637,embedding_638,embedding_639,embedding_640,embedding_641,embedding_642,embedding_643,embedding_644,embedding_645,embedding_646,embedding_647,embedding_648,embedding_649,embedding_650,embedding_651,embedding_652,embedding_653,embedding_654,embedding_655,embedding_656,embedding_657,embedding_658,embedding_659,embedding_660,embedding_661,embedding_662,embedding_663,embedding_664,embedding_665,embedding_666,embedding_667,embedding_668,embedding_669,embedding_670,embedding_671,embedding_672,embedding_673,embedding_674,embedding_675,embedding_676,embedding_677,embedding_678,embedding_679,embedding_680,embedding_681,embedding_682,embedding_683,embedding_684,embedding_685,embedding_686,embedding_687,embedding_688,embedding_689,embedding_690,embedding_691,embedding_692,embedding_693,embedding_694,embedding_695,embedding_696,embedding_697,embedding_698,embedding_699,embedding_700,embedding_701,embedding_702,embedding_703,embedding_704,embedding_705,embedding_706,embedding_707,embedding_708,embedding_709,embedding_710,embedding_711,embedding_712,embedding_713,embedding_714,embedding_715,embedding_716,embedding_717,embedding_718,embedding_719,embedding_720,embedding_721,embedding_722,embedding_723,embedding_724,embedding_725,embedding_726,embedding_727,embedding_728,embedding_729,embedding_730,embedding_731,embedding_732,embedding_733,embedding_734,embedding_735,embedding_736,embedding_737,embedding_738,embedding_739,embedding_740,embedding_741,embedding_742,embedding_743,embedding_744,embedding_745,embedding_746,embedding_747,embedding_748,embedding_749,embedding_750,embedding_751,embedding_752,embedding_753,embedding_754,embedding_755,embedding_756,embedding_757,embedding_758,embedding_759,embedding_760,embedding_761,embedding_762,embedding_763,embedding_764,embedding_765,embedding_766,embedding_767,embedding_768,embedding_769,embedding_770,embedding_771,embedding_772,embedding_773,embedding_774,embedding_775,embedding_776,embedding_777,embedding_778,embedding_779,embedding_780,embedding_781,embedding_782,embedding_783,embedding_784,embedding_785,embedding_786,embedding_787,embedding_788,embedding_789,embedding_790,embedding_791,embedding_792,embedding_793,embedding_794,embedding_795,embedding_796,embedding_797,embedding_798,embedding_799,embedding_800,embedding_801,embedding_802,embedding_803,embedding_804,embedding_805,embedding_806,embedding_807,embedding_808,embedding_809,embedding_810,embedding_811,embedding_812,embedding_813,embedding_814,embedding_815,embedding_816,embedding_817,embedding_818,embedding_819,embedding_820,embedding_821,embedding_822,embedding_823,embedding_824,embedding_825,embedding_826,embedding_827,embedding_828,embedding_829,embedding_830,embedding_831,embedding_832,embedding_833,embedding_834,embedding_835,embedding_836,embedding_837,embedding_838,embedding_839,embedding_840,embedding_841,embedding_842,embedding_843,embedding_844,embedding_845,embedding_846,embedding_847,embedding_848,embedding_849,embedding_850,embedding_851,embedding_852,embedding_853,embedding_854,embedding_855,embedding_856,embedding_857,embedding_858,embedding_859,embedding_860,embedding_861,embedding_862,embedding_863,embedding_864,embedding_865,embedding_866,embedding_867,embedding_868,embedding_869,embedding_870,embedding_871,embedding_872,embedding_873,embedding_874,embedding_875,embedding_876,embedding_877,embedding_878,embedding_879,embedding_880,embedding_881,embedding_882,embedding_883,embedding_884,embedding_885,embedding_886,embedding_887,embedding_888,embedding_889,embedding_890,embedding_891,embedding_892,embedding_893,embedding_894,embedding_895,embedding_896,embedding_897,embedding_898,embedding_899,embedding_900,embedding_901,embedding_902,embedding_903,embedding_904,embedding_905,embedding_906,embedding_907,embedding_908,embedding_909,embedding_910,embedding_911,embedding_912,embedding_913,embedding_914,embedding_915,embedding_916,embedding_917,embedding_918,embedding_919,embedding_920,embedding_921,embedding_922,embedding_923,embedding_924,embedding_925,embedding_926,embedding_927,embedding_928,embedding_929,embedding_930,embedding_931,embedding_932,embedding_933,embedding_934,embedding_935,embedding_936,embedding_937,embedding_938,embedding_939,embedding_940,embedding_941,embedding_942,embedding_943,embedding_944,embedding_945,embedding_946,embedding_947,embedding_948,embedding_949,embedding_950,embedding_951,embedding_952,embedding_953,embedding_954,embedding_955,embedding_956,embedding_957,embedding_958,embedding_959,embedding_960,embedding_961,embedding_962,embedding_963,embedding_964,embedding_965,embedding_966,embedding_967,embedding_968,embedding_969,embedding_970,embedding_971,embedding_972,embedding_973,embedding_974,embedding_975,embedding_976,embedding_977,embedding_978,embedding_979,embedding_980,embedding_981,embedding_982,embedding_983,embedding_984,embedding_985,embedding_986,embedding_987,embedding_988,embedding_989,embedding_990,embedding_991,embedding_992,embedding_993,embedding_994,embedding_995,embedding_996,embedding_997,embedding_998,embedding_999,embedding_1000,embedding_1001,embedding_1002,embedding_1003,embedding_1004,embedding_1005,embedding_1006,embedding_1007,embedding_1008,embedding_1009,embedding_1010,embedding_1011,embedding_1012,embedding_1013,embedding_1014,embedding_1015,embedding_1016,embedding_1017,embedding_1018,embedding_1019,embedding_1020,embedding_1021,embedding_1022,embedding_1023,embedding_1024,embedding_1025,embedding_1026,embedding_1027,embedding_1028,embedding_1029,embedding_1030,embedding_1031,embedding_1032,embedding_1033,embedding_1034,embedding_1035,embedding_1036,embedding_1037,embedding_1038,embedding_1039,embedding_1040,embedding_1041,embedding_1042,embedding_1043,embedding_1044,embedding_1045,embedding_1046,embedding_1047,embedding_1048,embedding_1049,embedding_1050,embedding_1051,embedding_1052,embedding_1053,embedding_1054,embedding_1055,embedding_1056,embedding_1057,embedding_1058,embedding_1059,embedding_1060,embedding_1061,embedding_1062,embedding_1063,embedding_1064,embedding_1065,embedding_1066,embedding_1067,embedding_1068,embedding_1069,embedding_1070,embedding_1071,embedding_1072,embedding_1073,embedding_1074,embedding_1075,embedding_1076,embedding_1077,embedding_1078,embedding_1079,embedding_1080,embedding_1081,embedding_1082,embedding_1083,embedding_1084,embedding_1085,embedding_1086,embedding_1087,embedding_1088,embedding_1089,embedding_1090,embedding_1091,embedding_1092,embedding_1093,embedding_1094,embedding_1095,embedding_1096,embedding_1097,embedding_1098,embedding_1099,embedding_1100,embedding_1101,embedding_1102,embedding_1103,embedding_1104,embedding_1105,embedding_1106,embedding_1107,embedding_1108,embedding_1109,embedding_1110,embedding_1111,embedding_1112,embedding_1113,embedding_1114,embedding_1115,embedding_1116,embedding_1117,embedding_1118,embedding_1119,embedding_1120,embedding_1121,embedding_1122,embedding_1123,embedding_1124,embedding_1125,embedding_1126,embedding_1127,embedding_1128,embedding_1129,embedding_1130,embedding_1131,embedding_1132,embedding_1133,embedding_1134,embedding_1135,embedding_1136,embedding_1137,embedding_1138,embedding_1139,embedding_1140,embedding_1141,embedding_1142,embedding_1143,embedding_1144,embedding_1145,embedding_1146,embedding_1147,embedding_1148,embedding_1149,embedding_1150,embedding_1151,embedding_1152,embedding_1153,embedding_1154,embedding_1155,embedding_1156,embedding_1157,embedding_1158,embedding_1159,embedding_1160,embedding_1161,embedding_1162,embedding_1163,embedding_1164,embedding_1165,embedding_1166,embedding_1167,embedding_1168,embedding_1169,embedding_1170,embedding_1171,embedding_1172,embedding_1173,embedding_1174,embedding_1175,embedding_1176,embedding_1177,embedding_1178,embedding_1179,embedding_1180,embedding_1181,embedding_1182,embedding_1183,embedding_1184,embedding_1185,embedding_1186,embedding_1187,embedding_1188,embedding_1189,embedding_1190,embedding_1191,embedding_1192,embedding_1193,embedding_1194,embedding_1195,embedding_1196,embedding_1197,embedding_1198,embedding_1199,embedding_1200,embedding_1201,embedding_1202,embedding_1203,embedding_1204,embedding_1205,embedding_1206,embedding_1207,embedding_1208,embedding_1209,embedding_1210,embedding_1211,embedding_1212,embedding_1213,embedding_1214,embedding_1215,embedding_1216,embedding_1217,embedding_1218,embedding_1219,embedding_1220,embedding_1221,embedding_1222,embedding_1223,embedding_1224,embedding_1225,embedding_1226,embedding_1227,embedding_1228,embedding_1229,embedding_1230,embedding_1231,embedding_1232,embedding_1233,embedding_1234,embedding_1235,embedding_1236,embedding_1237,embedding_1238,embedding_1239,embedding_1240,embedding_1241,embedding_1242,embedding_1243,embedding_1244,embedding_1245,embedding_1246,embedding_1247,embedding_1248,embedding_1249,embedding_1250,embedding_1251,embedding_1252,embedding_1253,embedding_1254,embedding_1255,embedding_1256,embedding_1257,embedding_1258,embedding_1259,embedding_1260,embedding_1261,embedding_1262,embedding_1263,embedding_1264,embedding_1265,embedding_1266,embedding_1267,embedding_1268,embedding_1269,embedding_1270,embedding_1271,embedding_1272,embedding_1273,embedding_1274,embedding_1275,embedding_1276,embedding_1277,embedding_1278,embedding_1279
CHEMBL1824,0.029429689049720764,-0.09012474864721298,-0.07309724390506744,0.09326659142971039,-0.07356473058462143,-0.014260408468544483,0.14909641444683075,-0.003936770837754011,0.02173246257007122,0.18817530572414398,0.0038829518016427755,0.0401892364025116,0.11159082502126694,0.14185552299022675,0.06809750199317932,0.05920865386724472,0.036366451531648636,0.07695146650075912,-0.08466224372386932,0.11951900273561478,0.13426852226257324,-0.08517839759588242,0.09486570954322815,-0.17558935284614563,0.016381483525037766,0.12788943946361542,-0.11285872757434845,-0.11936778575181961,-0.05936760827898979,-0.12066145241260529,-0.05764147266745567,0.08304566144943237,0.05358846113085747,0.055878281593322754,0.06613422930240631,0.06112401559948921,-0.141950324177742,0.036397870630025864,0.03553461655974388,-0.00012655265163630247,-0.0064900116994977,0.055487580597400665,0.21381135284900665,0.008796783164143562,0.002531879348680377,-0.1452464908361435,0.017149686813354492,0.1591699719429016,0.014005742967128754,-0.13001766800880432,-0.0512210950255394,-0.048280246555805206,0.09756293147802353,0.07234670966863632,0.01023255754262209,0.07043876498937607,0.05386773869395256,0.08461605757474899,0.0965896025300026,0.04636378958821297,-0.21264204382896423,0.06289901584386826,-0.05647263303399086,-0.006552314385771751,-0.0011921004625037313,-0.007457693573087454,0.12203904241323471,-0.00686175562441349,0.022888872772455215,0.035289715975522995,0.03980475291609764,-0.09205318987369537,-0.14532841742038727,-0.07560932636260986,-0.07670962065458298,0.05255374684929848,-0.055226001888513565,0.22068047523498535,-0.05233552306890488,0.02326737716794014,0.08009334653615952,-0.07950462400913239,-0.17206135392189026,0.025312352925539017,0.028982404619455338,-0.11242498457431793,0.08476726710796356,0.040010251104831696,0.15126676857471466,0.06965073198080063,0.01280685979872942,0.07847911864519119,-0.1383354514837265,0.05167338624596596,-0.001903669792227447,0.02989078499376774,0.04065699502825737,-0.15607425570487976,-0.04527406021952629,-0.15637628734111786,0.0469990111887455,-0.1029890701174736,-0.1330767571926117,-0.08744728565216064,-0.1109740138053894,-0.173158198595047,-0.16934320330619812,0.06821411848068237,-0.04479420185089111,-0.06614979356527328,0.015595659613609314,0.06819356977939606,-0.0006225645774975419,0.03074369579553604,0.009368040598928928,-0.049760013818740845,-0.016328439116477966,0.09943533688783646,0.03070000931620598,0.08136638253927231,-0.12581753730773926,0.0024369549937546253,0.17426462471485138,-0.0477127805352211,-0.13436256349086761,0.026294520124793053,0.18334878981113434,0.0916370376944542,0.002293594414368272,0.05692112073302269,-0.11883608996868134,-0.0965634286403656,-0.10198904573917389,-0.09505955129861832,0.05138172209262848,0.08047184348106384,0.15361744165420532,0.20189961791038513,-0.0631207525730133,0.013026374392211437,0.007150997407734394,-0.10004671663045883,-0.08483222126960754,0.038337305188179016,0.0339554138481617,0.3024221360683441,0.050617169588804245,0.07821270078420639,-0.07024037837982178,0.020884325727820396,-0.08058974891901016,-0.11462070047855377,0.06227791681885719,0.03431696817278862,-0.009312393143773079,0.0029239545110613108,0.11784303188323975,0.11179590225219727,0.09572982043027878,-0.09324540197849274,-0.06631158292293549,0.13393965363502502,0.10528392344713211,-0.060436997562646866,-0.04017939418554306,0.04815118387341499,0.1416650414466858,-0.11272959411144257,0.15128979086875916,-0.051447562873363495,0.009104457683861256,-0.01216589380055666,0.15248669683933258,-0.06634300202131271,0.0169222354888916,-0.10482236742973328,-0.13696451485157013,-0.11115504801273346,0.0089057432487607,0.030514543876051903,0.10349462181329727,-0.035398297011852264,0.07880236208438873,0.1008792445063591,0.03894518315792084,-0.008535501547157764,-0.032610684633255005,0.07276151329278946,0.05297578498721123,0.019202454015612602,-0.053122904151678085,0.11638214439153671,0.05348743870854378,-0.09648961573839188,0.11576429009437561,0.07212840765714645,-0.06893022358417511,0.13629601895809174,-0.14952225983142853,-0.014741203747689724,0.07561392337083817,0.18166784942150116,-0.13615235686302185,0.08353818953037262,0.022239256650209427,0.08688351511955261,0.026192616671323776,-0.053130947053432465,-0.09788481891155243,-0.2031058371067047,-0.056955937296152115,0.037480857223272324,0.1712946891784668,0.13335999846458435,-0.020771432667970657,0.06631741672754288,-0.1374409794807434,0.07455131411552429,0.138445645570755,-0.005185444373637438,0.11061327159404755,-0.028461948037147522,0.09733658283948898,-0.05662818253040314,0.10393932461738586,-0.04911992326378822,-0.16014455258846283,-0.029320012778043747,-0.08079099655151367,-0.0817880630493164,0.1732664704322815,-0.050251998007297516,-0.06528288125991821,-0.15519897639751434,-1.0827550888061523,-0.013327015563845634,0.24587024748325348,0.10075326263904572,-0.15566577017307281,-0.06841632723808289,-0.10520671308040619,0.009990752674639225,-0.11058661341667175,0.12184424698352814,0.014286055229604244,0.013240685686469078,-0.018053337931632996,-0.06416767835617065,0.0018320478266105056,0.10846409946680069,-0.12917082011699677,0.10549274832010269,0.024601437151432037,-0.06144101917743683,0.044597238302230835,0.013376064598560333,-0.10898050665855408,0.02774353139102459,0.05575878918170929,-0.12281002104282379,0.07045751065015793,0.012509523890912533,0.06550122052431107,-0.024774562567472458,-0.1387433558702469,-0.029385842382907867,-0.051983561366796494,0.03725607693195343,-0.011549186892807484,0.0742759183049202,0.01222358737140894,0.03121563047170639,-0.00020323657372500747,0.19073908030986786,-0.03730231523513794,0.041837189346551895,0.08719386905431747,0.08810283243656158,-0.04662974923849106,0.13247330486774445,0.03046579286456108,-0.004151542205363512,0.11406654864549637,0.07634546607732773,-0.028095101937651634,-0.22784142196178436,0.14271025359630585,0.17561401426792145,0.13077165186405182,0.09412974864244461,0.07990027219057083,0.04357745498418808,-0.12648078799247742,-0.13067637383937836,0.06147412955760956,0.08276869356632233,-0.055598367005586624,0.12963509559631348,0.03230183944106102,-0.03025994449853897,0.19510264694690704,0.04417251795530319,-0.15051791071891785,0.1314980536699295,-0.04719047620892525,-0.0723099410533905,-0.004101001191884279,-0.0022378552239388227,0.06964818388223648,-0.003114431630820036,-0.12112008035182953,-0.13075533509254456,0.06945312023162842,0.10112855583429337,-0.12548300623893738,-0.03928593918681145,0.021383140236139297,0.0876549556851387,-0.1991671770811081,-0.006219780538231134,0.008764684200286865,-0.03758752718567848,0.0954136922955513,-0.0577821210026741,-0.1021679937839508,0.025575313717126846,0.013477868400514126,-0.11806807667016983,-0.02400999888777733,0.0521332323551178,0.03013090416789055,-0.030519751831889153,0.028365181758999825,-0.13747400045394897,-0.14000123739242554,0.09433086216449738,0.06175193190574646,0.04138309881091118,0.013193470425903797,0.0028415503911674023,-0.06538412719964981,-0.07817104458808899,-0.059043120592832565,-0.13111110031604767,0.015718743205070496,-0.1140081137418747,-0.06752734631299973,0.07784515619277954,-0.039333637803792953,0.050466388463974,-0.02801567129790783,-0.05036057159304619,-0.1068982183933258,-0.07435759156942368,0.24986925721168518,-0.06279288232326508,0.014819016680121422,-0.06543990224599838,-0.054201699793338776,0.12822289764881134,-0.03362484276294708,-0.022409729659557343,-0.02534339390695095,0.12806551158428192,0.0655466690659523,-0.001973946811631322,0.037100017070770264,-0.019692720845341682,0.13428601622581482,-0.08362234383821487,0.13798749446868896,0.16578128933906555,0.07363773882389069,-0.021431151777505875,0.12849396467208862,0.24835282564163208,0.058020975440740585,0.1192096471786499,-0.023879099637269974,0.07917863875627518,-0.04647403955459595,-0.09330882132053375,0.05470362678170204,0.020828943699598312,0.18391208350658417,0.02372155152261257,-0.03472605347633362,0.042186710983514786,0.038850247859954834,-0.04694576933979988,-0.08847156167030334,-0.09582828730344772,0.02730613946914673,-0.13341765105724335,-0.1851004809141159,-0.03492321819067001,0.11647169291973114,0.05252344161272049,0.06810379773378372,0.0010931944707408547,-0.02264348976314068,0.15891246497631073,-0.1729557365179062,0.2277216762304306,-0.04222043231129646,0.09701912850141525,-0.07616130262613297,-0.04773777350783348,-0.06174508482217789,0.07055824249982834,0.037260692566633224,-0.01842372491955757,0.06407985836267471,-0.09890896826982498,0.21409544348716736,0.12663859128952026,0.09955912828445435,0.149980366230011,0.2932100296020508,-0.02397211827337742,-0.07169156521558762,0.13185089826583862,-0.02468910813331604,0.043536972254514694,-0.05467197299003601,0.0619758665561676,0.06291956454515457,0.01489846222102642,0.15330198407173157,0.04105895385146141,-0.0034666380379348993,-0.18612603843212128,-0.044846922159194946,0.013030676171183586,-0.1216433122754097,0.1283799707889557,-0.027900034561753273,-0.17774200439453125,-0.0468437485396862,-0.0535433404147625,0.04453183338046074,0.013486884534358978,-0.0611436665058136,-0.29118046164512634,0.10835100710391998,-0.16298778355121613,0.0875016376376152,0.055343784391880035,0.14629825949668884,-0.15119317173957825,0.014373993501067162,0.004821545910090208,-0.06946821510791779,-0.1180860698223114,0.00946581270545721,0.012074349448084831,0.14181290566921234,0.08822835981845856,-0.14612846076488495,0.18894238770008087,0.10339879989624023,0.07303308695554733,0.06161653250455856,0.03690251335501671,-0.11622951179742813,-0.12981969118118286,0.06789790093898773,0.14639025926589966,0.05761701613664627,0.038892634212970734,0.07192768156528473,0.025691445916891098,0.09333658963441849,-0.1335846334695816,-0.00343512580730021,0.005836445838212967,-0.08478644490242004,0.06563214957714081,-0.05180200934410095,-0.012736154720187187,0.056824490427970886,-0.1206388771533966,-0.0603364072740078,0.044728782027959824,0.008430467918515205,0.07860569655895233,0.07483780384063721,0.003122651483863592,0.0640554130077362,-0.05310390517115593,-0.04483715817332268,0.010904533788561821,0.012308767065405846,0.11820843070745468,-0.03315087407827377,0.09574386477470398,0.10940461605787277,-0.07523694634437561,-0.009916066192090511,-0.12249813973903656,-0.05023648962378502,-0.12777508795261383,-0.08951763808727264,0.04031338915228844,0.09804686158895493,0.03756171092391014,0.05659709498286247,0.2681131064891815,-0.032665327191352844,-0.004581858403980732,0.06872031092643738,-0.02061745710670948,-0.02886219322681427,-0.04771225526928902,0.14089369773864746,-0.07777278870344162,-0.019620072096586227,-0.1625438630580902,0.027653802186250687,-0.1396762728691101,0.09124056249856949,-0.07295043766498566,0.0032331349793821573,0.04749947413802147,0.005312768742442131,-0.036787670105695724,0.11616741865873337,0.010557224974036217,0.10716810822486877,-0.06025323644280434,-0.06120971590280533,0.021265264600515366,-0.026754941791296005,-0.08088544756174088,-0.18424904346466064,-0.09650992602109909,-0.05210234969854355,-0.07441096007823944,-0.28602319955825806,-0.04306856170296669,-0.07970476150512695,-0.049957823008298874,0.04773305356502533,0.028381988406181335,-0.0023334103170782328,-0.022966159507632256,0.08291684091091156,0.030864408239722252,-0.03265361487865448,-0.15503764152526855,0.05384857580065727,0.008109978400170803,-0.19351913034915924,0.15481743216514587,-0.05867449939250946,-0.2424243986606598,-0.17461103200912476,-0.09734124690294266,0.007098409812897444,0.0030568258371204138,0.00043738295789808035,0.007472355384379625,0.029689427465200424,0.16305147111415863,0.29872116446495056,-0.015529700554907322,0.05469866842031479,-0.13500584661960602,0.05192984640598297,-0.09067901223897934,-0.10558304190635681,0.22545374929904938,0.008928938768804073,0.15184083580970764,-0.04415920749306679,0.017115920782089233,0.02221292443573475,0.05519178509712219,0.06764873117208481,0.15923699736595154,-0.06737453490495682,-0.0883411392569542,0.15962505340576172,0.09843822568655014,0.1442052721977234,0.0148709025233984,0.043412044644355774,0.14980708062648773,-0.0223256666213274,0.023637212812900543,-0.059450093656778336,-0.10941940546035767,0.014871066436171532,0.058529965579509735,0.08468609303236008,0.10480517148971558,0.005148302763700485,-0.12369596213102341,0.004721979144960642,-0.10850050300359726,-0.0411820150911808,0.12896426022052765,0.011876996606588364,-0.0456700399518013,-0.10219185799360275,0.029681336134672165,0.05943465977907181,0.07200402766466141,0.025825075805187225,0.11803582310676575,-0.006979335565119982,0.17263628542423248,0.10903814435005188,-0.009103488177061081,-0.08247261494398117,0.1381426900625229,-0.11134461313486099,-0.15412145853042603,-0.08500451594591141,-0.032350096851587296,-0.08644887804985046,0.05928395688533783,-0.0979325920343399,0.051123760640621185,-0.12922202050685883,-0.007211947813630104,0.04189114645123482,-0.090873122215271,0.10656505078077316,-0.01348503865301609,-0.005467248614877462,0.15852349996566772,0.10078445822000504,-0.0073496331460773945,-0.09196263551712036,-0.11357438564300537,0.07487836480140686,0.05544525757431984,-0.028475018218159676,-0.09597773104906082,-0.0012073805555701256,-0.11305186152458191,0.050780586898326874,0.008842919021844864,-0.14561595022678375,-0.18261000514030457,0.021339327096939087,0.05432411655783653,0.06539984792470932,-0.006007724907249212,0.031558558344841,0.15758207440376282,0.05516066774725914,-0.022674845531582832,0.13926734030246735,-0.05044693499803543,0.12533867359161377,0.07075352966785431,-0.08175654709339142,0.12796622514724731,0.025121742859482765,-0.08315718919038773,-0.04191572591662407,-0.13651354610919952,0.09596823900938034,0.004500361159443855,-0.09650447219610214,0.014519361779093742,0.07943373173475266,-0.06147155538201332,0.0200843196362257,-0.2127601057291031,0.06080382689833641,-0.09179388731718063,0.00901798065751791,-0.0853339433670044,0.01990567520260811,-0.06057773157954216,-0.021648405119776726,-0.07539533823728561,-0.06741221994161606,-0.003965903539210558,-0.12851189076900482,0.25652846693992615,0.07583533227443695,-0.15984921157360077,0.13993476331233978,0.024901870638132095,-0.01756780780851841,-0.07539087533950806,0.2298487424850464,-0.01696198247373104,-0.059675704687833786,0.009043937548995018,0.0492827333509922,0.09146565198898315,0.029824133962392807,-0.000846120819915086,0.06726586818695068,-0.18498197197914124,0.15960589051246643,0.16493818163871765,0.10568410903215408,0.04451994225382805,-0.06337802857160568,-0.10315871238708496,-0.09896370768547058,-0.05317206680774689,0.006558413151651621,-0.0034750003833323717,-0.0211106576025486,0.0007829423411749303,0.03343458101153374,0.07749070972204208,0.06827674806118011,0.08732420206069946,0.09316952526569366,0.13757622241973877,0.02648993209004402,0.01710970513522625,0.02396290935575962,-0.004187797196209431,0.09296292811632156,-0.02442830055952072,-0.07884444296360016,0.010522512719035149,0.006437767297029495,0.20770364999771118,0.0740124061703682,0.07229427248239517,-0.1563883125782013,0.08452200144529343,0.11973517388105392,0.022616129368543625,-0.017531804740428925,0.15719790756702423,0.30559131503105164,0.03349754586815834,-0.026638975366950035,-0.06651397049427032,0.03639321029186249,0.06943154335021973,0.10466580092906952,-0.011840615421533585,-0.1079244315624237,-0.18707016110420227,-0.036351144313812256,-0.047911036759614944,0.09895355999469757,0.006418801844120026,-0.016703862696886063,0.098748117685318,-0.02084171585738659,-0.0470370277762413,0.06923060864210129,0.0177382193505764,0.1178629994392395,0.04268250986933708,-0.09470371901988983,0.009148108772933483,-0.05398327112197876,0.09768842160701752,0.15859822928905487,0.009095241315662861,-0.006464133504778147,0.033770591020584106,-0.05577823519706726,0.020299630239605904,-0.07721089571714401,0.11976008117198944,0.07785160094499588,0.1313958466053009,-0.14790299534797668,-0.1455003321170807,0.10356680303812027,0.12087227404117584,-0.047555532306432724,-0.004967907909303904,0.11529712378978729,0.0022788066416978836,-0.11079287528991699,-0.04591760411858559,-0.06844459474086761,-0.051510944962501526,0.035404134541749954,-0.07664768397808075,0.1979714334011078,0.06319229304790497,-0.042887892574071884,-0.003997312393039465,0.04641757160425186,0.11387885361909866,-0.089823879301548,0.197609543800354,-0.02495018020272255,-0.23134766519069672,0.0874457135796547,-0.04243238642811775,-0.06391280144453049,0.02485312707722187,-0.02852153778076172,0.1585136353969574,-0.020195908844470978,-0.0044583044946193695,-0.0441158153116703,-0.040102653205394745,0.025311056524515152,0.02053450606763363,-0.11528721451759338,0.0138764139264822,0.2166479527950287,-0.23365801572799683,0.21323217451572418,0.09299056231975555,-0.06262506544589996,-0.03318595886230469,0.09133782237768173,-0.04261127859354019,0.017062734812498093,-0.07417788356542587,0.2312270998954773,0.017630694434046745,-0.05910972133278847,0.023570243269205093,-0.15108941495418549,0.1662052571773529,-0.07455835491418839,-0.1591721475124359,0.06321555376052856,0.06919685006141663,-0.0845932736992836,-0.11539286375045776,0.00326275872066617,0.13976162672042847,0.009652727283537388,0.059054937213659286,0.2507840096950531,-0.04186317324638367,0.027749154716730118,0.10754334926605225,-0.05520167201757431,-0.09718043357133865,-0.07671156525611877,-0.02109358087182045,-0.1927110105752945,0.08050689846277237,-0.093904048204422,-0.06714281439781189,0.14189746975898743,-0.13542377948760986,-0.01263078860938549,-0.04574073851108551,0.010356729850172997,0.08072514832019806,0.009370324201881886,-0.04862963780760765,0.0032960250973701477,-0.05447451397776604,0.10136651247739792,-0.004235793370753527,-0.1308097243309021,0.05231526121497154,-0.05845990031957626,-0.025243591517210007,0.023054344579577446,-0.013984723016619682,0.02889658696949482,-0.03102479688823223,-0.045350756496191025,-0.03422756865620613,-0.0015941390302032232,-0.026029648259282112,0.06296814233064651,-0.029509669169783592,-0.018254490569233894,0.06276719272136688,0.09605344384908676,-0.10937617719173431,0.014716279692947865,-0.056985609233379364,0.2638623118400574,-0.03664593771100044,-0.009219869039952755,-0.0527723990380764,-0.042811956256628036,0.024253468960523605,0.05932171642780304,-0.3242839574813843,-0.024445483461022377,0.05995909497141838,-0.05483774468302727,-0.025018321350216866,0.009349227882921696,0.008588513359427452,-0.1130407527089119,0.07137227058410645,0.047583162784576416,-0.05790713056921959,-0.1844574362039566,0.18403612077236176,-0.04151855781674385,-0.04961063712835312,0.07597684115171432,0.03172938898205757,0.0013605518033728004,0.1233888566493988,-0.07207625359296799,0.1147785633802414,0.02151990868151188,-0.08328049629926682,0.02518877387046814,-0.047871094197034836,-0.031177077442407608,-0.09433162957429886,0.0019186398712918162,-0.08483859151601791,-0.04249408468604088,0.04936322197318077,-0.06536035984754562,0.10640813410282135,-0.03524070233106613,0.028028760105371475,0.09606920182704926,0.1431429237127304,-0.20174387097358704,0.09659483283758163,0.005009165033698082,-0.006828149314969778,0.00802700873464346,0.05539392679929733,0.030147846788167953,-0.1575671136379242,-0.11594101041555405,-0.23194512724876404,-0.07989470660686493,-0.08134935051202774,0.09316617995500565,0.11261411011219025,-0.1414720118045807,0.013938689604401588,-0.0826444998383522,-0.11313055455684662,0.17863813042640686,0.10699708014726639,-0.04404973238706589,0.1265583485364914,0.1181769147515297,-0.08711656183004379,-0.041566621512174606,-0.0642639771103859,0.1305016428232193,-0.016291923820972443,0.07380754500627518,0.09240565448999405,-0.06545183807611465,-0.13764294981956482,-0.0027870703488588333,0.013045613653957844,-0.11132386326789856,0.09759296476840973,-0.03444008156657219,-0.0019640782848000526,-0.09057091921567917,-0.0401557981967926,0.02095014974474907,0.07141878455877304,-0.04969217628240585,0.013440516777336597,0.01621481031179428,-0.12099667638540268,-0.013880260288715363,0.07010484486818314,0.23819023370742798,0.055988334119319916,0.21463267505168915,0.02363564819097519,-0.043804530054330826,0.0012641169596463442,-0.03404837101697922,-0.036618947982788086,-0.05150448903441429,-0.09968187659978867,-0.007728866301476955,-0.012471873313188553,-0.023076700046658516,0.04800964146852493,-0.16169856488704681,-0.1228785514831543,-0.09133636206388474,0.1391543596982956,-0.026530371978878975,-0.06178576126694679,0.03042442351579666,0.051699671894311905,-0.019881604239344597,-0.017573455348610878,0.048527494072914124,-0.06422485411167145,0.19104918837547302,-0.0053288922645151615,-0.16591304540634155,0.00592845119535923,0.0440414622426033,-0.06143668666481972,-0.07115654647350311,-0.03837736323475838,-0.10760598629713058,-0.016858018934726715,0.07362797111272812,-0.02450752444565296,0.04503699392080307,-0.024737881496548653,0.10248710960149765,0.0035107210278511047,0.14938116073608398,-0.018935425207018852,-0.07931092381477356,0.06387065351009369,-0.009577908553183079,0.1464323252439499,-0.14553578197956085,0.15524570643901825,0.08521900326013565,0.06071924790740013,0.1331474483013153,0.03146255016326904,-0.12212488800287247,-0.05108875781297684,-0.0779435932636261,-0.00462005753070116,-0.0755317434668541,-0.08484634757041931,0.05815703049302101,0.16023650765419006,-0.11141324043273926,0.11892304569482803,0.07152218371629715,-0.10981783270835876,-0.049360863864421844,-0.04013003781437874,0.0014737795572727919,0.020529363304376602,0.05719303712248802,-0.010951684787869453,0.03794339671730995,-0.07647401839494705,-0.019167957827448845,0.18007762730121613,0.0007913641748018563,-0.19930346310138702,-0.00021832389757037163,-0.017665546387434006,0.054804958403110504,-0.009012880735099316,-0.12577711045742035,0.05918499454855919,0.02607574686408043,-0.0001408949465258047,-0.14081281423568726,-0.08286664634943008,-0.11176972091197968,-0.014342492446303368,-0.06018424034118652,-0.0003823910083156079,-0.27389979362487793,0.015262355096638203,0.012589598074555397,0.08100483566522598,-0.015422982163727283,0.10948395729064941,-0.02542250230908394,-0.18477286398410797,0.046521686017513275,-0.07969703525304794,-0.16169850528240204,-0.09917371720075607,-0.06296411901712418,-0.008678551763296127,-0.10350438207387924,-0.0023143042344599962,0.15487134456634521,-0.04549981653690338,-0.17038966715335846,-0.19245366752147675,0.08370371162891388,-0.09500439465045929,-0.008529223501682281,0.10936840623617172,0.1329125612974167,0.0851079523563385,0.1288728415966034,0.12535808980464935,0.1851777732372284,-0.11226996034383774,0.05453213304281235,0.2966799736022949,-0.262886643409729,-0.041411034762859344,0.07628250122070312,0.15216755867004395,-0.08301820605993271,0.06772352010011673,0.029307272285223007,0.009034433402121067,-0.0009846804896369576,-0.07609823346138,0.11818312108516693,0.2698810398578644,-0.103392094373703,-0.10716185718774796,-0.07433754950761795,0.042341362684965134,-0.13308390974998474,-0.11969683319330215,0.07256290316581726,-0.08934055268764496,-0.02097144164144993,0.15991303324699402,-0.03624284267425537,0.01039063185453415,0.026952920481562614,-0.1936814785003662,-0.04395194351673126,-0.1524827480316162,-0.09059233218431473,-0.07201382517814636,-0.05361585691571236,0.04580968990921974,0.06185309588909149,0.005957078654319048,0.12148351967334747,-0.13637332618236542,0.0370267853140831,0.029259471222758293,0.02426113560795784,-0.22019891440868378,-0.005991945508867502,0.01204349659383297,0.04391520842909813,-0.10787071287631989,-0.07237223535776138,-0.1015191599726677,-0.14598755538463593,0.025561640039086342,-0.008149159140884876,0.002055371878668666,0.11336826533079147,0.025724366307258606,-0.055924464017152786,0.13548557460308075,0.015852216631174088,0.0871637761592865,-0.013781288638710976,0.05213657394051552,-0.07903566211462021,-0.029101094231009483,0.07343865931034088,0.01885981485247612,-0.129099041223526,0.04336052015423775,-4.493866920471191,-0.19787895679473877,0.09312475472688675,-0.06354733556509018,0.04357786104083061,0.12479879707098007,-0.049427710473537445,-0.07975731045007706,0.1646406650543213,0.05553824082016945,-0.06499405205249786,0.1148902177810669,0.022898497059941292,-0.07675199955701828,-0.05705312266945839,-0.04774077236652374,0.07936606556177139,0.08464179933071136,0.02071552351117134,-0.026675494387745857,-0.04347803443670273,-0.061957310885190964,0.03410230204463005,0.13085104525089264,0.020254360511898994,-0.09595661610364914,0.010616837069392204,0.09595298022031784,0.11247961968183517,0.05366639420390129,-0.03992801904678345,0.0981248989701271,0.05504053831100464,0.04196004942059517,0.11477969586849213,0.11326517909765244,-0.0012177260359749198,0.0284125879406929,0.03810274973511696,-0.014592728577554226,0.2168150544166565,-0.04124736785888672,-0.014704319648444653,0.07095394283533096,0.010340530425310135,-0.07816972583532333,-0.15381339192390442,-0.00037501525366678834,-0.023827850818634033,-0.040814369916915894,0.07564817368984222,-0.09588801860809326,-0.04272396117448807,-0.00756243709474802,-0.08710205554962158,-0.05379561334848404,-0.003595942398533225,0.15197259187698364,-0.02690177597105503,0.03880074992775917,0.0015485447365790606,0.06629473716020584,0.023215800523757935,0.02711910381913185,-0.050610918551683426,0.021129567176103592,-0.08173637092113495,-0.19357062876224518,0.07371373474597931,0.01712825708091259,0.2021823525428772,-0.1987874060869217,-0.07653968036174774,0.10035302489995956,0.05635711923241615,-0.00041006479295901954,-0.07699956744909286,-0.14453400671482086,0.2482111155986786,-0.0018061570590361953,-0.08302930742502213,0.005750059150159359,-0.17687064409255981,0.01651347242295742,0.09265358000993729,0.09899301826953888,0.06523076444864273,0.03221070021390915,-0.009781423956155777,0.004325450398027897,0.048884157091379166,0.1294240653514862,0.04594907537102699,-0.019344927743077278,0.019282815977931023,0.0017509786412119865,-0.09180118143558502,-0.18833604454994202,0.07002115994691849,0.07954718917608261,0.04643593728542328,-0.06897412985563278,0.037672948092222214,0.15969522297382355,0.23930661380290985,-0.08733931928873062,0.02517346665263176,-0.07638465613126755,-0.06797880679368973,-0.056089796125888824,-0.10004185140132904,0.031207039952278137,-0.2701321244239807,0.023402413353323936,0.003806689288467169,-0.12097952514886856,0.019385481253266335,-0.16393233835697174,0.12330827862024307,0.13258425891399384
CHEMBL203,-0.0030372946057468653,-0.0858168825507164,-0.09750441461801529,0.10790912061929703,-0.09927365928888321,-0.022617151960730553,0.15893690288066864,-0.04886389523744583,-0.03489850088953972,0.16343335807323456,0.014217807911336422,0.0005127187469042838,0.11607842892408371,0.16545157134532928,0.036061327904462814,0.040556106716394424,0.04693957418203354,0.11126361787319183,-0.060454051941633224,0.05710266903042793,0.11432337760925293,-0.06376511603593826,0.10525260120630264,-0.11197079718112946,0.00539117306470871,0.09282761812210083,-0.031087687239050865,-0.14117906987667084,-0.04524311050772667,-0.15197788178920746,-0.005225909408181906,0.019060278311371803,0.062448348850011826,0.06451226025819778,0.07585151493549347,0.07956920564174652,-0.14542606472969055,0.06766978651285172,0.022705063223838806,0.014489837922155857,0.015498332679271698,0.07050454616546631,0.23427410423755646,-0.008162088692188263,0.002777331043034792,-0.10039534419775009,-0.06821675598621368,0.13704366981983185,-0.03208141028881073,-0.13874149322509766,-0.12107020616531372,-0.04695584997534752,0.11439136415719986,0.06021546199917793,0.06922215223312378,0.053947318345308304,0.023652885109186172,0.07246847450733185,0.044895563274621964,0.0711413025856018,-0.24445144832134247,0.03176511079072952,-0.05625913664698601,0.000764485215768218,-0.0006954426062293351,-0.008436566218733788,0.13764826953411102,-0.02795882523059845,0.06454286724328995,0.00032412022119387984,0.03310230001807213,-0.03210283815860748,-0.1337512731552124,-0.1176556870341301,-0.029713818803429604,0.037281136959791183,-0.04528757557272911,0.17065095901489258,-0.027940932661294937,0.04501939192414284,0.04858028143644333,-0.03481786698102951,-0.1766333431005478,0.09572216123342514,0.02861950173974037,-0.1331106722354889,0.04878472909331322,0.04088198021054268,0.14974866807460785,0.053479719907045364,0.04586091637611389,0.12964436411857605,-0.12334312498569489,0.06731247156858444,0.012655810452997684,0.013549848459661007,0.07373590767383575,-0.15906678140163422,-0.03757098317146301,-0.11229082942008972,0.05367359146475792,-0.07900147140026093,-0.14602726697921753,-0.07522667199373245,-0.12621966004371643,-0.20895999670028687,-0.1732020229101181,0.10809516161680222,-0.06019412726163864,-0.15547125041484833,-0.018864581361413002,0.02027972973883152,0.03006283938884735,0.01119034644216299,-0.029292965307831764,-0.12362068891525269,-0.11925258487462997,0.0346495546400547,0.008898245170712471,0.0958360955119133,-0.1257103532552719,-0.01568623259663582,0.13142690062522888,-0.03709102049469948,-0.10012320429086685,-0.013691455125808716,0.15494564175605774,0.07480283826589584,-0.028340183198451996,0.035254791378974915,-0.1314208060503006,-0.10995888710021973,-0.05594400689005852,-0.12877315282821655,0.0867527648806572,0.06130443885922432,0.14416317641735077,0.17283298075199127,-0.060193441808223724,-0.013333628885447979,0.09576620906591415,-0.1420721858739853,-0.09153532236814499,0.051800087094306946,0.056744590401649475,0.26395100355148315,0.04628174379467964,0.12915295362472534,-0.019710322842001915,0.07924836874008179,-0.01803196780383587,-0.09649354964494705,0.04751496762037277,0.00288871256634593,0.007388159167021513,-0.05301279202103615,0.06073122099041939,0.1354680210351944,0.09032037109136581,-0.10020074248313904,-0.116843082010746,0.14462503790855408,0.06769852340221405,-0.0894731804728508,-0.04008663445711136,0.053518421947956085,0.11148048937320709,-0.051087427884340286,0.1635476052761078,-0.014219160191714764,-0.007155947852879763,-0.03413026034832001,0.16854870319366455,-0.07136525958776474,-0.022840149700641632,-0.05456162244081497,-0.13035044074058533,-0.04043375328183174,-0.019282948225736618,0.040961042046546936,0.08059398829936981,-0.06864052265882492,0.0639878585934639,0.08768140524625778,0.05637330561876297,-0.043936699628829956,-0.08626746386289597,0.07392402738332748,0.022074049338698387,0.042542994022369385,-0.03711654618382454,0.13559958338737488,0.05856185406446457,-0.14482948184013367,0.14092811942100525,0.048269059509038925,-0.06555955111980438,0.07824483513832092,-0.1299431324005127,-0.04993913322687149,0.06641292572021484,0.1663767248392105,-0.12256744503974915,0.04296031594276428,0.01667485013604164,0.08082295954227448,0.00883832760155201,-0.0485718734562397,-0.14714264869689941,-0.22151650488376617,-0.028607353568077087,0.05450770631432533,0.11310675740242004,0.11829737573862076,-0.09354057908058167,0.09554798156023026,-0.08963729441165924,0.03369772061705589,0.11301569640636444,-0.013988565653562546,0.06103309243917465,-0.05388842150568962,0.14420676231384277,-0.0823202133178711,0.07441355288028717,-0.02252705954015255,-0.1946043074131012,0.005624027457088232,-0.12184590101242065,0.02917267009615898,0.15512312948703766,-0.010767201893031597,-0.0821414366364479,-0.11115057021379471,-0.9808290004730225,0.06341104954481125,0.2580811679363251,0.06346236914396286,-0.14964894950389862,-0.08325021713972092,-0.15125741064548492,0.057330336421728134,-0.06760070472955704,0.09574467688798904,-0.004074981901794672,0.04685347154736519,-0.0189659520983696,-0.05608993023633957,-0.02652980387210846,0.10095411539077759,-0.15514062345027924,0.07254573702812195,-0.07859300822019577,-0.05371464416384697,0.05682159587740898,0.017531340941786766,-0.05808965116739273,0.04562458023428917,0.02520718052983284,-0.1259494572877884,0.05847882479429245,0.042642220854759216,0.0769072100520134,0.008618197403848171,-0.09988534450531006,-0.06254229694604874,-0.07696504145860672,0.011800006031990051,-0.022598618641495705,0.049143847078084946,0.007651674561202526,0.010235022753477097,0.012207070365548134,0.17493513226509094,-0.030610093846917152,0.052212201058864594,0.10036973655223846,0.03671587258577347,-0.03915596380829811,0.11883051693439484,0.03901369124650955,-0.06894795596599579,0.1227932944893837,0.029441216960549355,-0.0030738417990505695,-0.2433030605316162,0.08244538307189941,0.1550498753786087,0.1151571124792099,0.10843245685100555,0.043884679675102234,0.032179947942495346,-0.1261189728975296,-0.08858159929513931,0.02656678296625614,0.11443044245243073,-0.009414143860340118,0.16967877745628357,0.014385676942765713,0.006717853248119354,0.20547093451023102,0.024397309869527817,-0.20674341917037964,0.15541423857212067,-0.02324860915541649,-0.0788477435708046,0.008674917742609978,0.03364330530166626,0.020625414326786995,-0.07668402791023254,-0.1115158349275589,-0.08817420154809952,0.0570373609662056,0.06892721354961395,-0.0754215344786644,0.0014418642967939377,0.008057866245508194,0.030872326344251633,-0.1734471172094345,-0.017415490001440048,-0.023352202028036118,-0.06707657128572464,0.0471230112016201,-0.052518244832754135,-0.10468534380197525,0.03987201675772667,0.008564703166484833,-0.08549878001213074,-0.04568367078900337,0.06639387458562851,-0.008398491889238358,-0.023565122857689857,0.007511522155255079,-0.08813992142677307,-0.12050028145313263,0.03956199437379837,0.04850047826766968,-0.00118203682359308,0.007667895406484604,-0.018296385183930397,-0.02058958075940609,-0.0507437065243721,-0.09309472888708115,-0.10827289521694183,-0.03266372159123421,-0.1201457530260086,-0.08527162671089172,0.04155178368091583,-0.04229392483830452,0.010352414101362228,0.021260185167193413,-0.03651495277881622,-0.0036869561299681664,-0.06056244671344757,0.29182881116867065,-0.06412077695131302,0.03325078263878822,-0.07756032049655914,0.00993255339562893,0.10235332697629929,-0.06585699319839478,-0.009087752550840378,-0.06106627359986305,0.13819319009780884,0.03518044576048851,-0.013405589386820793,0.09954261034727097,-0.05146975442767143,0.11816557496786118,-0.07944519817829132,0.10576804727315903,0.18994200229644775,0.03705717250704765,-0.029219450429081917,0.12977425754070282,0.25821608304977417,0.04477176070213318,0.1348438709974289,0.029512185603380203,0.056764621287584305,-0.04933548346161842,-0.08553440123796463,0.011583330109715462,-0.0037966002710163593,0.17879295349121094,0.0004912272561341524,-0.048274699598550797,0.018945880234241486,0.0002575518738012761,-0.05931689962744713,-0.0647108182311058,-0.07064266502857208,0.024845974519848824,-0.11860375851392746,-0.19133290648460388,-0.12222830206155777,0.13344833254814148,0.0867510661482811,0.04569878429174423,0.059533700346946716,0.003991920035332441,0.1394202560186386,-0.19309675693511963,0.23789197206497192,-0.032472893595695496,0.10241764038801193,-0.0525408573448658,-0.050851110368967056,-0.022254645824432373,0.029705733060836792,0.05718642845749855,-0.009729508310556412,0.07124757021665573,-0.08680565655231476,0.14600856602191925,0.12542685866355896,0.09785688668489456,0.18212707340717316,0.22343039512634277,-0.006587101612240076,-0.0515018105506897,0.08139742165803909,-0.02501106634736061,0.1049911230802536,-0.0511498861014843,0.062458429485559464,0.007903365418314934,0.04519844800233841,0.13717690110206604,0.052801452577114105,-0.031087487936019897,-0.12469980865716934,-0.012526356615126133,0.03141752630472183,-0.07454106211662292,0.1336798071861267,-0.06161508336663246,-0.14433784782886505,-0.028641920536756516,-0.04416937753558159,0.07854148745536804,0.047100819647312164,-0.030705781653523445,-0.2911090850830078,0.06939822435379028,-0.14531049132347107,0.12443872541189194,0.013582414947450161,0.1620950698852539,-0.08678696304559708,0.03952925279736519,0.0006315078935585916,-0.07459578663110733,-0.08190309256315231,-0.011998970992863178,0.0832275003194809,0.14646747708320618,0.08761860430240631,-0.16151772439479828,0.20439837872982025,0.08920131623744965,0.07180848717689514,0.08654175698757172,-0.0266092699021101,-0.08716142922639847,-0.11918899416923523,0.05362590774893761,0.16274413466453552,0.03370310366153717,0.05799870938062668,0.07743220031261444,0.045530352741479874,0.12206622213125229,-0.10955706983804703,-0.03660845384001732,-0.049537137150764465,-0.11643347144126892,0.07851627469062805,-0.06688252836465836,-0.060081079602241516,0.012546987272799015,-0.11396539211273193,-0.047074273228645325,-0.036319930106401443,0.04267501085996628,0.005801204591989517,0.06289049983024597,0.018126564100384712,0.04049710929393768,-0.07747332751750946,-0.011180692352354527,0.016547491773962975,0.03131811320781708,0.07253816723823547,0.007554537616670132,0.10591483116149902,0.06036592274904251,-0.07282768189907074,-0.07549348473548889,-0.09493903815746307,-0.11169236153364182,-0.13207772374153137,-0.14342817664146423,0.0436040535569191,0.06407888233661652,0.06897088140249252,0.07886750996112823,0.27185359597206116,-0.06112804263830185,0.030766604468226433,0.10657818615436554,0.0064941877499222755,-0.024621309712529182,-0.04922313988208771,0.11309037357568741,-0.09948381781578064,-0.015965202823281288,-0.17322766780853271,0.0711020901799202,-0.19728916883468628,0.12256023287773132,-0.015604482032358646,0.002150168875232339,0.045430995523929596,-0.03418785333633423,-0.07748197019100189,0.10305081307888031,0.06857383251190186,0.09000150859355927,-0.06914732605218887,-0.02745455503463745,0.0744452252984047,-0.05050467327237129,-0.11622074246406555,-0.14931978285312653,-0.04843243211507797,-0.017091384157538414,-0.08208504319190979,-0.31330549716949463,-0.040234677493572235,-0.0776672214269638,-0.07336223870515823,0.026054413989186287,0.024274665862321854,-0.006160602439194918,-0.044095948338508606,0.08091428130865097,0.008617078885436058,-0.049377504736185074,-0.11558342725038528,0.07147978246212006,0.06438543647527695,-0.18223224580287933,0.21392636001110077,-0.056355781853199005,-0.2010141760110855,-0.22066523134708405,-0.08994922786951065,-0.005024949088692665,0.013739063404500484,0.02224070206284523,0.040941573679447174,0.014170314185321331,0.10988498479127884,0.27591750025749207,-0.06708575785160065,0.09732924401760101,-0.09125301241874695,0.07411715388298035,-0.05011870712041855,-0.059643615037202835,0.29421329498291016,0.001275867922231555,0.1118960753083229,-0.062487196177244186,0.06115708872675896,-0.003438107669353485,0.08175186067819595,0.006746203172951937,0.10534045845270157,-0.06583201140165329,-0.08515249937772751,0.11223872005939484,-0.014639882370829582,0.14430999755859375,0.0036987117491662502,0.06939426064491272,0.1283731758594513,-0.015027215704321861,0.028872840106487274,-0.02882266230881214,-0.07634501904249191,0.08078646659851074,0.07943975180387497,0.11211572587490082,0.0876227393746376,0.03627131134271622,-0.08598019182682037,0.007852897979319096,-0.07559593766927719,-0.07496002316474915,0.10200795531272888,0.009414143860340118,-0.014441040344536304,-0.08041397482156754,0.049054406583309174,0.03772730752825737,0.010860531590878963,-0.06067359820008278,0.05244885012507439,-0.03222779184579849,0.08582597970962524,0.09298306703567505,-0.02363422140479088,-0.07295558601617813,0.06654129922389984,-0.10146624594926834,-0.13539353013038635,-0.09194227308034897,-0.0731128677725792,-0.03350749984383583,0.053910043090581894,-0.05347142368555069,0.030788157135248184,-0.0898556336760521,0.025117143988609314,0.012402363121509552,-0.051630254834890366,0.12442176789045334,-0.0070041571743786335,-0.023520665243268013,0.16112767159938812,0.07204439491033554,0.03687351569533348,-0.04040088877081871,-0.0941125899553299,0.028361506760120392,0.02892463654279709,-0.004398439545184374,-0.0593964159488678,-0.04194295406341553,-0.09484130889177322,0.06995052844285965,0.031171323731541634,-0.1276203840970993,-0.14249330759048462,0.02114483155310154,0.06660492718219757,0.046389076858758926,0.037242598831653595,0.03813987970352173,0.15370884537696838,0.13107448816299438,-0.051713649183511734,0.11856023967266083,-0.053144700825214386,0.03421489894390106,0.08963290601968765,-0.1377691924571991,0.17091670632362366,0.016631178557872772,-0.08757907897233963,-0.06945347040891647,-0.12446378916501999,0.07643861323595047,-0.03921280428767204,-0.08927662670612335,0.02711152471601963,0.056383341550827026,-0.0431550070643425,0.07724524289369583,-0.19854581356048584,0.08259405940771103,-0.09735278785228729,-0.002450329950079322,-0.03815993294119835,0.0006000304128974676,-0.04617932066321373,0.04089485853910446,-0.061578795313835144,-0.010285511612892151,-0.008535175584256649,-0.14630670845508575,0.23560044169425964,0.09348266571760178,-0.10954273492097855,0.13648447394371033,0.09896206110715866,-0.03358600661158562,-0.047873690724372864,0.1374116688966751,0.007081218995153904,-0.02682412974536419,-0.002788663376122713,0.028839917853474617,0.07910099625587463,0.014232654124498367,-0.050600744783878326,0.0748526081442833,-0.1827937811613083,0.17490185797214508,0.15163801610469818,0.08790448307991028,0.058903250843286514,-0.07995972782373428,-0.07893019914627075,-0.02680894359946251,-0.05027046427130699,0.052091553807258606,-0.0327320471405983,-0.025087354704737663,-0.02927355282008648,-0.016267521306872368,0.0691712275147438,0.07078726589679718,0.08072156459093094,0.04962687939405441,0.15163275599479675,0.01963302679359913,0.06501016765832901,0.07120824605226517,0.021502966061234474,0.03473300859332085,0.001929912599734962,-0.11636626720428467,0.009465871378779411,0.03273826837539673,0.20260092616081238,0.11005499958992004,0.06727989763021469,-0.15637163817882538,0.032609038054943085,0.12627524137496948,0.011247511021792889,-0.016442298889160156,0.15653127431869507,0.24068447947502136,0.029824716970324516,-0.04560309275984764,-0.10840044915676117,0.005119249690324068,0.004541375208646059,0.0498303659260273,-0.02574332244694233,-0.10528572648763657,-0.1339901238679886,0.0016776956617832184,-0.031712766736745834,0.1644015610218048,0.05953408032655716,0.04624155908823013,0.08862181752920151,-0.02362053468823433,-0.010661075823009014,0.03407866507768631,0.012327061966061592,0.12345798313617706,0.05810299515724182,-0.06574872136116028,0.015555518679320812,-0.1330825537443161,0.12309429049491882,0.18870025873184204,-0.017133956775069237,-0.030762653797864914,0.022621486335992813,-0.0984511449933052,0.03948328271508217,-0.0480223074555397,0.13572467863559723,0.0705149695277214,0.08970603346824646,-0.09008937329053879,-0.08856692165136337,0.07736767083406448,0.12248029559850693,-0.0067258416675031185,0.03915461152791977,0.11707331985235214,-0.006137337069958448,-0.09539568424224854,-0.03388552367687225,-0.03396123647689819,-0.07495097070932388,-0.015697946771979332,-0.021135564893484116,0.15005876123905182,0.01509360782802105,0.004077994730323553,0.010197103954851627,0.04379581660032272,0.10324236750602722,-0.058342885226011276,0.2167290449142456,-0.022323699668049812,-0.14745694398880005,0.06389812380075455,-0.03898296877741814,-0.08020441979169846,0.024511506780982018,0.012525617145001888,0.22000665962696075,-0.024637889117002487,0.005055718123912811,-0.05939900502562523,-0.05556824803352356,0.07207250595092773,-0.005020002368837595,-0.07845556735992432,0.026718631386756897,0.13415001332759857,-0.18836280703544617,0.2234705537557602,0.02869226410984993,-0.03408068045973778,-0.011123050935566425,0.05003419890999794,-0.009914541617035866,0.03954435512423515,-0.08475473523139954,0.21607226133346558,0.034860290586948395,-0.0521991141140461,0.0327371321618557,-0.1418401002883911,0.13230113685131073,-0.033311061561107635,-0.13878633081912994,0.07739817351102829,0.052528735250234604,-0.10489851236343384,-0.11605701595544815,-0.054519765079021454,0.1311129331588745,0.08490924537181854,0.1118893027305603,0.25293055176734924,-0.05078846588730812,0.03440535441040993,0.04946190118789673,-0.08935672789812088,-0.12892268598079681,-0.06259540468454361,-0.03886432200670242,-0.1306319683790207,0.07980789244174957,-0.08627893030643463,-0.0462125763297081,0.10831285268068314,-0.13057270646095276,0.03144129365682602,-0.03996644541621208,-0.009704431518912315,0.09357373416423798,-0.03076315112411976,-0.044703226536512375,0.009789703413844109,-0.04974452778697014,0.09465952217578888,0.005624947603791952,-0.03871052712202072,0.05012558773159981,0.005292985122650862,-0.07806804031133652,0.05155777931213379,-0.022370552644133568,0.00919368490576744,-0.07500117272138596,-0.011159306392073631,-0.06298337876796722,-0.03485656902194023,0.02761026844382286,0.020387079566717148,-0.030781051144003868,-0.0478595495223999,0.06007055938243866,0.0753675103187561,-0.061524320393800735,0.05387289822101593,-0.04601584002375603,0.28602105379104614,-0.023965992033481598,0.039384376257658005,-0.11720245331525803,-0.06794615834951401,0.0046073137782514095,0.06056865677237511,-0.2488056868314743,0.016957156360149384,0.04978203400969505,-0.07134774327278137,-0.014498073607683182,0.013970919884741306,0.09123179316520691,-0.11691265553236008,0.0800149142742157,-0.01165481936186552,-0.0806654766201973,-0.1843910813331604,0.10891367495059967,-0.02334139123558998,-0.035873040556907654,0.11357958614826202,0.027667945250868797,-0.05680539458990097,0.1295904964208603,-0.061489395797252655,0.04664728417992592,-0.00219999672845006,-0.09944688528776169,-0.014470940455794334,-0.012541480362415314,-0.09655556827783585,-0.08356144279241562,0.012870170176029205,-0.09207131713628769,-0.052452363073825836,0.03998902440071106,-0.03799177333712578,0.0835919976234436,0.05310840532183647,-0.01896226592361927,0.03180259093642235,0.13679394125938416,-0.23110057413578033,0.012672262266278267,0.06060667708516121,0.0368400439620018,0.0038927411660552025,0.03570069372653961,0.07397380471229553,-0.12724429368972778,-0.14869578182697296,-0.200705885887146,-0.07200457155704498,-0.059497933834791183,0.07004332542419434,0.14565667510032654,-0.09307297319173813,0.06615880131721497,-0.02857125550508499,-0.1043807789683342,0.21065303683280945,0.1279408037662506,-0.057099759578704834,0.10453101992607117,0.10388222336769104,-0.08723009377717972,-0.040612176060676575,-0.04251059144735336,0.10623475909233093,-0.014309993013739586,0.06294461339712143,0.03158709406852722,-0.09133417904376984,-0.13901597261428833,0.004384730011224747,0.01869877241551876,-0.07793168723583221,0.13130858540534973,-0.024401206523180008,0.057418547570705414,-0.0795452743768692,-0.012333573773503304,0.04118632152676582,0.06051728129386902,-0.05899960547685623,-0.003720200154930353,0.05738970264792442,-0.12515684962272644,-0.019885484129190445,0.16917617619037628,0.21009701490402222,0.03549754247069359,0.1747850924730301,0.03170458972454071,-0.04829857498407364,-0.0008075294317677617,0.0045169745571911335,-0.04559629410505295,-0.10737793892621994,-0.08611547201871872,0.00020783726358786225,-0.02486439235508442,-0.039570629596710205,0.07695095241069794,-0.16972976922988892,-0.11309037357568741,-0.08400548249483109,0.13448303937911987,-0.05020821467041969,-0.04781658202409744,0.011121917515993118,0.038937728852033615,-0.03211767226457596,-0.02246158942580223,0.05616196244955063,-0.06270260363817215,0.15829353034496307,0.019336363300681114,-0.15258295834064484,0.031276702880859375,0.035603057593107224,-0.08986660093069077,-0.08425087481737137,-0.022171279415488243,-0.12194249033927917,-0.0203205905854702,0.027856310829520226,-0.027366751804947853,0.09809684008359909,-0.10361173003911972,0.1429780125617981,-0.001433933968655765,0.14928662776947021,-0.045525744557380676,-0.08947163075208664,-0.02578950673341751,-0.050008293241262436,0.14891859889030457,-0.1466785967350006,0.13569922745227814,0.08093488961458206,0.04555272310972214,0.08929089456796646,-0.04988250508904457,-0.09501141309738159,-0.050531938672065735,-0.031565941870212555,-0.0972910076379776,-0.03184526413679123,-0.08744177967309952,0.05784500017762184,0.13362644612789154,-0.0694836750626564,0.1916765421628952,0.03541598841547966,-0.05481652542948723,-0.03746756538748741,0.01254632230848074,0.008245005272328854,0.05029340460896492,0.09863859415054321,-0.0355866439640522,0.06619345396757126,-0.0898115485906601,0.04566365107893944,0.12231669574975967,0.04541182890534401,-0.16991467773914337,-0.009470727294683456,-0.04643622785806656,0.068849578499794,-0.021861471235752106,-0.09781596809625626,-0.0024297700729221106,0.010241850279271603,0.08525056391954422,-0.13350915908813477,-0.0624832883477211,-0.1496410369873047,0.04891180992126465,-0.07565215975046158,0.05196987837553024,-0.26026561856269836,-0.025078732520341873,-0.0027643651701509953,0.04103846102952957,0.01479082927107811,0.08594166487455368,-0.05521727725863457,-0.17600484192371368,0.07327111065387726,-0.07367991656064987,-0.1261570155620575,-0.08333931118249893,-0.08208311349153519,0.012187907472252846,-0.030253492295742035,0.0422610267996788,0.14458371698856354,-0.05707153305411339,-0.17948955297470093,-0.16989532113075256,0.06921890377998352,-0.08214249461889267,-0.03483135998249054,0.10122556239366531,0.09898339956998825,0.0618906132876873,0.0925288125872612,0.12057077139616013,0.17120011150836945,-0.11985737085342407,0.07210798561573029,0.20044271647930145,-0.22915677726268768,-0.035560719668865204,0.09540898352861404,0.13144196569919586,-0.06112131476402283,0.02140592224895954,0.022265763953328133,-0.08084218204021454,-0.05424027889966965,-0.04057542234659195,0.09867775440216064,0.23729385435581207,-0.025521233677864075,-0.12828874588012695,-0.024867475032806396,0.10418865829706192,-0.13617578148841858,-0.04046047851443291,0.10798488557338715,-0.07442088425159454,0.03054329939186573,0.14962120354175568,-0.08266641944646835,-0.009670793078839779,0.06848649680614471,-0.20717965066432953,-0.04650983586907387,-0.14225754141807556,-0.06990742683410645,-0.08905021101236343,-0.029704900458455086,0.04036182537674904,0.057404935359954834,0.02154865488409996,0.06281375885009766,-0.19118882715702057,0.0032697157002985477,0.060922831296920776,-0.0044684503227472305,-0.16609565913677216,-0.041710298508405685,0.008698146790266037,0.02496739849448204,-0.09913397580385208,-0.052769143134355545,-0.11611652374267578,-0.16717268526554108,0.0099767642095685,-0.00817501824349165,0.014578948728740215,0.15333379805088043,0.022672001272439957,-0.041621167212724686,0.10226880759000778,0.01888244040310383,0.024557752534747124,0.05197927728295326,0.0009739981032907963,-0.06129806861281395,-0.007100945804268122,0.05797431990504265,0.04618152976036072,-0.12386145442724228,0.029724372550845146,-4.302212238311768,-0.2017257809638977,0.09520673751831055,-0.0735170841217041,0.04220300912857056,0.05764709413051605,-0.032378289848566055,-0.05491725727915764,0.16553740203380585,0.008534595370292664,0.0005663560586981475,0.08433390408754349,0.017764925956726074,-0.09579592198133469,-0.025000950321555138,-0.02453671209514141,0.10511724650859833,0.0765809416770935,0.028835954144597054,-0.04972220957279205,-0.010978509671986103,-0.06026718020439148,0.04993171989917755,0.18700259923934937,0.05914630740880966,-0.08295822143554688,0.024257253855466843,0.04474002867937088,0.1374366283416748,0.11727667599916458,-0.006599693093448877,0.07764844596385956,0.02445901371538639,0.0683005154132843,0.08876169472932816,0.1312573403120041,-0.03128357604146004,0.057960622012615204,0.0827840119600296,-0.009897751733660698,0.153866708278656,-0.07533788681030273,0.009982629679143429,0.032827988266944885,0.040299247950315475,-0.02627737820148468,-0.16901977360248566,-0.015385580249130726,-0.003917081747204065,-0.027147667482495308,0.07410810142755508,-0.09755002707242966,-0.05847134068608284,-0.06715528666973114,-0.03394174203276634,-0.08804340660572052,-0.07765323668718338,0.09960825741291046,0.03870444372296333,0.10544157773256302,0.026140717789530754,0.08241493254899979,-0.04460320249199867,0.0129885608330369,-0.019698714837431908,-0.010522939264774323,-0.11562444269657135,-0.13033506274223328,0.06995461881160736,0.0054456926882267,0.21976181864738464,-0.12591983377933502,-0.10260186344385147,0.10214822739362717,0.05346118286252022,-0.017946312204003334,-0.08348526805639267,-0.16241206228733063,0.22471407055854797,-0.009737307205796242,-0.15236212313175201,0.0005530508351512253,-0.1763772964477539,0.06533541530370712,0.11761445552110672,0.06276877969503403,0.06709622591733932,0.036135412752628326,-0.020466193556785583,0.02895417809486389,0.06725190579891205,0.13397683203220367,0.05894317105412483,-0.005038406699895859,0.06035671755671501,-0.013878307305276394,-0.07609961926937103,-0.16366799175739288,0.07988537847995758,0.0882774144411087,0.059365514665842056,-0.0022011722903698683,0.03261421620845795,0.11833996325731277,0.1875087171792984,-0.047066982835531235,-0.0031407750211656094,-0.0802188441157341,0.0006598096224479377,-0.07706991583108902,-0.059609416872262955,0.002043738029897213,-0.18199273943901062,0.0009950357489287853,0.026610206812620163,-0.09570809453725815,0.018198881298303604,-0.1981908529996872,0.08469638973474503,0.12872740626335144
CHEMBL267,-0.001713588135316968,-0.04859725758433342,-0.05106217414140701,0.0017836922779679298,-0.09349612146615982,-0.041635654866695404,0.08370805531740189,-0.018768778070807457,0.057271234691143036,0.1208789050579071,0.024517474696040154,-0.008302642963826656,0.08451124280691147,0.14374381303787231,0.0111593222245574,0.13424623012542725,-0.04379774257540703,0.07016372680664062,0.0066749039106070995,-0.02247922308743,-0.015253602527081966,0.006117202807217836,0.04472804442048073,-0.045855987817049026,0.08142019808292389,0.09897495806217194,0.08193624764680862,-0.0657484233379364,-0.0010112185264006257,-0.19203665852546692,-0.046982891857624054,0.07350990176200867,0.03055254928767681,0.02456560917198658,0.03605026751756668,0.06496013700962067,-0.08493997156620026,0.07710878551006317,-0.030921570956707,-0.04135054349899292,0.04968911036849022,-0.04207606241106987,0.046439263969659805,-0.058375611901283264,-0.09032684564590454,-0.037209078669548035,-0.023113016039133072,0.09450309723615646,-0.02965857833623886,-0.16672813892364502,-0.10317903012037277,0.0110339829698205,0.02890973538160324,0.0408916249871254,0.011249957606196404,0.03206118568778038,-0.00014231970999389887,0.07195356488227844,0.02194458432495594,0.01688210852444172,-0.17082706093788147,-0.03823626786470413,0.03930441290140152,-0.04019041359424591,0.05976966768503189,-0.0051810829900205135,0.08037013560533524,0.019607655704021454,0.08593723177909851,0.0011309088440611959,9.975269495043904e-05,-0.05265282094478607,0.022214364260435104,-0.010999184101819992,0.006813791114836931,0.0501556470990181,-0.04571690782904625,0.138860285282135,0.031559426337480545,0.06762673705816269,-0.020804427564144135,0.002847911324352026,-0.08996700495481491,0.054447535425424576,0.06591954082250595,-0.08054738491773605,-0.05586928129196167,0.10522377490997314,0.0968414843082428,0.029088061302900314,0.11179082840681076,0.02633780427277088,-0.09438054263591766,-0.047273099422454834,0.03567061945796013,0.024368176236748695,0.061222828924655914,-0.07414951920509338,0.0810394436120987,0.012684904970228672,-0.0636875182390213,-0.009256502613425255,-0.10969910770654678,-0.025211114436388016,0.00026655063265934587,-0.08190573006868362,-0.10011577606201172,0.06119927391409874,-0.040585026144981384,-0.14076316356658936,0.06411617249250412,-0.049572888761758804,-0.07282231748104095,-0.013242076151072979,-0.014058745466172695,-0.06616584956645966,-0.09626666456460953,0.05640947446227074,-0.034224651753902435,0.033474843949079514,-0.12483742833137512,-0.02399090677499771,0.05162864550948143,0.023702479898929596,-0.08686457574367523,0.03847751021385193,0.10133258998394012,0.1536601185798645,-0.04568859189748764,0.01721690036356449,0.006261968053877354,-0.06601200997829437,-0.011978424154222012,-0.04771587997674942,0.0020355284214019775,0.12061914056539536,0.11879075318574905,0.11439035087823868,-0.020437858998775482,-0.025938859209418297,0.0212435033172369,-0.06941120326519012,-0.0747908353805542,-0.030821669846773148,0.03697454556822777,0.1541147083044052,-0.006182907149195671,-0.017627522349357605,-0.04637229070067406,0.07627527415752411,0.05754849687218666,-0.07005156576633453,0.006114532705396414,-0.030141709372401237,-0.012317351996898651,-0.12172500789165497,0.08493895828723907,0.11775962263345718,-0.02234775759279728,-0.011974663473665714,-0.04543789103627205,0.0019197716610506177,0.04851952940225601,-0.1286664456129074,0.09208563715219498,0.11074279248714447,0.025617314502596855,0.03299827128648758,0.04783304035663605,-0.05440328270196915,-0.037855807691812515,0.0055994438007473946,0.15229104459285736,-0.023851504549384117,0.01820525713264942,-0.07688882946968079,0.0053701214492321014,0.007409315090626478,0.04219433665275574,-0.046436332166194916,0.0890873372554779,0.01782320626080036,0.05865919962525368,0.012823745608329773,-0.012279912829399109,0.00986893568187952,-0.040489304810762405,-0.032177772372961044,-0.03972584754228592,-0.0106675298884511,-0.03519619256258011,0.07983595132827759,-0.04323931410908699,-0.058492641896009445,0.13565926253795624,-0.011722074821591377,-0.06506127864122391,0.09660035371780396,-0.08746428042650223,-0.02069597691297531,0.008571503683924675,0.021776771172881126,-0.11401300877332687,0.04794147610664368,-0.032372526824474335,0.009396933950483799,-0.051341623067855835,-0.05472220107913017,-0.12668980658054352,-0.10820090770721436,0.04376513883471489,0.07112175971269608,0.11321866512298584,0.04144705832004547,-0.11513345688581467,0.06563109159469604,-0.09779608994722366,0.018890196457505226,0.07732231169939041,0.032196637243032455,-0.015705572441220284,0.021347878500819206,0.14475184679031372,-0.10231928527355194,0.031051330268383026,-0.09101343899965286,-0.13278168439865112,0.003146203700453043,-0.11195147037506104,0.10291201621294022,0.14994388818740845,-0.029579900205135345,-0.062108829617500305,-0.08096656203269958,-0.8518691062927246,0.08363549411296844,0.1302972286939621,0.020604927092790604,-0.14256910979747772,-0.09795112907886505,-0.10158484429121017,0.040191613137722015,-0.0599370039999485,0.003212061943486333,-0.06693011522293091,0.06410593539476395,0.04048359394073486,-0.03610999509692192,0.10915492475032806,0.10547617822885513,-0.06336091458797455,0.03970881924033165,-0.02759586274623871,-0.052190542221069336,0.07579178363084793,-0.07717495411634445,0.005563031882047653,0.06388317048549652,0.01402981672435999,-0.08676440268754959,0.02683461643755436,0.015359176322817802,-0.06992597877979279,0.022223198786377907,-0.15454667806625366,-0.07994817197322845,-0.05978633835911751,-0.04962906986474991,0.02970556914806366,-0.02616351656615734,0.041827425360679626,0.050609439611434937,-0.053726013749837875,0.06756005436182022,-0.03544359654188156,0.030483774840831757,0.039433661848306656,0.007954033091664314,0.008136823773384094,-0.07428686320781708,0.04619872197508812,-0.07398825883865356,0.035433828830718994,0.025576695799827576,0.059070780873298645,-0.1352550983428955,-0.0038020890206098557,0.10612480342388153,0.07230683416128159,0.06227367743849754,0.045478012412786484,0.04325726255774498,-0.12837906181812286,-0.13753725588321686,-0.024226974695920944,-0.03323739394545555,-0.004933493677526712,0.1469380259513855,0.0183931402862072,0.0199026707559824,0.22181247174739838,0.0016788148786872625,-0.16644980013370514,0.13270796835422516,0.0004799742600880563,0.026621801778674126,-0.07919691503047943,0.05883295089006424,-0.02596186473965645,0.0036530273500829935,-0.042499300092458725,0.0009715831838548183,0.023793404921889305,0.0061166733503341675,0.06160889193415642,0.01705946773290634,-0.005550301633775234,-0.09467845410108566,-0.11325795948505402,-0.015948625281453133,-0.028682513162493706,-0.05321134626865387,0.03785001486539841,0.06719217449426651,-0.055071569979190826,-0.0522305853664875,0.08071744441986084,0.08020655065774918,-0.008125551044940948,0.06339246779680252,0.03081071376800537,-0.011069453321397305,-0.04659979045391083,-0.006669516209512949,-0.15178240835666656,0.04506887495517731,0.1336970180273056,-0.02676578238606453,-0.02206329256296158,0.007563708815723658,0.04642082378268242,-0.03916028514504433,-0.09036101400852203,0.004218225367367268,-0.09880942106246948,-0.12737837433815002,-0.09371592849493027,0.06107177212834358,0.019703684374690056,-0.06037605181336403,-0.008572404272854328,0.023877691477537155,0.024753699079155922,-0.08736280351877213,0.13120773434638977,-0.048378948122262955,0.029469789937138557,-0.08341795951128006,-0.029987087473273277,0.0725073590874672,0.05901137739419937,0.020493341609835625,-0.12605085968971252,-0.014857906848192215,-0.10258544981479645,0.052661847323179245,0.06691381335258484,-0.044685494154691696,0.07975746691226959,-0.06792434304952621,0.20040497183799744,0.14948458969593048,-0.03375649079680443,-0.092484250664711,0.09368964284658432,0.2283703088760376,0.03240041062235832,0.0392768532037735,0.1373179703950882,0.05385074019432068,0.01204739511013031,-0.12433235347270966,-0.020365813747048378,0.0657867044210434,0.063532255589962,-0.03374629467725754,-0.019161703065037727,-0.03526836633682251,-0.008310378529131413,-0.06152326613664627,-0.06372353434562683,0.028682110831141472,0.08597438037395477,0.01444639265537262,-0.10929041355848312,-0.15214435756206512,0.1256512552499771,0.0530056394636631,0.037341903895139694,-0.029865534976124763,0.013868111185729504,0.041237812489271164,-0.08533212542533875,0.1391066461801529,-0.046900104731321335,0.04123599827289581,0.03520502150058746,-0.017989400774240494,-0.057065449655056,-0.13859325647354126,0.0014182982267811894,-0.0066055539064109325,0.03282129764556885,-0.056428179144859314,0.005831343121826649,0.03330129012465477,0.024230726063251495,0.0692247524857521,0.09514245390892029,0.030690837651491165,-0.04596283286809921,0.06072700396180153,0.054431140422821045,0.048262305557727814,-0.0019077187171205878,-0.020720582455396652,0.03256908804178238,0.025037480518221855,0.06772024929523468,0.0009477408020757139,0.0469469353556633,-0.04898650199174881,0.023208463564515114,0.07078337669372559,0.02271771989762783,0.041068557649850845,0.07980569452047348,0.007746248971670866,-0.07309359312057495,-0.009531557559967041,0.0157246682792902,-0.014038106426596642,-0.012358928099274635,-0.23680828511714935,0.050294045358896255,-0.05936955288052559,0.0755956843495369,-0.035811252892017365,0.011516102589666843,-0.0793718695640564,0.03500918298959732,0.00017492889310233295,0.02432037703692913,-0.041624683886766434,0.023589719086885452,0.05691397935152054,0.14148449897766113,0.10712931305170059,-0.0671633929014206,0.15136583149433136,-0.009283742867410183,0.07951758056879044,-0.04481842368841171,-0.05766871199011803,-0.0015418969560414553,-0.12013222277164459,0.06319174915552139,0.05575656518340111,0.08201189339160919,-0.009146906435489655,-0.0781112089753151,0.0028338038828223944,0.07546311616897583,-0.07586932927370071,0.015638023614883423,-0.10248548537492752,-0.0364542119204998,-0.0330653116106987,-0.030661633238196373,-0.09424155950546265,-0.023563658818602562,0.0061784242279827595,-0.05820855125784874,0.04505547881126404,0.009595858864486217,0.028785180300474167,-0.003731832606717944,-0.054069265723228455,-0.023379448801279068,0.0728168860077858,-0.0993049368262291,0.03017352521419525,-0.01988254114985466,-0.02684028632938862,-0.04366738349199295,0.028047611936926842,0.034862205386161804,-0.052896879613399506,-0.13237588107585907,-0.09076236933469772,-0.1119733676314354,-0.09387365728616714,-0.10214517265558243,0.021642323583364487,-0.021569404751062393,0.05271526798605919,-0.005519699305295944,0.1919630765914917,-0.08409968763589859,-0.046575140208005905,-0.0103056775406003,0.0018134192796424031,0.016595391556620598,-0.03261934220790863,0.029941774904727936,-0.04456538334488869,0.027791587635874748,-0.13846546411514282,0.07800929248332977,-0.12536659836769104,0.16164346039295197,-0.05783601105213165,-0.021181555464863777,-0.036679744720458984,0.024063579738140106,-0.16514286398887634,0.109166219830513,-0.01102816965430975,0.06272047013044357,-0.02657238580286503,0.012284942902624607,0.10084204375743866,0.005752380471676588,-0.09091224521398544,0.02061331458389759,0.00795698445290327,0.001970881363376975,-0.06727799773216248,-0.23336130380630493,0.045991748571395874,-0.09068730473518372,0.018191022798419,0.022373519837856293,0.12116417288780212,-0.08106013387441635,0.04296031966805458,0.05018622428178787,0.02019689232110977,0.07032152265310287,-0.08820074796676636,0.03837531432509422,0.061406876891851425,-0.07134879380464554,0.12762048840522766,0.08457423001527786,-0.13540901243686676,-0.16950276494026184,-0.050527580082416534,0.005468456540256739,0.03847356513142586,-0.046918585896492004,0.07928425818681717,-0.008905506692826748,0.07324714958667755,0.23728114366531372,-0.0871758833527565,0.0629686787724495,-0.04405590519309044,0.025401683524250984,-0.07975080609321594,-0.045623015612363815,0.2649877667427063,0.058453187346458435,0.054725222289562225,-0.08776978403329849,0.055821605026721954,0.02600758709013462,0.10687767714262009,0.05990033224225044,0.06324520707130432,-0.04690380021929741,-0.06759042292833328,0.06185432896018028,0.05290113016963005,0.05043336749076843,0.010143015533685684,0.08766932040452957,0.10036633908748627,-0.012075930833816528,0.09200572967529297,-0.0007102906238287687,-0.09028668701648712,0.054459862411022186,-0.014617121778428555,0.06574428826570511,0.030146414414048195,-0.02362223155796528,-0.006239242386072874,0.10016413778066635,-0.08579350262880325,-0.09300988912582397,0.014897297136485577,-0.07427807152271271,-0.03528134524822235,-0.11988348513841629,0.0551735945045948,0.02460881695151329,-0.00814776960760355,-0.0713384598493576,-0.010841954499483109,0.034832991659641266,0.05384347587823868,0.02351231314241886,0.025318568572402,0.053595952689647675,0.08241158723831177,-0.05043553188443184,-0.04598104581236839,0.019811570644378662,-0.01799609512090683,-0.0339587926864624,0.06329478323459625,-0.07128965109586716,0.02378055267035961,-0.0030851911287754774,0.09933355450630188,0.03782771900296211,-0.015980135649442673,0.04220762848854065,-0.02995329350233078,0.0030245285015553236,0.1037210002541542,0.09438996762037277,0.02630176581442356,0.04843510314822197,-0.003174799494445324,-0.011846768669784069,0.0652085393667221,-0.06235130503773689,-0.060543790459632874,-0.09265810251235962,-0.03272096812725067,0.0469922237098217,0.07312379032373428,0.015487564727663994,-0.046585701406002045,0.1375189870595932,0.04038691893219948,0.026020444929599762,-0.04132483899593353,0.0062189241871237755,0.2176155149936676,0.10777759552001953,-0.0340629480779171,-0.02266133762896061,0.03260862082242966,0.02728372812271118,0.07079953700304031,-0.09764878451824188,0.12682875990867615,0.02339961752295494,-0.016546566039323807,-0.034279339015483856,-0.09754469245672226,0.02621295489370823,0.05186501145362854,-0.053783122450113297,-0.019803805276751518,0.040172405540943146,0.002430649707093835,0.09507759660482407,-0.19066017866134644,0.03907898813486099,-0.03193731606006622,0.02768237330019474,-0.049434415996074677,-0.04827741160988808,0.024699218571186066,0.03110419027507305,-0.01332528330385685,-0.01808791048824787,-0.04865344241261482,-0.12431126832962036,0.26277467608451843,0.044043220579624176,-0.0693766176700592,0.04285603389143944,0.0513746552169323,-0.014688163064420223,0.007614144589751959,0.2324882596731186,-0.009813460521399975,0.028556015342473984,-0.04347527399659157,0.07232621312141418,0.06484461575746536,-0.027366895228624344,-0.08103398978710175,0.11654460430145264,-0.08928731083869934,0.2193438857793808,0.11754588782787323,0.05849788710474968,0.02342718280851841,0.0043845451436936855,0.042081061750650406,0.041407737880945206,-0.07950951904058456,-0.055416639894247055,0.018377365544438362,0.07997163385152817,-0.06453295052051544,-0.08588104695081711,0.02868936024606228,0.062492724508047104,0.006835511885583401,0.021583788096904755,0.05992651730775833,-0.010491655208170414,0.1178317442536354,0.013697200454771519,-0.027359798550605774,0.12038104236125946,0.049253929406404495,-0.042804986238479614,0.004918362945318222,0.047648701816797256,0.13650819659233093,0.07994010299444199,0.03251111879944801,-0.05101466923952103,-0.005840855650603771,0.1327926069498062,-0.04082593694329262,0.009572640061378479,0.10801000148057938,0.4295046031475067,0.05095551535487175,-0.05023529380559921,-0.12046320736408234,-0.015928909182548523,0.08069009333848953,-0.021504845470190048,-0.039717793464660645,-0.07668086886405945,-0.10967380553483963,-0.048564180731773376,-0.022210946306586266,0.17975400388240814,0.03329815715551376,-0.020636560395359993,0.060859814286231995,0.008300531655550003,-0.12486095726490021,-0.008681632578372955,-0.013505913317203522,0.027895156294107437,0.031602002680301666,0.01087451633065939,-0.10727051645517349,-0.17375141382217407,0.07364604622125626,0.08853201568126678,-0.021137211471796036,-0.03383322432637215,-0.06152985617518425,-0.10537859797477722,0.03450343757867813,-0.06060037389397621,0.07557260245084763,0.030267832800745964,-0.029445236548781395,-0.06656739860773087,-0.04005897045135498,0.06718186289072037,0.06759511679410934,-0.0024255206808447838,-0.014158932492136955,0.10321659594774246,-0.13027642667293549,-0.15596888959407806,-0.025879552587866783,0.047526560723781586,-0.13127802312374115,-0.1014600545167923,-0.005486871115863323,0.21412912011146545,-0.0699312835931778,0.030900167301297188,0.024187184870243073,0.13196149468421936,0.08409983664751053,-0.019837619736790657,0.2074912190437317,-0.09857302159070969,-0.1030716598033905,-0.01435240637511015,-0.06309634447097778,-0.024845674633979797,0.03416961431503296,0.0381450280547142,0.08039325475692749,-0.030352113768458366,-0.031340014189481735,-0.03596580773591995,0.04942316934466362,0.04574515298008919,-0.11859269440174103,-0.06376544386148453,-0.011610259301960468,0.11860939860343933,-0.0954710990190506,0.0924198254942894,0.004471565131098032,0.011202583089470863,-0.11546675115823746,-0.003279781201854348,-0.03886331245303154,0.18276415765285492,-0.03923334926366806,0.07123363018035889,-0.0051242695190012455,-0.08373917639255524,0.021930037066340446,-0.08483973890542984,0.04638035222887993,0.049094319343566895,-0.22086501121520996,0.01959628239274025,0.0221328753978014,-0.15408384799957275,-0.06865581125020981,0.002696945331990719,0.07951346039772034,0.038269270211458206,0.14574913680553436,0.27393272519111633,-0.005467324983328581,0.03711305186152458,0.0665748342871666,-0.1251073181629181,-0.08449908345937729,-0.04200724884867668,0.00959035661071539,-0.02959967590868473,0.09627597033977509,0.030285565182566643,-0.024749327450990677,0.048090651631355286,-0.10377251356840134,-0.013105819933116436,-0.09445182234048843,0.04955647140741348,-0.013480143621563911,0.030635708943009377,-0.14723099768161774,0.08787115663290024,0.026491612195968628,0.11005814373493195,0.02077116258442402,-0.0008210152154788375,0.0334918238222599,0.0685732513666153,-0.031976357102394104,-0.0011026320280507207,-0.02630033902823925,0.04404309019446373,-0.017028866335749626,-0.04810452461242676,-8.361490472452715e-05,-0.02343442104756832,-0.0021701063960790634,0.06358873844146729,0.05325727164745331,0.029468344524502754,0.007626454811543226,0.11192259192466736,0.033305805176496506,0.01024229358881712,-0.006151560228317976,0.12557080388069153,0.013099710457026958,0.10871687531471252,-0.14905869960784912,-0.02974225953221321,-0.07715578377246857,-0.04645385593175888,-0.07706835865974426,0.012327069416642189,0.0888771265745163,-0.04012099280953407,-0.02913603000342846,-0.038247086107730865,0.09329041838645935,-0.16972114145755768,0.030069515109062195,0.10282089561223984,-0.08795768022537231,-0.054746005684137344,0.12486546486616135,-0.023953359574079514,-0.11565190553665161,0.009329773485660553,0.024005120620131493,-0.014514983631670475,0.0424150675535202,0.020944012328982353,0.034234751015901566,0.06006516516208649,-0.07837208360433578,0.001124846050515771,-0.020910101011395454,-0.011479240842163563,-0.052710890769958496,0.03876391425728798,-0.024625509977340698,-0.010480605065822601,-0.009523014537990093,0.009023471735417843,0.10103628039360046,0.11602326482534409,-0.01307529117912054,-0.0013233742211014032,0.08959807455539703,-0.1082683727145195,0.06347106397151947,0.09966184943914413,0.011130205355584621,0.0048347651027143,-0.024382319301366806,0.05636231228709221,-0.06535308808088303,-0.0878543108701706,-0.16366636753082275,-0.07026652246713638,-0.05251901596784592,0.10858660936355591,0.13215501606464386,-0.05745335668325424,0.07680569589138031,0.04046834260225296,-0.03141734376549721,0.15139040350914001,0.01696113310754299,-0.00397940818220377,0.024448759853839874,0.1442779302597046,0.0009449680219404399,-0.06481441855430603,0.0587441623210907,0.1524249166250229,0.05499906837940216,0.12853673100471497,0.05155464634299278,0.047796424478292465,-0.1329948902130127,0.017980538308620453,-0.08174145966768265,-0.0878659188747406,0.11919398605823517,-0.011545300483703613,0.05743740499019623,-0.07777617871761322,0.01396373100578785,0.059163644909858704,-0.015735266730189323,-0.07998740673065186,0.02341129072010517,-0.014912165701389313,-0.07962776720523834,-0.10345106571912766,0.12780341506004333,0.14233388006687164,-0.002986484207212925,0.1105690523982048,0.04053530469536781,-0.08306790888309479,-0.06562884896993637,-0.02920795977115631,-0.037434253841638565,-0.04745730012655258,-0.09142546355724335,0.007643282879143953,-0.03158940002322197,-0.06256423145532608,0.01908002234995365,-0.1415565311908722,-0.10284080356359482,-0.05318280681967735,0.08576654642820358,-0.05295531451702118,-0.09219077974557877,0.04188815504312515,0.020847223699092865,-0.015666263177990913,0.025615107268095016,0.06917236745357513,-0.077638640999794,0.04019549861550331,0.01549921091645956,-0.14615581929683685,0.027775470167398453,0.06413893401622772,-0.06769348680973053,0.0026667460333555937,0.06938563287258148,-0.0763162299990654,-3.8082271203165874e-05,0.002436935668811202,-0.018491877242922783,0.0407751128077507,-0.07718578726053238,0.19608789682388306,-0.04745281860232353,0.0564216747879982,-0.06549499928951263,-0.1109662875533104,0.03888740763068199,-0.08615928888320923,0.11645743250846863,-0.07929249107837677,0.08199068158864975,-0.00037016739952377975,-0.025901751592755318,0.1048043817281723,-0.13576094806194305,-0.11990678310394287,-0.11190160363912582,-0.05279838666319847,-0.07839328795671463,-0.009955886751413345,-0.0417359322309494,0.05844825133681297,0.07811562716960907,-0.0019234553910791874,0.11904489994049072,0.08771324157714844,-0.08578522503376007,0.012809410691261292,-0.025668201968073845,-0.0004170973552390933,0.06401200592517853,0.03215409815311432,-0.0899626836180687,0.08223976194858551,0.003799982601776719,0.052335646003484726,0.0971808061003685,0.12697501480579376,0.0023215184919536114,0.038934461772441864,-0.0907597467303276,0.09449966251850128,0.020762281492352486,-0.035523440688848495,0.07254309952259064,0.03152568265795708,0.05730241537094116,0.01246559526771307,-0.030479125678539276,-0.15335066616535187,-0.038334283977746964,0.010128847323358059,0.008769135922193527,-0.04680784046649933,-0.08936938643455505,0.01770254597067833,0.07020316272974014,0.02579747512936592,0.019574308767914772,0.0011492905905470252,-0.047727108001708984,0.050349533557891846,0.04444979131221771,-0.03749688342213631,-0.018785465508699417,-0.026805179193615913,0.050159331411123276,-0.14022916555404663,0.02177562192082405,0.03256257250905037,-0.04277431219816208,-0.17143817245960236,-0.07752513885498047,0.07378945499658585,-0.05558052286505699,-0.08692412823438644,0.05900172144174576,0.08365527540445328,0.050146475434303284,0.047129929065704346,0.05611300840973854,0.11636663973331451,-0.14320403337478638,0.07544700056314468,0.1789827197790146,-0.13058020174503326,-0.0470953993499279,0.1397484838962555,0.07476478070020676,-0.05600147694349289,-0.010295715183019638,0.15781879425048828,-0.03741597756743431,0.04238692298531532,-0.051467105746269226,0.07159338891506195,0.15925945341587067,-0.015015533193945885,-0.09215681999921799,-0.015763934701681137,0.05708546191453934,-0.04302620142698288,0.05033833906054497,0.07222329825162888,0.029122579842805862,0.04238290712237358,0.08770768344402313,-0.0612761415541172,-0.0871669128537178,0.0713842436671257,-0.08892277628183365,0.0009322367259301245,-0.10289706289768219,-0.09425792098045349,-0.048382651060819626,-0.09067454934120178,-0.012833134271204472,-0.01595240831375122,-0.05813891813158989,0.028064941987395287,-0.13226696848869324,0.029335971921682358,0.11733512580394745,-0.025432879105210304,-0.14043498039245605,0.11486706882715225,0.06717350333929062,0.02581421658396721,-0.020366942510008812,-0.004590191412717104,0.027969585731625557,-0.09539303928613663,0.019922714680433273,0.03363750874996185,0.058734674006700516,0.10063011944293976,0.008582538925111294,-0.03890876844525337,0.08028946816921234,-0.049803078174591064,0.10628277063369751,0.0910865068435669,-0.06603449583053589,-0.014488527551293373,-0.02987074851989746,-0.03620462492108345,-0.05472096800804138,-0.07575270533561707,0.11910048127174377,-4.933196067810059,-0.12270569056272507,-0.0022006819490343332,-0.03644859418272972,0.02667469158768654,-0.031114961951971054,0.026537125930190086,0.029165707528591156,0.08240452408790588,0.02598581276834011,0.034652065485715866,-0.06051253527402878,-0.014741132035851479,-0.029618969187140465,-0.04494250565767288,-0.019428446888923645,-0.048171497881412506,0.08875543624162674,0.05923048034310341,0.05679049715399742,-0.0468304343521595,0.0070864190347492695,-0.04684729874134064,0.12202408164739609,-0.002321890788152814,-0.13644565641880035,-0.0015351196052506566,0.032085176557302475,0.031248128041625023,0.1314079612493515,0.05856727063655853,0.052231401205062866,-0.018953317776322365,0.15882593393325806,0.08409149944782257,0.05814294144511223,0.0497576929628849,0.04214654117822647,0.15108659863471985,0.038002461194992065,0.1297011822462082,-0.07937880605459213,0.0006666649715043604,0.010636392049491405,-0.002020885469391942,-0.0867055356502533,-0.10385505855083466,-0.030335964635014534,0.10963934659957886,-0.0449090339243412,0.04100390151143074,-0.05954748019576073,0.04979328066110611,-0.04615175351500511,0.05509524419903755,-0.07512782514095306,-0.03676789253950119,0.09377555549144745,0.03315236046910286,0.04444263130426407,0.008798831142485142,0.008312966674566269,-0.09708520025014877,0.04456136003136635,-0.03594857081770897,-0.06899242103099823,-0.06902472674846649,-0.15275223553180695,-0.04726402834057808,0.02572123147547245,0.1471978724002838,-0.018230238929390907,-0.01040377002209425,0.19788457453250885,-0.02759990282356739,0.05585339292883873,-0.05351660028100014,-0.045566774904727936,0.11498311907052994,0.007265803869813681,-0.1396387219429016,0.06676708906888962,-0.10752665996551514,0.06450768560171127,0.060102712363004684,0.03626667708158493,0.05246717110276222,0.10500569641590118,-0.05237499251961708,0.013241917826235294,0.0852494165301323,0.057786207646131516,0.004250893834978342,0.035131148993968964,0.15615959465503693,-0.008985941298305988,-0.10798530280590057,-0.037429627031087875,0.11528946459293365,0.04486190900206566,0.020915182307362556,0.03453207388520241,0.13659705221652985,0.11943746358156204,0.013376381248235703,-0.0250729788094759,-0.029074128717184067,-0.09826117753982544,0.08614678680896759,-0.003461721818894148,0.016980556771159172,-0.05847230553627014,-0.13186821341514587,0.04291856288909912,0.022484654560685158,-0.12604506313800812,0.02817031927406788,-0.1476670354604721,0.0889512151479721,0.1384662538766861
