Target_ID,emb_0,emb_1,emb_2,emb_3,emb_4,emb_5,emb_6,emb_7,emb_8,emb_9,emb_10,emb_11,emb_12,emb_13,emb_14,emb_15,emb_16,emb_17,emb_18,emb_19,emb_20,emb_21,emb_22,emb_23,emb_24,emb_25,emb_26,emb_27,emb_28,emb_29,emb_30,emb_31,emb_32,emb_33,emb_34,emb_35,emb_36,emb_37,emb_38,emb_39,emb_40,emb_41,emb_42,emb_43,emb_44,emb_45,emb_46,emb_47,emb_48,emb_49,emb_50,emb_51,emb_52,emb_53,emb_54,emb_55,emb_56,emb_57,emb_58,emb_59,emb_60,emb_61,emb_62,emb_63,emb_64,emb_65,emb_66,emb_67,emb_68,emb_69,emb_70,emb_71,emb_72,emb_73,emb_74,emb_75,emb_76,emb_77,emb_78,emb_79,emb_80,emb_81,emb_82,emb_83,emb_84,emb_85,emb_86,emb_87,emb_88,emb_89,emb_90,emb_91,emb_92,emb_93,emb_94,emb_95,emb_96,emb_97,emb_98,emb_99,emb_100,emb_101,emb_102,emb_103,emb_104,emb_105,emb_106,emb_107,emb_108,emb_109,emb_110,emb_111,emb_112,emb_113,emb_114,emb_115,emb_116,emb_117,emb_118,emb_119,emb_120,emb_121,emb_122,emb_123,emb_124,emb_125,emb_126,emb_127,emb_128,emb_129,emb_130,emb_131,emb_132,emb_133,emb_134,emb_135,emb_136,emb_137,emb_138,emb_139,emb_140,emb_141,emb_142,emb_143,emb_144,emb_145,emb_146,emb_147,emb_148,emb_149,emb_150,emb_151,emb_152,emb_153,emb_154,emb_155,emb_156,emb_157,emb_158,emb_159,emb_160,emb_161,emb_162,emb_163,emb_164,emb_165,emb_166,emb_167,emb_168,emb_169,emb_170,emb_171,emb_172,emb_173,emb_174,emb_175,emb_176,emb_177,emb_178,emb_179,emb_180,emb_181,emb_182,emb_183,emb_184,emb_185,emb_186,emb_187,emb_188,emb_189,emb_190,emb_191,emb_192,emb_193,emb_194,emb_195,emb_196,emb_197,emb_198,emb_199,emb_200,emb_201,emb_202,emb_203,emb_204,emb_205,emb_206,emb_207,emb_208,emb_209,emb_210,emb_211,emb_212,emb_213,emb_214,emb_215,emb_216,emb_217,emb_218,emb_219,emb_220,emb_221,emb_222,emb_223,emb_224,emb_225,emb_226,emb_227,emb_228,emb_229,emb_230,emb_231,emb_232,emb_233,emb_234,emb_235,emb_236,emb_237,emb_238,emb_239,emb_240,emb_241,emb_242,emb_243,emb_244,emb_245,emb_246,emb_247,emb_248,emb_249,emb_250,emb_251,emb_252,emb_253,emb_254,emb_255,emb_256,emb_257,emb_258,emb_259,emb_260,emb_261,emb_262,emb_263,emb_264,emb_265,emb_266,emb_267,emb_268,emb_269,emb_270,emb_271,emb_272,emb_273,emb_274,emb_275,emb_276,emb_277,emb_278,emb_279,emb_280,emb_281,emb_282,emb_283,emb_284,emb_285,emb_286,emb_287,emb_288,emb_289,emb_290,emb_291,emb_292,emb_293,emb_294,emb_295,emb_296,emb_297,emb_298,emb_299,emb_300,emb_301,emb_302,emb_303,emb_304,emb_305,emb_306,emb_307,emb_308,emb_309,emb_310,emb_311,emb_312,emb_313,emb_314,emb_315,emb_316,emb_317,emb_318,emb_319,emb_320,emb_321,emb_322,emb_323,emb_324,emb_325,emb_326,emb_327,emb_328,emb_329,emb_330,emb_331,emb_332,emb_333,emb_334,emb_335,emb_336,emb_337,emb_338,emb_339,emb_340,emb_341,emb_342,emb_343,emb_344,emb_345,emb_346,emb_347,emb_348,emb_349,emb_350,emb_351,emb_352,emb_353,emb_354,emb_355,emb_356,emb_357,emb_358,emb_359,emb_360,emb_361,emb_362,emb_363,emb_364,emb_365,emb_366,emb_367,emb_368,emb_369,emb_370,emb_371,emb_372,emb_373,emb_374,emb_375,emb_376,emb_377,emb_378,emb_379,emb_380,emb_381,emb_382,emb_383,emb_384,emb_385,emb_386,emb_387,emb_388,emb_389,emb_390,emb_391,emb_392,emb_393,emb_394,emb_395,emb_396,emb_397,emb_398,emb_399,emb_400,emb_401,emb_402,emb_403,emb_404,emb_405,emb_406,emb_407,emb_408,emb_409,emb_410,emb_411,emb_412,emb_413,emb_414,emb_415,emb_416,emb_417,emb_418,emb_419,emb_420,emb_421,emb_422,emb_423,emb_424,emb_425,emb_426,emb_427,emb_428,emb_429,emb_430,emb_431,emb_432,emb_433,emb_434,emb_435,emb_436,emb_437,emb_438,emb_439,emb_440,emb_441,emb_442,emb_443,emb_444,emb_445,emb_446,emb_447,emb_448,emb_449,emb_450,emb_451,emb_452,emb_453,emb_454,emb_455,emb_456,emb_457,emb_458,emb_459,emb_460,emb_461,emb_462,emb_463,emb_464,emb_465,emb_466,emb_467,emb_468,emb_469,emb_470,emb_471,emb_472,emb_473,emb_474,emb_475,emb_476,emb_477,emb_478,emb_479,emb_480,emb_481,emb_482,emb_483,emb_484,emb_485,emb_486,emb_487,emb_488,emb_489,emb_490,emb_491,emb_492,emb_493,emb_494,emb_495,emb_496,emb_497,emb_498,emb_499,emb_500,emb_501,emb_502,emb_503,emb_504,emb_505,emb_506,emb_507,emb_508,emb_509,emb_510,emb_511,emb_512,emb_513,emb_514,emb_515,emb_516,emb_517,emb_518,emb_519,emb_520,emb_521,emb_522,emb_523,emb_524,emb_525,emb_526,emb_527,emb_528,emb_529,emb_530,emb_531,emb_532,emb_533,emb_534,emb_535,emb_536,emb_537,emb_538,emb_539,emb_540,emb_541,emb_542,emb_543,emb_544,emb_545,emb_546,emb_547,emb_548,emb_549,emb_550,emb_551,emb_552,emb_553,emb_554,emb_555,emb_556,emb_557,emb_558,emb_559,emb_560,emb_561,emb_562,emb_563,emb_564,emb_565,emb_566,emb_567,emb_568,emb_569,emb_570,emb_571,emb_572,emb_573,emb_574,emb_575,emb_576,emb_577,emb_578,emb_579,emb_580,emb_581,emb_582,emb_583,emb_584,emb_585,emb_586,emb_587,emb_588,emb_589,emb_590,emb_591,emb_592,emb_593,emb_594,emb_595,emb_596,emb_597,emb_598,emb_599,emb_600,emb_601,emb_602,emb_603,emb_604,emb_605,emb_606,emb_607,emb_608,emb_609,emb_610,emb_611,emb_612,emb_613,emb_614,emb_615,emb_616,emb_617,emb_618,emb_619,emb_620,emb_621,emb_622,emb_623,emb_624,emb_625,emb_626,emb_627,emb_628,emb_629,emb_630,emb_631,emb_632,emb_633,emb_634,emb_635,emb_636,emb_637,emb_638,emb_639,emb_640,emb_641,emb_642,emb_643,emb_644,emb_645,emb_646,emb_647,emb_648,emb_649,emb_650,emb_651,emb_652,emb_653,emb_654,emb_655,emb_656,emb_657,emb_658,emb_659,emb_660,emb_661,emb_662,emb_663,emb_664,emb_665,emb_666,emb_667,emb_668,emb_669,emb_670,emb_671,emb_672,emb_673,emb_674,emb_675,emb_676,emb_677,emb_678,emb_679,emb_680,emb_681,emb_682,emb_683,emb_684,emb_685,emb_686,emb_687,emb_688,emb_689,emb_690,emb_691,emb_692,emb_693,emb_694,emb_695,emb_696,emb_697,emb_698,emb_699,emb_700,emb_701,emb_702,emb_703,emb_704,emb_705,emb_706,emb_707,emb_708,emb_709,emb_710,emb_711,emb_712,emb_713,emb_714,emb_715,emb_716,emb_717,emb_718,emb_719,emb_720,emb_721,emb_722,emb_723,emb_724,emb_725,emb_726,emb_727,emb_728,emb_729,emb_730,emb_731,emb_732,emb_733,emb_734,emb_735,emb_736,emb_737,emb_738,emb_739,emb_740,emb_741,emb_742,emb_743,emb_744,emb_745,emb_746,emb_747,emb_748,emb_749,emb_750,emb_751,emb_752,emb_753,emb_754,emb_755,emb_756,emb_757,emb_758,emb_759,emb_760,emb_761,emb_762,emb_763,emb_764,emb_765,emb_766,emb_767,emb_768,emb_769,emb_770,emb_771,emb_772,emb_773,emb_774,emb_775,emb_776,emb_777,emb_778,emb_779,emb_780,emb_781,emb_782,emb_783,emb_784,emb_785,emb_786,emb_787,emb_788,emb_789,emb_790,emb_791,emb_792,emb_793,emb_794,emb_795,emb_796,emb_797,emb_798,emb_799,emb_800,emb_801,emb_802,emb_803,emb_804,emb_805,emb_806,emb_807,emb_808,emb_809,emb_810,emb_811,emb_812,emb_813,emb_814,emb_815,emb_816,emb_817,emb_818,emb_819,emb_820,emb_821,emb_822,emb_823,emb_824,emb_825,emb_826,emb_827,emb_828,emb_829,emb_830,emb_831,emb_832,emb_833,emb_834,emb_835,emb_836,emb_837,emb_838,emb_839,emb_840,emb_841,emb_842,emb_843,emb_844,emb_845,emb_846,emb_847,emb_848,emb_849,emb_850,emb_851,emb_852,emb_853,emb_854,emb_855,emb_856,emb_857,emb_858,emb_859,emb_860,emb_861,emb_862,emb_863,emb_864,emb_865,emb_866,emb_867,emb_868,emb_869,emb_870,emb_871,emb_872,emb_873,emb_874,emb_875,emb_876,emb_877,emb_878,emb_879,emb_880,emb_881,emb_882,emb_883,emb_884,emb_885,emb_886,emb_887,emb_888,emb_889,emb_890,emb_891,emb_892,emb_893,emb_894,emb_895,emb_896,emb_897,emb_898,emb_899,emb_900,emb_901,emb_902,emb_903,emb_904,emb_905,emb_906,emb_907,emb_908,emb_909,emb_910,emb_911,emb_912,emb_913,emb_914,emb_915,emb_916,emb_917,emb_918,emb_919,emb_920,emb_921,emb_922,emb_923,emb_924,emb_925,emb_926,emb_927,emb_928,emb_929,emb_930,emb_931,emb_932,emb_933,emb_934,emb_935,emb_936,emb_937,emb_938,emb_939,emb_940,emb_941,emb_942,emb_943,emb_944,emb_945,emb_946,emb_947,emb_948,emb_949,emb_950,emb_951,emb_952,emb_953,emb_954,emb_955,emb_956,emb_957,emb_958,emb_959,emb_960,emb_961,emb_962,emb_963,emb_964,emb_965,emb_966,emb_967,emb_968,emb_969,emb_970,emb_971,emb_972,emb_973,emb_974,emb_975,emb_976,emb_977,emb_978,emb_979,emb_980,emb_981,emb_982,emb_983,emb_984,emb_985,emb_986,emb_987,emb_988,emb_989,emb_990,emb_991,emb_992,emb_993,emb_994,emb_995,emb_996,emb_997,emb_998,emb_999,emb_1000,emb_1001,emb_1002,emb_1003,emb_1004,emb_1005,emb_1006,emb_1007,emb_1008,emb_1009,emb_1010,emb_1011,emb_1012,emb_1013,emb_1014,emb_1015,emb_1016,emb_1017,emb_1018,emb_1019,emb_1020,emb_1021,emb_1022,emb_1023,emb_1024,emb_1025,emb_1026,emb_1027,emb_1028,emb_1029,emb_1030,emb_1031,emb_1032,emb_1033,emb_1034,emb_1035,emb_1036,emb_1037,emb_1038,emb_1039,emb_1040,emb_1041,emb_1042,emb_1043,emb_1044,emb_1045,emb_1046,emb_1047,emb_1048,emb_1049,emb_1050,emb_1051,emb_1052,emb_1053,emb_1054,emb_1055,emb_1056,emb_1057,emb_1058,emb_1059,emb_1060,emb_1061,emb_1062,emb_1063,emb_1064,emb_1065,emb_1066,emb_1067,emb_1068,emb_1069,emb_1070,emb_1071,emb_1072,emb_1073,emb_1074,emb_1075,emb_1076,emb_1077,emb_1078,emb_1079,emb_1080,emb_1081,emb_1082,emb_1083,emb_1084,emb_1085,emb_1086,emb_1087,emb_1088,emb_1089,emb_1090,emb_1091,emb_1092,emb_1093,emb_1094,emb_1095,emb_1096,emb_1097,emb_1098,emb_1099,emb_1100,emb_1101,emb_1102,emb_1103,emb_1104,emb_1105,emb_1106,emb_1107,emb_1108,emb_1109,emb_1110,emb_1111,emb_1112,emb_1113,emb_1114,emb_1115,emb_1116,emb_1117,emb_1118,emb_1119,emb_1120,emb_1121,emb_1122,emb_1123,emb_1124,emb_1125,emb_1126,emb_1127,emb_1128,emb_1129,emb_1130,emb_1131,emb_1132,emb_1133,emb_1134,emb_1135,emb_1136,emb_1137,emb_1138,emb_1139,emb_1140,emb_1141,emb_1142,emb_1143,emb_1144,emb_1145,emb_1146,emb_1147,emb_1148,emb_1149,emb_1150,emb_1151,emb_1152,emb_1153,emb_1154,emb_1155,emb_1156,emb_1157,emb_1158,emb_1159,emb_1160,emb_1161,emb_1162,emb_1163,emb_1164,emb_1165,emb_1166,emb_1167,emb_1168,emb_1169,emb_1170,emb_1171,emb_1172,emb_1173,emb_1174,emb_1175,emb_1176,emb_1177,emb_1178,emb_1179,emb_1180,emb_1181,emb_1182,emb_1183,emb_1184,emb_1185,emb_1186,emb_1187,emb_1188,emb_1189,emb_1190,emb_1191,emb_1192,emb_1193,emb_1194,emb_1195,emb_1196,emb_1197,emb_1198,emb_1199,emb_1200,emb_1201,emb_1202,emb_1203,emb_1204,emb_1205,emb_1206,emb_1207,emb_1208,emb_1209,emb_1210,emb_1211,emb_1212,emb_1213,emb_1214,emb_1215,emb_1216,emb_1217,emb_1218,emb_1219,emb_1220,emb_1221,emb_1222,emb_1223,emb_1224,emb_1225,emb_1226,emb_1227,emb_1228,emb_1229,emb_1230,emb_1231,emb_1232,emb_1233,emb_1234,emb_1235,emb_1236,emb_1237,emb_1238,emb_1239,emb_1240,emb_1241,emb_1242,emb_1243,emb_1244,emb_1245,emb_1246,emb_1247,emb_1248,emb_1249,emb_1250,emb_1251,emb_1252,emb_1253,emb_1254,emb_1255,emb_1256,emb_1257,emb_1258,emb_1259,emb_1260,emb_1261,emb_1262,emb_1263,emb_1264,emb_1265,emb_1266,emb_1267,emb_1268,emb_1269,emb_1270,emb_1271,emb_1272,emb_1273,emb_1274,emb_1275,emb_1276,emb_1277,emb_1278,emb_1279,emb_1280,emb_1281,emb_1282
CHEMBL1824,0.029359099,-0.090550005,-0.0724765,0.09258029,-0.073549315,-0.013049088,0.14882237,-0.0042554573,0.02098274,0.18722677,0.002847825,0.03952368,0.11065805,0.1412299,0.0678857,0.05878316,0.035618518,0.07634339,-0.08288783,0.118597336,0.13267832,-0.08539819,0.09508419,-0.17602053,0.015780522,0.12730215,-0.11216143,-0.11881682,-0.0578686,-0.11974288,-0.057787575,0.0812627,0.053596523,0.054444343,0.065987475,0.05918418,-0.14211491,0.037237216,0.036054563,-0.00035080852,-0.0056198216,0.05511761,0.21392988,0.007934889,0.0005898274,-0.14537677,0.017777318,0.15873398,0.0128461085,-0.13094784,-0.049349923,-0.048810717,0.09941619,0.07234524,0.010245476,0.06934455,0.05248502,0.085653484,0.096048474,0.0465162,-0.21319161,0.063595034,-0.055481795,-0.006336405,-0.00032856627,-0.006638366,0.12307264,-0.006551276,0.020811722,0.035482436,0.040649943,-0.08976801,-0.14692363,-0.075868115,-0.07530875,0.052519847,-0.054498814,0.21943325,-0.052949093,0.02428659,0.0793651,-0.079604894,-0.16865309,0.025312522,0.031199953,-0.113987885,0.083560854,0.040111307,0.15142418,0.06814891,0.013759288,0.07741153,-0.13836136,0.051652674,-0.00059315807,0.031072762,0.04014124,-0.15729693,-0.04561032,-0.15317239,0.047337543,-0.10426071,-0.13266334,-0.08509528,-0.11252699,-0.17308705,-0.17077507,0.06905558,-0.0446694,-0.0663254,0.014411695,0.06768708,0.00204335,0.030504946,0.009643713,-0.05003982,-0.018194316,0.09908464,0.03182859,0.07915119,-0.12579378,0.0030044727,0.17355524,-0.04624591,-0.13341019,0.026900316,0.18354751,0.091754556,0.0017754202,0.055954307,-0.12008613,-0.09380041,-0.10240937,-0.09304469,0.05240386,0.07957636,0.15511101,0.20110564,-0.06453621,0.01171343,0.008673059,-0.10078602,-0.086506024,0.039513912,0.035819948,0.30212986,0.050844226,0.07792366,-0.06755923,0.02279068,-0.07845708,-0.11248585,0.06466422,0.034997452,-0.008833367,0.0016048283,0.11833886,0.11115616,0.09362222,-0.09414435,-0.06465932,0.13355896,0.10600002,-0.06089866,-0.038870152,0.047076005,0.14028522,-0.11211205,0.15056764,-0.05164617,0.009986075,-0.012816094,0.15146497,-0.06575982,0.01688099,-0.104151085,-0.13593607,-0.11084106,0.008704011,0.03050893,0.103761114,-0.03415111,0.079500556,0.100695305,0.03965445,-0.009246191,-0.03178107,0.07148818,0.052391313,0.018345688,-0.052278873,0.11439457,0.052391928,-0.09546725,0.115866214,0.07107309,-0.069661014,0.13464463,-0.1493771,-0.01773991,0.07408756,0.17728816,-0.13731943,0.083570816,0.023126192,0.08577102,0.028269095,-0.053120635,-0.09747839,-0.2038758,-0.054560706,0.035445932,0.17149843,0.1332215,-0.022285653,0.06928612,-0.1363394,0.073120594,0.13567726,-0.0037660636,0.11153834,-0.028850792,0.098600395,-0.057327192,0.10411039,-0.046928972,-0.15970942,-0.029892229,-0.08024967,-0.08038772,0.17276031,-0.05108031,-0.06500463,-0.15441586,-1.0831636,-0.013289244,0.24380668,0.100331046,-0.15607356,-0.06906654,-0.10403362,0.011013081,-0.110660315,0.12162614,0.012891069,0.011481342,-0.017736679,-0.06453335,0.002515711,0.10897698,-0.12915294,0.106213756,0.023593703,-0.061502963,0.045277588,0.011859517,-0.10682988,0.028044412,0.056429166,-0.12171525,0.072489366,0.013180109,0.06532188,-0.02567645,-0.14026576,-0.027666653,-0.051201627,0.035885118,-0.01134488,0.074163444,0.011206003,0.032479025,-0.0005932196,0.19005798,-0.036935568,0.04307266,0.08779918,0.08647369,-0.04611488,0.13073286,0.030341515,-0.004822411,0.11341747,0.073817104,-0.0285905,-0.22543131,0.14274403,0.17459053,0.12759675,0.09442596,0.07801166,0.046338037,-0.12591888,-0.1310135,0.060588833,0.082189165,-0.05612023,0.12908442,0.03258708,-0.028369587,0.19514242,0.042673275,-0.1519585,0.13220747,-0.04944005,-0.0741022,-0.0040136683,-0.0028076228,0.06903217,-0.0033871108,-0.11907416,-0.13092946,0.070048526,0.09961339,-0.12573339,-0.04045504,0.02233859,0.08692216,-0.20056036,-0.0060640057,0.0071962196,-0.037861962,0.09372285,-0.058025137,-0.10251626,0.025215043,0.015500796,-0.11802121,-0.022407472,0.050148927,0.029532444,-0.027453598,0.027638217,-0.13706014,-0.13833319,0.094006084,0.06278212,0.040879883,0.011853076,0.0044436534,-0.06321377,-0.07743249,-0.05859121,-0.13067055,0.014570849,-0.11392845,-0.06906651,0.078071676,-0.0403848,0.05023574,-0.025881615,-0.051178526,-0.10536323,-0.074042894,0.25084293,-0.061671812,0.014979344,-0.06524715,-0.054075424,0.13027047,-0.034327857,-0.022125257,-0.025840696,0.12699781,0.064489506,-0.0007727893,0.037447058,-0.020397777,0.13437766,-0.0819514,0.13826725,0.16569078,0.07294738,-0.021068916,0.1292568,0.24873054,0.056760177,0.11854265,-0.023533218,0.07821927,-0.04771805,-0.0939489,0.05586459,0.02035318,0.18379807,0.023279183,-0.035152063,0.04076587,0.039164893,-0.04824675,-0.08786088,-0.09651615,0.027632242,-0.13241546,-0.18572532,-0.034697074,0.11566526,0.05251756,0.067703016,0.001886731,-0.022217058,0.15859434,-0.17193627,0.2285782,-0.041197803,0.09461032,-0.07564378,-0.046473112,-0.061925247,0.07000331,0.037696943,-0.016450688,0.06396716,-0.09996429,0.21253835,0.12543377,0.09943556,0.14958334,0.29078802,-0.021481289,-0.072312295,0.13320273,-0.024685282,0.04406519,-0.054961137,0.062240746,0.06257108,0.016719352,0.15293714,0.04117926,-0.0021514948,-0.1852656,-0.044496436,0.013519345,-0.12226108,0.12995273,-0.027982188,-0.17649841,-0.04754091,-0.052482635,0.044447433,0.01211277,-0.06089823,-0.2908083,0.107255146,-0.16190588,0.08696135,0.053905223,0.14471388,-0.15122336,0.015565988,0.0041965814,-0.068876036,-0.1200816,0.010669912,0.012921099,0.14151251,0.087517396,-0.1458364,0.18778604,0.103457116,0.07602135,0.062108632,0.035007693,-0.114230745,-0.12898107,0.0673887,0.14759651,0.05603704,0.03794345,0.07312475,0.025456712,0.09161111,-0.13139111,-0.0041468753,0.0054658935,-0.08767709,0.06382185,-0.0527363,-0.01517623,0.055345815,-0.12112564,-0.060510237,0.04505246,0.009854015,0.07652673,0.07264833,0.0048103426,0.062323917,-0.052599814,-0.0438861,0.01014012,0.0136530595,0.11683807,-0.034240432,0.09458791,0.10981812,-0.075180836,-0.012106748,-0.12251343,-0.05090909,-0.12605023,-0.088468656,0.04061753,0.09766037,0.0363775,0.058643732,0.26819405,-0.032496873,-0.005562055,0.06961646,-0.020298507,-0.028485725,-0.048229013,0.14159073,-0.07769665,-0.020183204,-0.16151662,0.028459776,-0.13976142,0.091119766,-0.071785815,0.0028564741,0.046836182,0.005061079,-0.03673907,0.11473303,0.0113514885,0.10614872,-0.059913326,-0.06284045,0.021707922,-0.028364982,-0.0800396,-0.18283683,-0.09410495,-0.052723523,-0.07400217,-0.2848152,-0.044594966,-0.08178359,-0.050624885,0.04573961,0.030029455,-0.002804603,-0.023267526,0.0817109,0.03080065,-0.032338765,-0.1568013,0.053786326,0.008111448,-0.19398491,0.15511824,-0.057464205,-0.23963504,-0.17561847,-0.09742607,0.005787009,0.0030240442,0.0016601387,0.007587041,0.031001406,0.16212419,0.29896632,-0.01747688,0.056226425,-0.13417844,0.050730743,-0.089756586,-0.1057998,0.22353944,0.011622672,0.15220991,-0.045270573,0.017570442,0.023421615,0.05670646,0.067074314,0.15818053,-0.06794206,-0.088237874,0.16084038,0.09660541,0.14425817,0.015245241,0.04390877,0.15041375,-0.020611836,0.02399322,-0.060048893,-0.108254775,0.014975518,0.05749022,0.084678665,0.10530785,0.0044951965,-0.12503175,0.0033028568,-0.108934425,-0.04377914,0.12723488,0.013163195,-0.04710467,-0.10190258,0.030023424,0.057374876,0.0700865,0.025745137,0.118904196,-0.005303526,0.17293137,0.110492006,-0.01012001,-0.08213151,0.13860694,-0.11170136,-0.15490441,-0.08405973,-0.032740507,-0.08555546,0.058826175,-0.09728181,0.051244818,-0.12839916,-0.007006503,0.04055639,-0.090484515,0.105414696,-0.014892198,-0.006066291,0.15789889,0.09907199,-0.0050466517,-0.091380306,-0.11262123,0.07523172,0.054877944,-0.029162303,-0.09873477,-0.00036259383,-0.111269206,0.050711438,0.00812091,-0.1440837,-0.18185703,0.022417128,0.054705724,0.062365778,-0.0066065267,0.03280284,0.15706216,0.05388805,-0.023187129,0.14008021,-0.0508975,0.12144311,0.06901228,-0.082581565,0.12863922,0.024776917,-0.083639085,-0.041751947,-0.13575213,0.09626976,0.003658047,-0.095196895,0.016076177,0.0800673,-0.06111023,0.018865211,-0.21328682,0.06118581,-0.091134414,0.009501189,-0.085040234,0.01976577,-0.059617214,-0.024041796,-0.075572595,-0.066609256,-0.0059013385,-0.1288734,0.25527868,0.074635535,-0.1599893,0.1394691,0.024897274,-0.018979944,-0.074366204,0.22877747,-0.017596897,-0.058889814,0.009725817,0.04785501,0.09150803,0.028921278,-0.0043448005,0.06794353,-0.18358895,0.15871857,0.16510054,0.10521938,0.045212347,-0.062486194,-0.10523412,-0.100563824,-0.05245578,0.006673067,-0.0041182167,-0.021380031,0.0005841001,0.032066334,0.07648067,0.06665697,0.086958416,0.09322243,0.13904236,0.024431838,0.017777989,0.02464328,-0.003660728,0.09359908,-0.023934089,-0.0795616,0.010627727,0.007359728,0.20786269,0.07331224,0.07365862,-0.15465777,0.08357667,0.121615246,0.022903135,-0.0149573535,0.15901044,0.30302456,0.0352151,-0.025422677,-0.06643094,0.038465086,0.070284046,0.102802135,-0.015048017,-0.10668534,-0.18695347,-0.037489828,-0.047437415,0.09945701,0.0061307056,-0.014683342,0.097144276,-0.020330774,-0.04697808,0.06769101,0.018411295,0.116860025,0.042924903,-0.09249484,0.009620587,-0.054949794,0.09949539,0.15915711,0.008084814,-0.0033709633,0.03162317,-0.055875048,0.020794364,-0.07805701,0.12063826,0.077348396,0.13070726,-0.1471982,-0.145995,0.10292748,0.12362273,-0.046963125,-0.0050295917,0.11378983,0.0010746535,-0.108579755,-0.04639642,-0.06807153,-0.049118098,0.03604926,-0.07489812,0.19661905,0.062513895,-0.043634232,-0.0042271107,0.04557394,0.114486076,-0.08930017,0.19693848,-0.02518136,-0.22949608,0.0868432,-0.04222879,-0.06312206,0.02386825,-0.02798147,0.16042203,-0.020214144,-0.0052979076,-0.04245711,-0.039337352,0.027562033,0.018003125,-0.1119047,0.013760265,0.21341485,-0.23100226,0.21429604,0.09253341,-0.0628866,-0.033521377,0.09222271,-0.042906635,0.01591118,-0.07404415,0.23216608,0.018297564,-0.060877755,0.023035381,-0.14972828,0.16542526,-0.07330803,-0.15875933,0.061981298,0.06803799,-0.08542823,-0.1136265,0.0033101952,0.14071035,0.011312087,0.058912087,0.2534084,-0.040819455,0.028094376,0.10644833,-0.055817448,-0.0958546,-0.076001815,-0.021996573,-0.18923299,0.080067955,-0.0923141,-0.06661924,0.14115554,-0.13519475,-0.011798609,-0.044767376,0.010490684,0.08053298,0.008477996,-0.04897064,0.0050571486,-0.052862745,0.10042879,-0.0050496287,-0.12941392,0.05326599,-0.058105905,-0.02790872,0.021848766,-0.013492581,0.02921866,-0.032083236,-0.045520246,-0.03481674,-0.00220907,-0.02786228,0.062154926,-0.027646031,-0.018353976,0.06277041,0.09890273,-0.11049289,0.014138658,-0.058381148,0.2636383,-0.034806293,-0.008802016,-0.05522351,-0.042762928,0.022765031,0.060140938,-0.32149458,-0.023832172,0.06019956,-0.057235524,-0.025618223,0.010190275,0.0076421653,-0.11214831,0.0712367,0.049192656,-0.05771085,-0.18266301,0.18144383,-0.04112992,-0.04833524,0.074221015,0.031725425,0.0013373577,0.121682584,-0.07174467,0.11555588,0.020075807,-0.08155286,0.024245791,-0.045610666,-0.030122807,-0.09432343,0.00063430495,-0.08391718,-0.040520906,0.04919573,-0.063843556,0.10643169,-0.035763957,0.028648786,0.09554165,0.14321607,-0.2012274,0.09651647,0.0031205744,-0.0071087326,0.006958497,0.05593366,0.030287687,-0.15749049,-0.11435604,-0.23083599,-0.07979572,-0.07984288,0.0930934,0.11237251,-0.14096592,0.014598697,-0.08197473,-0.11383074,0.17809162,0.10545245,-0.044877116,0.12569624,0.11778575,-0.08827296,-0.041200936,-0.065277,0.13017109,-0.013471734,0.071933486,0.09329538,-0.064516254,-0.13509835,-0.0026805818,0.011104766,-0.10722237,0.09808967,-0.033856876,-0.001884117,-0.091416076,-0.039637428,0.020483665,0.07185456,-0.05053937,0.013103954,0.015367014,-0.121425055,-0.012538173,0.07259482,0.23780425,0.055982534,0.21402001,0.022911718,-0.044903453,0.0013272031,-0.035052795,-0.03456776,-0.04963771,-0.1003579,-0.005997319,-0.011568481,-0.02184491,0.050056726,-0.16162224,-0.12363308,-0.09115758,0.1389283,-0.027248282,-0.06024118,0.031473354,0.0521069,-0.01986778,-0.017271938,0.047601897,-0.061667696,0.18837295,-0.0056964736,-0.16575181,0.005777662,0.04357921,-0.06263304,-0.07071988,-0.035936162,-0.10852012,-0.016186034,0.0730844,-0.022368224,0.04483876,-0.024676668,0.10302991,0.0027715748,0.15102626,-0.021176664,-0.08208137,0.06414245,-0.009019599,0.14543582,-0.14510338,0.15413554,0.085790046,0.060729396,0.13346879,0.032047525,-0.12210231,-0.050005108,-0.07729815,-0.004764753,-0.07406085,-0.08474014,0.056621786,0.16106567,-0.11013024,0.118970215,0.06887722,-0.11163538,-0.048621785,-0.0392107,0.0013041416,0.0204735,0.056845482,-0.011915217,0.03730516,-0.07743344,-0.018151456,0.17905349,0.002394856,-0.19784145,0.0016520754,-0.01900461,0.05682981,-0.009901744,-0.1260562,0.059875403,0.02492398,0.00059645757,-0.14036511,-0.08064212,-0.11222932,-0.016020173,-0.062329702,-0.00027497744,-0.27274367,0.016875682,0.013346878,0.08055466,-0.01583951,0.109567404,-0.024011347,-0.18495537,0.04588226,-0.08146803,-0.16117881,-0.09995753,-0.061455015,-0.008095548,-0.10245422,-0.0013503747,0.15258382,-0.047740955,-0.17083257,-0.19158094,0.08325322,-0.097303,-0.0090967035,0.108199514,0.13140932,0.08522411,0.12930106,0.12402757,0.18626,-0.110873215,0.054188106,0.29998142,-0.26114276,-0.039823685,0.076697685,0.15313451,-0.08373636,0.06605969,0.028837278,0.010002627,-0.0019061388,-0.07640394,0.11730093,0.27003476,-0.10337785,-0.105793744,-0.07363168,0.041666314,-0.13246806,-0.11818833,0.07247458,-0.089121826,-0.020699253,0.15965326,-0.036790803,0.010551008,0.027142094,-0.1939893,-0.04355456,-0.15084334,-0.09062775,-0.071823224,-0.05399531,0.047484733,0.060884986,0.004396431,0.12295209,-0.1357764,0.03624477,0.028717449,0.024472823,-0.21803139,-0.006617731,0.012915258,0.04393603,-0.10716888,-0.07243288,-0.10177804,-0.1443009,0.024198597,-0.007231444,0.0023108528,0.11539787,0.025737848,-0.055998813,0.13495184,0.015626881,0.08632391,-0.013413702,0.050191585,-0.08046415,-0.029859357,0.0724785,0.0193389,-0.12905222,0.042855665,-4.501627,-0.19809245,0.09256995,-0.06414297,0.04476489,0.12695585,-0.049213897,-0.08173993,0.16252232,0.05371085,-0.06593525,0.11604063,0.022050327,-0.07812163,-0.05685718,-0.04626529,0.07933036,0.08680756,0.019271418,-0.02797104,-0.044248953,-0.063604966,0.034960173,0.1291706,0.021249676,-0.09680088,0.011462601,0.09711799,0.11149703,0.05422677,-0.040665086,0.09731777,0.05407718,0.041957416,0.11524817,0.112325184,-0.0021403134,0.027102822,0.037496228,-0.01498147,0.21722469,-0.039348427,-0.013068399,0.07033143,0.010820276,-0.079057194,-0.15386899,0.00079836865,-0.02337846,-0.04089841,0.07515592,-0.094450325,-0.04291943,-0.008779369,-0.085852765,-0.05361756,-0.003636952,0.15114053,-0.026836876,0.03790286,0.00033335516,0.06606479,0.022053689,0.026680175,-0.050118856,0.022268293,-0.0814258,-0.19229688,0.07321175,0.017892681,0.20319663,-0.19779398,-0.075625755,0.099965885,0.05612661,-0.0008648359,-0.07567439,-0.14602312,0.2464152,-0.0019935612,-0.08324946,0.0062764506,-0.17676386,0.014635393,0.091998786,0.09933954,0.06436282,0.03267842,-0.011169816,0.0061655757,0.048980627,0.12931709,0.04849435,-0.019392515,0.020516943,0.0036053683,-0.093291774,-0.18767482,0.069516316,0.077748224,0.047542002,-0.06777038,0.038564183,0.16081779,0.23633258,-0.08746976,0.02465279,-0.07695551,-0.06809724,-0.055076096,-0.096969895,0.032399222,-0.2676688,0.023216762,0.004160589,-0.120306544,0.019427149,-0.16531263,0.12218802,0.13172372,-0.21892294,-2.4218936,-1.4301676
CHEMBL203,-0.0034072036,-0.0864552,-0.09732018,0.10979994,-0.098823614,-0.022674935,0.15882666,-0.047785867,-0.034533843,0.16299103,0.013404555,0.00042479727,0.11617933,0.16472833,0.035913803,0.04011898,0.04710473,0.11145837,-0.059351154,0.057417896,0.115056865,-0.064409345,0.10532685,-0.113063216,0.0064051864,0.092989095,-0.031604715,-0.14250204,-0.04449798,-0.15177654,-0.0054090824,0.0191312,0.06284765,0.06560319,0.0767081,0.07902053,-0.14623329,0.06666513,0.023526845,0.014498865,0.015860396,0.07095708,0.23551974,-0.008010856,0.0017789454,-0.10085658,-0.0683916,0.13818073,-0.03269901,-0.13962878,-0.11986735,-0.04757708,0.11580747,0.060559887,0.07102474,0.05381101,0.02367021,0.0735957,0.046212375,0.07121974,-0.24566145,0.031477425,-0.056364372,0.0006383198,-0.0005964027,-0.008030887,0.13886835,-0.027729258,0.063342944,0.00054557895,0.033328135,-0.032631718,-0.13451296,-0.11824624,-0.030633358,0.036543727,-0.04550099,0.17060345,-0.029029472,0.04529553,0.048535515,-0.035153467,-0.17570049,0.09709896,0.030617967,-0.13401963,0.04872014,0.04217288,0.15104733,0.053186785,0.046661075,0.13010034,-0.12399297,0.067881286,0.012273847,0.014469962,0.07333987,-0.15985103,-0.037487544,-0.11356549,0.054093245,-0.079840526,-0.14775492,-0.07632962,-0.128004,-0.210377,-0.17527585,0.10967628,-0.06175515,-0.15537211,-0.019699194,0.02113865,0.030091433,0.01037336,-0.029010303,-0.12456481,-0.119868964,0.03478064,0.009790712,0.09614676,-0.12642299,-0.01583061,0.13100347,-0.036566593,-0.10018255,-0.013483894,0.15627113,0.07570078,-0.02978119,0.036014035,-0.13243529,-0.109132096,-0.056517497,-0.12834892,0.08708953,0.061705597,0.1446753,0.17273897,-0.06057517,-0.014587765,0.096539184,-0.14351338,-0.09254763,0.051642485,0.05730574,0.26587918,0.04668329,0.12968454,-0.01880713,0.07988183,-0.019232716,-0.09506811,0.047981635,0.0037244107,0.008336287,-0.0530047,0.062570184,0.1347178,0.08995131,-0.10080659,-0.116965696,0.1451322,0.069593295,-0.089722514,-0.040040217,0.05371955,0.11067376,-0.05268174,0.16471268,-0.014287436,-0.007748462,-0.034576386,0.16818558,-0.071503915,-0.02426025,-0.054348703,-0.13105753,-0.040471256,-0.019983437,0.040913187,0.080395974,-0.06891618,0.064147376,0.08826272,0.056549657,-0.044987958,-0.08609772,0.07293391,0.02214918,0.044279207,-0.037737116,0.13486865,0.05799142,-0.14513348,0.14073572,0.048147786,-0.06560286,0.07779334,-0.13048069,-0.051722176,0.06643306,0.16598023,-0.12394838,0.04273242,0.015152832,0.081228346,0.00864344,-0.048937242,-0.14799039,-0.22189432,-0.028804732,0.053656537,0.11239626,0.119972005,-0.09285924,0.09598716,-0.089271456,0.033483416,0.11309139,-0.011247766,0.06096999,-0.053737048,0.14484155,-0.082266524,0.07445871,-0.023562804,-0.1948271,0.005132158,-0.12157258,0.028467642,0.15636452,-0.0111519005,-0.08109032,-0.112463064,-0.97638917,0.06283187,0.25887898,0.06235851,-0.14939967,-0.08244713,-0.15079322,0.05803492,-0.06741346,0.096039616,-0.0026395144,0.046532553,-0.018836426,-0.056839127,-0.025669403,0.10120124,-0.1562205,0.07299486,-0.08007776,-0.053504955,0.058033373,0.017755195,-0.057752006,0.04516603,0.025352145,-0.12656215,0.05980048,0.04393378,0.07664674,0.008248427,-0.099012,-0.06343238,-0.07662724,0.012070346,-0.024294851,0.049543355,0.0066694417,0.010746439,0.012259697,0.1767483,-0.030783352,0.05274015,0.10109162,0.03747798,-0.038789354,0.11948102,0.03857577,-0.069228366,0.12293291,0.028857734,-0.0037329618,-0.24196059,0.08352589,0.15518087,0.11470317,0.108887434,0.044385664,0.034205183,-0.12644497,-0.089758225,0.026986128,0.114475064,-0.009878525,0.16927594,0.0149743715,0.006700657,0.20701201,0.024328493,-0.20755126,0.15572117,-0.023286458,-0.07978421,0.009481906,0.03316419,0.021513512,-0.078006975,-0.11141265,-0.08933308,0.057145733,0.06923173,-0.07609363,0.0014858923,0.007889608,0.03147966,-0.17373972,-0.017957523,-0.023496037,-0.06758589,0.046100568,-0.053283054,-0.104970686,0.03985848,0.009360808,-0.08657175,-0.044211168,0.065911226,-0.009586202,-0.022880709,0.0076349457,-0.0880373,-0.1206109,0.037994932,0.04686767,-0.0004087511,0.007286975,-0.017894309,-0.020437615,-0.049686044,-0.09279932,-0.1096258,-0.032161884,-0.11963979,-0.08667751,0.04228074,-0.042453445,0.01072687,0.020873217,-0.036791574,-0.0041207643,-0.06021371,0.29371774,-0.06446431,0.0331696,-0.07818423,0.008666487,0.104399376,-0.06549482,-0.010279985,-0.061668694,0.13796188,0.03482304,-0.012406334,0.10069397,-0.05233863,0.119931735,-0.07739491,0.106268466,0.19016442,0.036418747,-0.028526483,0.12960435,0.25946957,0.04446323,0.13418807,0.028458426,0.057545144,-0.04987442,-0.08479497,0.013381209,-0.0035787607,0.17941822,-1.3893695e-05,-0.04829279,0.01806181,0.001302467,-0.059330754,-0.064952426,-0.07173438,0.02537208,-0.119160585,-0.19150242,-0.122556575,0.13319238,0.08695114,0.046817817,0.060529813,0.004295231,0.1404615,-0.1934767,0.23893581,-0.032254834,0.10231608,-0.05271631,-0.050294854,-0.02122398,0.030660812,0.056220282,-0.009259309,0.07192481,-0.08715328,0.14481862,0.12574609,0.09934743,0.1819196,0.22374555,-0.0050741746,-0.051752932,0.08135722,-0.024737239,0.105752155,-0.051731292,0.06328675,0.0069425707,0.04573281,0.13643326,0.054201137,-0.031189479,-0.123492986,-0.012233896,0.029756764,-0.073744155,0.1347792,-0.061635677,-0.14600454,-0.027864913,-0.04426191,0.07811646,0.045680147,-0.032051295,-0.29192308,0.070248835,-0.14573382,0.12386406,0.012667664,0.162568,-0.08724369,0.039812595,0.0004537336,-0.07550257,-0.082892865,-0.012517373,0.083328746,0.14627515,0.08631033,-0.16188861,0.20557864,0.09017932,0.073785946,0.08706355,-0.029122118,-0.088058606,-0.118542835,0.053904366,0.16378361,0.03174838,0.05866706,0.07877796,0.045113135,0.12261761,-0.1097683,-0.036483657,-0.048658706,-0.117250614,0.0789109,-0.06662941,-0.061057407,0.011019679,-0.11483217,-0.047203854,-0.03732558,0.043279704,0.005510567,0.062950544,0.019059833,0.040887468,-0.07839474,-0.010847135,0.015980424,0.0321643,0.07302501,0.0073144785,0.10583017,0.06049661,-0.07467605,-0.07488667,-0.09530653,-0.11084853,-0.13325338,-0.14373939,0.044915702,0.06423991,0.068789825,0.08030005,0.27208045,-0.060548715,0.029719146,0.106966116,0.006245645,-0.02365676,-0.04952443,0.113330215,-0.098782174,-0.015783204,-0.17282155,0.070541486,-0.19861804,0.12102115,-0.016544579,0.0023297602,0.045111075,-0.034047414,-0.07813867,0.104082495,0.06781511,0.090397544,-0.0691106,-0.028131772,0.07301345,-0.051956844,-0.11580689,-0.14925718,-0.049252633,-0.01696456,-0.081104286,-0.31380883,-0.04078099,-0.078367405,-0.074230686,0.025822593,0.025188785,-0.0046070428,-0.045117445,0.08107923,0.008825907,-0.049143832,-0.11622217,0.072253175,0.06391777,-0.18387666,0.21467598,-0.056363836,-0.20083731,-0.22130062,-0.09089388,-0.0047243615,0.014059556,0.0218071,0.040659864,0.015231363,0.11015892,0.2765297,-0.06715637,0.09943077,-0.09081554,0.07464038,-0.04919406,-0.061090644,0.2945084,0.0017589021,0.11239384,-0.061954215,0.060983893,-0.0017909412,0.08203688,0.006945379,0.10441823,-0.065869264,-0.08599083,0.113326006,-0.015459277,0.14523055,0.004002185,0.069212146,0.1296094,-0.013163924,0.02891135,-0.02999469,-0.07532804,0.080854625,0.078513056,0.11260637,0.08698848,0.036237575,-0.086164124,0.0075025265,-0.07607279,-0.07638902,0.101247214,0.0090096,-0.015235081,-0.07961727,0.04835053,0.037397906,0.011175347,-0.06184599,0.053928647,-0.032177288,0.08521285,0.09429034,-0.022790277,-0.07254787,0.0671672,-0.10153336,-0.1347475,-0.09269339,-0.07303284,-0.033253152,0.05378794,-0.05254061,0.0315713,-0.09094504,0.024426438,0.011240821,-0.050530583,0.124237664,-0.007468211,-0.023353932,0.16177627,0.07323552,0.03749112,-0.041331135,-0.09348858,0.028473647,0.028836863,-0.005748285,-0.06098356,-0.04182364,-0.09516373,0.0690802,0.031518236,-0.12897366,-0.14176898,0.020576436,0.06659075,0.04481642,0.036772277,0.03920341,0.15240638,0.13068545,-0.0526178,0.120566286,-0.05311193,0.033448186,0.08942916,-0.13829571,0.17011416,0.015479102,-0.08793842,-0.069241665,-0.12393811,0.07704691,-0.038995795,-0.088996604,0.02745043,0.05815624,-0.043446884,0.076801516,-0.19901034,0.08322698,-0.097709544,-0.0040823678,-0.03818056,0.0015948117,-0.046898216,0.039511733,-0.061953086,-0.00978833,-0.008587066,-0.1461084,0.23574883,0.09312995,-0.111253835,0.13576576,0.098050505,-0.033483237,-0.048529644,0.13786267,0.006668634,-0.02683299,-0.0018218978,0.027886426,0.07867472,0.013878185,-0.050203413,0.074354626,-0.18217613,0.17490192,0.15248185,0.088403,0.058683034,-0.08101615,-0.07981534,-0.02742364,-0.05043793,0.051126875,-0.03270596,-0.02466689,-0.030014789,-0.016955677,0.068026625,0.07106089,0.08033619,0.049215328,0.15183918,0.01852635,0.06527074,0.072059855,0.02145569,0.03426423,0.0013339901,-0.1173593,0.0076586157,0.032050576,0.20298341,0.11075549,0.068791606,-0.15623994,0.03219753,0.12730286,0.0114811435,-0.016501717,0.15811543,0.23892045,0.031368386,-0.04471176,-0.10787897,0.006248028,0.0041419524,0.049785797,-0.02693274,-0.10497705,-0.1356379,-0.00028516044,-0.031015702,0.16374254,0.060154106,0.046342622,0.08875535,-0.022922684,-0.01113855,0.035210323,0.012667716,0.123508915,0.057888832,-0.06604626,0.016973218,-0.13270709,0.1233973,0.18905148,-0.016786754,-0.029877592,0.021338405,-0.0994283,0.03867976,-0.049158085,0.13661082,0.070278116,0.0900162,-0.08803074,-0.08917639,0.07841497,0.12178529,-0.0069229435,0.038257692,0.11656184,-0.0062762816,-0.09363991,-0.03450561,-0.03501323,-0.07334015,-0.014528573,-0.021971768,0.14969721,0.015309356,0.0039115064,0.009879443,0.043754116,0.10295086,-0.057387304,0.2172279,-0.02090555,-0.1482362,0.06507975,-0.03853733,-0.07915733,0.023231344,0.013335633,0.22057399,-0.024016555,0.0048179906,-0.058789562,-0.05560706,0.072761185,-0.0054347715,-0.07748086,0.026818598,0.13407953,-0.18784897,0.22454862,0.028302878,-0.034163684,-0.011319341,0.04956427,-0.010030524,0.03919911,-0.08614884,0.21809927,0.035173032,-0.052650757,0.032274712,-0.14195745,0.13280654,-0.034658853,-0.1391479,0.07751135,0.052160975,-0.10636676,-0.11633508,-0.054641534,0.13208427,0.085292675,0.111780494,0.25428087,-0.049975235,0.033500243,0.048202332,-0.08930725,-0.12860514,-0.061423488,-0.03753559,-0.13006517,0.07864176,-0.08629457,-0.04692804,0.10947768,-0.12964614,0.030844677,-0.04086648,-0.009346104,0.09396336,-0.030801486,-0.044964045,0.011922004,-0.049047466,0.09446833,0.0043633925,-0.038427465,0.051724408,0.003964,-0.07902099,0.051473167,-0.022228118,0.009345483,-0.076196924,-0.011656125,-0.063653246,-0.035309892,0.027087178,0.020861825,-0.03004898,-0.048511755,0.061542895,0.07865387,-0.06311648,0.054066125,-0.048007127,0.285649,-0.024958503,0.03936535,-0.11888217,-0.06798364,0.004777246,0.06132489,-0.2501805,0.015876478,0.049624648,-0.07261273,-0.014701627,0.0141573725,0.09031185,-0.11679241,0.081300765,-0.0121864835,-0.08099275,-0.1850421,0.10948848,-0.022755824,-0.034836575,0.113417506,0.02736102,-0.05564213,0.12965193,-0.061233804,0.046824962,-0.003213313,-0.09927843,-0.014820679,-0.012646416,-0.09599318,-0.0846322,0.011145242,-0.091446064,-0.05209245,0.039429076,-0.037687637,0.08336633,0.054171443,-0.01987927,0.031423006,0.13726649,-0.23153043,0.013540766,0.05980148,0.037328977,0.0039161034,0.03716584,0.07309659,-0.12825988,-0.14774537,-0.20087405,-0.072772056,-0.059396595,0.06950631,0.14571398,-0.09229179,0.065569974,-0.028056225,-0.10442046,0.21063113,0.12764312,-0.058752026,0.1051782,0.10319703,-0.08815296,-0.039914,-0.042910375,0.106347755,-0.014792119,0.06181937,0.032717463,-0.09146579,-0.13718739,0.0030912778,0.017796215,-0.076749966,0.13212295,-0.025335748,0.057087876,-0.07974352,-0.0120722875,0.041496053,0.06149118,-0.0597174,-0.0029335408,0.057468798,-0.12590577,-0.0187838,0.16987525,0.21074854,0.03582386,0.17533372,0.03141067,-0.04829765,-0.0019078769,0.0036430517,-0.046009205,-0.10741388,-0.08698693,-6.704094e-06,-0.023853296,-0.039353143,0.07749759,-0.1700656,-0.11426013,-0.085534416,0.13553329,-0.050054964,-0.047157146,0.010836227,0.03825782,-0.032386925,-0.023024933,0.055284295,-0.062004007,0.15752338,0.019918632,-0.1526091,0.031001912,0.036395144,-0.08982299,-0.08424154,-0.021838553,-0.12267925,-0.019229256,0.02766042,-0.025779808,0.09768609,-0.1038793,0.14297523,-0.0015432476,0.1504385,-0.04517736,-0.09000047,-0.024928087,-0.05037713,0.14914264,-0.14697856,0.13576454,0.082338236,0.04693246,0.08964355,-0.04969842,-0.094266586,-0.051268935,-0.031819645,-0.095963456,-0.032125194,-0.08921244,0.058033902,0.13467628,-0.06944695,0.19258843,0.03427918,-0.056534287,-0.037172854,0.012265112,0.009501002,0.051021926,0.099415995,-0.035323482,0.06662506,-0.09041952,0.044668637,0.121752806,0.04544404,-0.16999097,-0.008331385,-0.04633593,0.06879302,-0.02192183,-0.097890034,-0.0023402334,0.010576541,0.08686634,-0.1352727,-0.06223739,-0.15037808,0.048478138,-0.07592495,0.052856803,-0.26047844,-0.025277937,-0.0025513237,0.041506935,0.014208345,0.08647646,-0.055055905,-0.17713697,0.07316557,-0.07577748,-0.12581033,-0.08388989,-0.080980495,0.012007858,-0.02990724,0.042917628,0.14472203,-0.057327036,-0.17891283,-0.17019534,0.06913017,-0.08308857,-0.03300235,0.10008398,0.098951034,0.061327074,0.091722764,0.12081005,0.17077315,-0.11900221,0.0715974,0.20300186,-0.23011152,-0.035562158,0.09532825,0.13216348,-0.06156426,0.020312201,0.021609731,-0.0818984,-0.054234263,-0.040535502,0.09922701,0.23631403,-0.02443371,-0.12889594,-0.024766453,0.10479179,-0.13554946,-0.038989738,0.10761416,-0.07480129,0.030629562,0.15018804,-0.08384078,-0.009930548,0.06716879,-0.207753,-0.047190625,-0.14276452,-0.06958834,-0.08979702,-0.028969826,0.040202774,0.056215156,0.023423703,0.06407778,-0.19200198,0.0023017915,0.060237892,-0.0042332057,-0.1656812,-0.044027798,0.008656028,0.025919313,-0.10012066,-0.052467965,-0.117368534,-0.1685443,0.009114256,-0.008691764,0.014512604,0.15455432,0.02301508,-0.042502433,0.10171225,0.01873979,0.02437912,0.052070342,0.00088516664,-0.061817158,-0.007046917,0.05762397,0.047554635,-0.12431155,0.028114151,-4.2905707,-0.20126198,0.09489554,-0.07322072,0.043369852,0.05909324,-0.032949828,-0.056802493,0.16618744,0.0077194166,-3.630164e-05,0.0868012,0.018243037,-0.09571079,-0.025514511,-0.024892384,0.10716564,0.07848609,0.027936963,-0.05013865,-0.008277577,-0.060408045,0.050703097,0.1870336,0.059391193,-0.084484465,0.02330219,0.04487008,0.13702837,0.11838317,-0.0067731873,0.077208966,0.02518397,0.067747876,0.08685346,0.13136828,-0.030766075,0.056991868,0.08146935,-0.009318848,0.15571366,-0.07270558,0.011040446,0.032879665,0.04023601,-0.028073154,-0.1687795,-0.014884525,-0.003950143,-0.026869318,0.07354465,-0.09734156,-0.05997527,-0.067515485,-0.034605037,-0.08764676,-0.078308284,0.100393325,0.03873398,0.105778374,0.025371987,0.083136104,-0.044438377,0.013952319,-0.01990562,-0.009788465,-0.115550436,-0.13015738,0.070045084,0.005111082,0.22197725,-0.12641189,-0.10355693,0.10193425,0.053363282,-0.017907694,-0.08385732,-0.16401319,0.22424039,-0.00915535,-0.15299954,-0.00029769063,-0.17572182,0.064919844,0.11806792,0.06290236,0.066095605,0.0378151,-0.020721449,0.029196268,0.067624144,0.13347603,0.06127009,-0.004750491,0.06077601,-0.01261987,-0.07707808,-0.16486296,0.08090018,0.086984456,0.061012205,-0.002425852,0.032078702,0.11908469,0.18609032,-0.047616653,-0.0037392573,-0.08020965,0.0004444195,-0.07710493,-0.05927636,0.0027705366,-0.18277757,0.0008934476,0.027217409,-0.09502561,0.0179583,-0.19963595,0.08488041,0.12811509,0.0,0.0,0.0
CHEMBL267,-0.0002139175,-0.047499135,-0.053673696,0.002637931,-0.09633082,-0.03815192,0.080687426,-0.017703537,0.054747224,0.12134044,0.025705218,-0.008132543,0.08501945,0.14539808,0.0108593255,0.13688308,-0.041704766,0.06835537,0.0069370023,-0.023847645,-0.013020464,0.0055521345,0.04618299,-0.04474528,0.083655596,0.09930656,0.08074146,-0.06705164,-0.00025370627,-0.192367,-0.048820402,0.07208191,0.035217337,0.024543945,0.034136012,0.06438274,-0.08896146,0.0780984,-0.02934634,-0.045865767,0.04697788,-0.04191489,0.042411685,-0.059466828,-0.08738538,-0.038060844,-0.023570366,0.09564297,-0.031091388,-0.16829957,-0.103906035,0.011161831,0.0275973,0.039304323,0.009960521,0.031980395,-0.0008822258,0.06908744,0.024646183,0.017154902,-0.16909933,-0.04005768,0.04460387,-0.03989454,0.058558814,-0.004754141,0.08530604,0.018964248,0.08050243,0.0025614935,0.0032997006,-0.049474522,0.020027794,-0.015142843,0.008879709,0.04750994,-0.046413336,0.13928781,0.030088453,0.07126396,-0.020263039,-0.0025465623,-0.09054412,0.052070018,0.065508835,-0.082600184,-0.058124002,0.104783185,0.09929948,0.027252143,0.112430006,0.02404187,-0.09723362,-0.04353775,0.033277236,0.023795651,0.06373027,-0.077746086,0.08120637,0.013731305,-0.061814535,-0.007952121,-0.111022554,-0.02390353,-0.0016375709,-0.08011366,-0.10356159,0.060694624,-0.0414957,-0.14626251,0.06393939,-0.045544162,-0.07416903,-0.0131282825,-0.014441741,-0.06290375,-0.09788844,0.059683044,-0.03361505,0.033532657,-0.12456592,-0.019711085,0.049749684,0.02224262,-0.088049404,0.03872489,0.09641152,0.15459429,-0.047312297,0.020170897,0.006693644,-0.062230468,-0.013636507,-0.0473158,0.0035004038,0.12221704,0.12357207,0.11009387,-0.021992886,-0.025668433,0.023312123,-0.06845458,-0.077783786,-0.027824042,0.033662654,0.1555899,-0.0031353198,-0.020465352,-0.04416343,0.07747594,0.055534273,-0.07173921,0.007306521,-0.029929051,-0.012396731,-0.12054831,0.08573881,0.11260481,-0.01722282,-0.013510532,-0.047446508,0.00058718404,0.052290373,-0.12783837,0.09286658,0.105991095,0.025352433,0.030408397,0.052804884,-0.054828364,-0.036539692,0.0062712147,0.15140122,-0.02203725,0.01663054,-0.07865612,0.002896571,0.005973801,0.04029383,-0.047422405,0.092130385,0.01618423,0.059961844,0.012589696,-0.012889298,0.0090243695,-0.04052961,-0.034546603,-0.04029389,-0.012961316,-0.037173994,0.08051784,-0.04717378,-0.058887046,0.13197431,-0.010179152,-0.06477078,0.09768735,-0.088112846,-0.019371413,0.0112989675,0.024231426,-0.11433331,0.046381176,-0.028961873,0.009996619,-0.05779846,-0.054513104,-0.12402866,-0.10885266,0.045591634,0.071345545,0.11334533,0.039987955,-0.110577285,0.064702705,-0.09886982,0.017677162,0.07630557,0.031991336,-0.009272721,0.022015663,0.1427147,-0.10403163,0.033983927,-0.09252421,-0.12639251,0.0016238631,-0.1106518,0.09975887,0.14911191,-0.030345581,-0.06154419,-0.081098996,-0.84730965,0.08263649,0.13099277,0.019904831,-0.14093024,-0.10180201,-0.09998483,0.040345017,-0.060340375,0.0022981109,-0.06589942,0.06155211,0.038880307,-0.038997438,0.10852707,0.10574873,-0.06233965,0.038175557,-0.02642485,-0.05124961,0.07711591,-0.07767243,0.0054825298,0.06736908,0.013324171,-0.084873594,0.030965453,0.01699733,-0.069812916,0.01981741,-0.15634993,-0.077811584,-0.06030128,-0.049329955,0.030431328,-0.024941834,0.042659055,0.052835207,-0.052336868,0.07184698,-0.035334792,0.029807387,0.037551988,0.006773483,0.00798258,-0.07225651,0.044602666,-0.07607874,0.03390062,0.019283056,0.05650454,-0.13776582,-0.003568765,0.10732927,0.07247726,0.06505227,0.048213575,0.0445798,-0.12542576,-0.13647845,-0.022573661,-0.030667547,-0.009552767,0.14630029,0.01773402,0.022165956,0.222442,0.00410751,-0.16702217,0.13136384,-0.0029479319,0.022547219,-0.07856862,0.058639288,-0.029215397,0.0020630858,-0.041108117,-0.003398358,0.02550254,0.0042981934,0.06328415,0.017530747,-0.007233566,-0.095778376,-0.11267812,-0.016255636,-0.027967364,-0.057540994,0.037475668,0.067613885,-0.059590727,-0.053964976,0.08439076,0.0799327,-0.0056888782,0.0641475,0.027100876,-0.012569606,-0.04892983,-0.009978515,-0.1517053,0.044981003,0.13309631,-0.027930366,-0.02250763,0.008525553,0.049530655,-0.04022953,-0.08989136,0.0013479595,-0.09766955,-0.127916,-0.095579,0.06063642,0.022458265,-0.056807604,-0.012959256,0.022352051,0.023679752,-0.08564401,0.13267641,-0.050497435,0.028342862,-0.08432399,-0.027911097,0.07343926,0.06165437,0.0188908,-0.12621324,-0.013997605,-0.101071455,0.054612335,0.06532011,-0.04555276,0.084272884,-0.06597757,0.19867764,0.15150337,-0.03476607,-0.08928708,0.09035464,0.22820933,0.03215432,0.041163582,0.14072077,0.051903885,0.010925242,-0.123239785,-0.016311403,0.068615995,0.064400725,-0.03352585,-0.019892264,-0.038027793,-0.0064943815,-0.06307536,-0.067902505,0.028666517,0.08414525,0.015588205,-0.10874056,-0.14950006,0.12891263,0.05178795,0.040080145,-0.027957035,0.015642488,0.041705307,-0.08722511,0.1401764,-0.045891214,0.040535547,0.030729592,-0.016684739,-0.056185164,-0.13759264,0.00038625678,-0.0058559617,0.03385842,-0.059334543,0.002654143,0.036736805,0.024976816,0.067729,0.098587334,0.034821603,-0.047107153,0.064743824,0.057267386,0.045665782,-0.0017431134,-0.020681176,0.030429132,0.025631707,0.06942483,0.0023563264,0.046794925,-0.04879195,0.025832927,0.07328454,0.020744963,0.039876502,0.08298723,0.009191052,-0.07568422,-0.012449552,0.016624963,-0.014754792,-0.01357133,-0.2348161,0.048352085,-0.061532944,0.0765994,-0.036473107,0.010894973,-0.075889245,0.034904387,0.0015105491,0.027686264,-0.042196427,0.024537742,0.05775655,0.14177917,0.10689513,-0.06821084,0.15451828,-0.008472544,0.079252936,-0.042292792,-0.05388359,-0.005649049,-0.119070835,0.060256146,0.05718217,0.074705675,-0.008941711,-0.07853682,0.0051344596,0.07561499,-0.074301675,0.019686699,-0.10267745,-0.036972806,-0.02962732,-0.028849691,-0.09627159,-0.022710845,0.005643695,-0.060526706,0.047127746,0.01252102,0.02832695,-0.004358572,-0.058248855,-0.025334403,0.07543554,-0.09679572,0.031549904,-0.018475728,-0.027244268,-0.04689186,0.02749563,0.032599784,-0.055578433,-0.13087167,-0.09253977,-0.10851193,-0.096027374,-0.10198448,0.018865049,-0.016809138,0.05113911,-0.0015909207,0.19140129,-0.08286939,-0.045079365,-0.010763333,0.00011456191,0.014892352,-0.03083048,0.033913992,-0.047154203,0.027398169,-0.14114825,0.07685618,-0.13034223,0.1642678,-0.05750188,-0.021833692,-0.035382252,0.025216904,-0.16139707,0.11087571,-0.009850453,0.06289188,-0.026970742,0.012119026,0.100670256,0.005601738,-0.09356109,0.019823218,0.008093084,0.00044932315,-0.06906739,-0.23451015,0.046084683,-0.087845124,0.015306422,0.01992891,0.12465263,-0.07670084,0.04101104,0.04747329,0.018740403,0.066666126,-0.089525945,0.042182118,0.059371065,-0.07044459,0.12665345,0.087667584,-0.12990892,-0.16774076,-0.056106173,0.0074716248,0.040851988,-0.04797105,0.079915516,-0.0060546678,0.07335987,0.23705207,-0.08850246,0.062491074,-0.04087892,0.022677358,-0.08071664,-0.047556255,0.26306012,0.057588745,0.055803593,-0.08590089,0.054460973,0.029481445,0.104606315,0.05790788,0.06138174,-0.047867667,-0.069540836,0.064928584,0.053594925,0.05415059,0.010304924,0.085601754,0.104570605,-0.0090370225,0.09357767,-0.00048489092,-0.093602285,0.052699562,-0.017194107,0.067826465,0.029567597,-0.021547483,-0.004350148,0.09963971,-0.0866092,-0.09582672,0.015871111,-0.07707822,-0.04274692,-0.12105049,0.053741783,0.021460757,-0.010376495,-0.07035789,-0.013920899,0.03469523,0.054793157,0.025526674,0.025232214,0.05449747,0.083809644,-0.052929725,-0.045641493,0.017490849,-0.016586883,-0.03037335,0.061480474,-0.076568075,0.018368177,-0.003378702,0.09903062,0.040819358,-0.014172622,0.03952461,-0.029490402,0.0061804634,0.10222086,0.09789598,0.02765136,0.045871794,-0.003289261,-0.010578336,0.06694568,-0.06362688,-0.059853796,-0.09090743,-0.033179555,0.051886044,0.07753273,0.014673112,-0.04882536,0.13653931,0.045585513,0.026331965,-0.04461016,0.0088768555,0.21575823,0.10877436,-0.031496946,-0.021218983,0.032400195,0.025116263,0.07176985,-0.0970802,0.12989849,0.025135042,-0.017975822,-0.03449511,-0.09679339,0.028985592,0.05363198,-0.054018937,-0.021523625,0.040318538,0.0007851662,0.09590847,-0.1887424,0.03949805,-0.034353197,0.027868282,-0.052682992,-0.042735837,0.021256387,0.029441785,-0.010998915,-0.017327186,-0.05042161,-0.1258254,0.2622997,0.04475826,-0.06818776,0.044870395,0.05227548,-0.017905453,0.0066145775,0.24060503,-0.009370646,0.025520066,-0.041869912,0.06865691,0.061340053,-0.0326836,-0.08395401,0.11691197,-0.08929188,0.21803658,0.11851573,0.05899121,0.023663597,0.003744246,0.038737666,0.038644657,-0.07859324,-0.05563004,0.01901121,0.08005653,-0.06538539,-0.08640308,0.02886273,0.062516734,0.0060230014,0.025702199,0.060240176,-0.016558982,0.1156407,0.014149063,-0.033536196,0.121013954,0.047791574,-0.042146675,0.0037933667,0.04425696,0.13866572,0.08038469,0.037277818,-0.053192455,-0.0073645925,0.13736144,-0.038400736,0.009696325,0.11232764,0.43077317,0.05325495,-0.05013623,-0.11789956,-0.011702126,0.08063126,-0.020282935,-0.044332024,-0.075804934,-0.10903207,-0.047313433,-0.020447528,0.18246493,0.028928727,-0.021776458,0.062870674,0.010681065,-0.12230334,-0.010371183,-0.014877608,0.024097826,0.030378189,0.0075507476,-0.10523534,-0.17621975,0.07582978,0.08291427,-0.01728225,-0.030883618,-0.066881545,-0.10577083,0.033302166,-0.059279222,0.080340594,0.030132266,-0.027882777,-0.06322201,-0.041346382,0.064963214,0.067667775,-0.0011333859,-0.02014019,0.10284525,-0.13039903,-0.15505946,-0.025935786,0.044663265,-0.13225728,-0.10129968,-0.005724518,0.21516958,-0.06399908,0.029154805,0.022414207,0.132804,0.07805562,-0.019053966,0.20675427,-0.096242666,-0.10535766,-0.012596393,-0.06448771,-0.019944418,0.037092242,0.037243005,0.08406003,-0.027950298,-0.030734343,-0.036935825,0.049421474,0.04859569,-0.11924492,-0.06493482,-0.010837036,0.11967038,-0.094529234,0.095820546,-0.00093065214,0.009676475,-0.11796231,0.0008788182,-0.038356595,0.18118006,-0.038941912,0.07590846,-0.0039512534,-0.081927605,0.02159997,-0.083800994,0.044663288,0.049162455,-0.2214331,0.021415213,0.0210033,-0.1515518,-0.068859905,0.0034922073,0.07864313,0.03744043,0.14534314,0.27074,-0.0019903148,0.03372689,0.06508175,-0.1262928,-0.08889606,-0.04099389,0.009846452,-0.026448043,0.09345351,0.02960879,-0.0230872,0.049167436,-0.09935325,-0.009288964,-0.09150592,0.04931606,-0.014263462,0.03230409,-0.14832066,0.089448474,0.027263215,0.11115827,0.022092469,-0.0026876344,0.035653718,0.06947197,-0.036322363,-0.0041211853,-0.029660204,0.041594747,-0.016757606,-0.051501445,0.00025941987,-0.023192,0.00026774913,0.063403524,0.05352953,0.029846173,0.0075078667,0.10639873,0.03280363,0.010292705,-0.004656645,0.12450776,0.009644802,0.103903055,-0.15280527,-0.03260433,-0.076492324,-0.0481123,-0.07824095,0.015440251,0.09060886,-0.039602,-0.030132364,-0.036310367,0.093008146,-0.16941701,0.03357588,0.09987017,-0.08768779,-0.058470525,0.12670223,-0.02390696,-0.11518013,0.011504406,0.022959206,-0.015110194,0.043270446,0.020658473,0.03522005,0.05907096,-0.08044294,0.002396346,-0.018974915,-0.008473269,-0.05536653,0.038945295,-0.025171958,-0.010296574,-0.008907916,0.010946575,0.10049225,0.11771192,-0.008318498,-0.002926503,0.08795257,-0.1111036,0.06444144,0.094236866,0.0129504455,0.0027610904,-0.022226928,0.055767596,-0.06578654,-0.087340705,-0.16278186,-0.07427651,-0.0528084,0.10870419,0.13184947,-0.05799613,0.077275336,0.036265958,-0.033320945,0.15107392,0.017598726,-0.0071774907,0.02259923,0.14475958,-0.00379856,-0.06594173,0.056234058,0.1525365,0.051704634,0.1267559,0.048154533,0.049022414,-0.13196892,0.011009875,-0.08694904,-0.0880364,0.117668964,-0.0076924367,0.057670284,-0.07624305,0.013137611,0.058751866,-0.014389528,-0.07891524,0.022581225,-0.016702004,-0.07921551,-0.1002082,0.12679301,0.14447168,-0.0016888932,0.111325346,0.038816504,-0.078317344,-0.06601087,-0.033608656,-0.0367757,-0.045749076,-0.09193787,0.007433663,-0.03300043,-0.061761003,0.02029355,-0.14006378,-0.10270352,-0.052728325,0.083360955,-0.055505343,-0.089540154,0.045347046,0.017596222,-0.016316405,0.02433976,0.067791894,-0.07355348,0.04008442,0.017707106,-0.14468218,0.02831528,0.06703474,-0.067801304,0.00085782225,0.07025657,-0.07907234,-0.0008435743,0.0019879397,-0.020206138,0.04652218,-0.07528496,0.19595651,-0.04827296,0.056287214,-0.07080953,-0.11104335,0.041844606,-0.087488934,0.11673498,-0.08342067,0.0838395,-0.00077192293,-0.027213205,0.104896,-0.1340244,-0.1185729,-0.11214418,-0.053791266,-0.07997066,-0.007167748,-0.04435832,0.059254702,0.07814478,-0.0019105437,0.116812974,0.08459074,-0.08851513,0.01959869,-0.026325522,-0.004752328,0.060831666,0.033442248,-0.09032886,0.083381735,0.00082718435,0.051017825,0.094073474,0.13079777,0.0036188439,0.045113087,-0.08872568,0.09327612,0.015123787,-0.03652072,0.071695015,0.032888673,0.05857699,0.012509206,-0.026186438,-0.15607874,-0.04224686,0.007534109,0.008303609,-0.04821913,-0.08965208,0.01476245,0.067787886,0.026468933,0.020536734,-0.0010403488,-0.05219661,0.04506293,0.040751163,-0.03704315,-0.021681372,-0.02637209,0.050685342,-0.13775963,0.020672496,0.031522162,-0.042159546,-0.1701337,-0.078550786,0.07318546,-0.057966087,-0.0874719,0.061511766,0.08196722,0.050630625,0.0455782,0.057104107,0.11975315,-0.14057446,0.07473677,0.18493462,-0.12993957,-0.045221247,0.14118972,0.07959872,-0.05494333,-0.011271146,0.15713896,-0.037000965,0.04213327,-0.050280925,0.07100973,0.15732037,-0.013505834,-0.09098515,-0.013550636,0.055792768,-0.040467244,0.051210213,0.068624094,0.03088396,0.043602914,0.08516477,-0.06121136,-0.08933774,0.07070738,-0.08897423,0.0028753062,-0.09917275,-0.09202174,-0.049854662,-0.08706784,-0.01663479,-0.013950133,-0.0568792,0.030402418,-0.13148296,0.02889496,0.115005635,-0.02257932,-0.13791983,0.11332042,0.06742501,0.024332955,-0.025061427,-0.004751092,0.027077058,-0.10080661,0.016915696,0.031897385,0.059506018,0.102819085,0.011917604,-0.0361087,0.0789683,-0.05323294,0.10459263,0.09401972,-0.065092966,-0.011250947,-0.029029809,-0.038947336,-0.050802678,-0.07434935,0.11678684,-4.9123583,-0.12548272,-0.0008535929,-0.036632497,0.02625937,-0.029234221,0.02525239,0.02457079,0.08057758,0.02592669,0.030296791,-0.052363027,-0.017498268,-0.02991481,-0.048697546,-0.01710097,-0.048207525,0.08993516,0.057039544,0.061641764,-0.047004938,0.0053044837,-0.043682057,0.11982031,-0.0006091613,-0.13615236,-0.003630324,0.02717991,0.031586494,0.13341641,0.056196164,0.050287113,-0.017367776,0.16014808,0.07934138,0.059590485,0.0498752,0.042427562,0.1501298,0.03833282,0.1336506,-0.07804356,0.0010806483,0.01019634,-0.00053931394,-0.091492906,-0.10156097,-0.028310517,0.10925263,-0.040366497,0.043911025,-0.058990747,0.05109033,-0.045128174,0.053794693,-0.07537595,-0.03602838,0.098055564,0.028806385,0.043909047,0.008569854,0.009733182,-0.09975145,0.043157335,-0.036977015,-0.0661459,-0.0633502,-0.15096267,-0.04281019,0.027888427,0.14911292,-0.015107438,-0.015446857,0.19383168,-0.025782075,0.059303008,-0.051284794,-0.04460564,0.11418414,0.013118042,-0.14141022,0.06717733,-0.105571516,0.06531137,0.05721237,0.037381846,0.055696104,0.10369173,-0.05416563,0.014376251,0.085579604,0.056202073,0.009346708,0.034935206,0.1538567,-0.005512583,-0.107877634,-0.034773275,0.11214577,0.04622817,0.019547608,0.033391174,0.13580221,0.11864653,0.008872203,-0.020488286,-0.026714105,-0.09555677,0.08872798,-0.0020324236,0.017974747,-0.058963496,-0.13193476,0.039243978,0.022499114,-0.127097,0.030090937,-0.14939618,0.091772154,0.1381845,-2.4031882,3.5172555,-2.151543
CHEMBL325,0.036169294,-0.05075079,-0.0069132703,0.056938253,-0.018521704,-0.0624017,0.037399523,-0.099785924,-0.009953617,0.042442977,0.005052788,-0.061258394,0.10620154,0.13618901,-0.015079258,0.081547506,0.004828835,-0.024633413,-0.01822665,0.027115569,0.05546293,0.06561392,0.060603824,-0.055866584,0.010825309,-0.0055414713,0.083534904,-0.059311807,-0.042027805,-0.1069826,0.013690556,-0.06474876,0.026203493,0.0051046032,-0.022168849,0.08705636,-0.027561571,0.010172429,-0.037132643,-0.0374826,0.011248679,0.04513087,0.08008484,-0.02882524,-0.033536788,-0.075072974,-0.03496023,0.068309814,-0.042570554,-0.1092677,-0.011111731,0.0049997275,0.07536247,0.034705907,0.05123443,-0.07154574,0.011188403,-0.01326966,-0.0047885724,0.059788957,-0.14372776,0.05753061,0.0036226898,0.02751439,0.057294168,0.025815956,0.08799443,0.006456484,0.08298627,0.016964667,0.025672287,-0.013901608,-0.011664681,-0.1179606,0.03443635,0.013272241,-0.011075101,0.10775413,-0.011459624,-0.011158882,-0.038494024,0.06116614,-0.08627239,0.14795277,0.010283401,-0.041368157,0.04331156,0.08120086,0.17484371,0.08313422,0.020438686,0.0745065,-0.042045455,0.049418855,-0.025465827,0.0023872808,0.012872488,-0.05250553,0.042086393,0.012438741,-0.009696541,-0.08734828,-0.039387643,-0.10369243,-0.11300229,-0.08002551,-0.078564025,0.09570445,0.02181479,-0.08412591,-0.019892287,0.03264859,-0.0014367594,0.030705517,-0.07553194,-0.050384764,-0.13378218,-0.043538943,0.033934563,0.047710553,-0.059115082,-0.023052573,0.03926158,-0.06512073,-0.089307934,-0.0075660413,0.043272574,-0.0058220075,-0.036447953,-0.020053687,0.0013868008,-0.033692133,0.060798604,0.032978367,0.0799321,0.03258026,0.0006339263,0.017716693,-0.008171507,0.0011940825,0.043933216,-0.086102165,0.008267827,-0.0482232,0.008487715,0.08348144,-0.024413817,-0.0208284,0.0020214422,0.042056333,0.103658766,-0.11387502,-0.08886474,0.051603474,0.094424,-0.079484805,0.072507486,0.14776282,0.010885305,-0.010665405,-0.06445832,0.08517249,0.015348071,-0.11447484,0.00084641564,0.036290973,0.072252825,0.05080284,0.058211483,-0.010046688,-0.11939003,-0.066414855,0.052585144,0.0149223935,-0.09792594,0.0064383214,0.0015912877,0.010158218,-0.012870834,0.03678944,-0.045844913,-0.021896735,0.05920685,-0.014465497,-0.08367039,0.032641504,-0.012410498,0.054204855,0.002740655,-0.07001852,0.049350265,-0.0023885653,-0.059330508,0.00086728367,0.21518894,0.09448622,-0.019117296,0.03688258,-0.14501351,-0.04587536,0.052420996,0.03166084,-0.08191073,0.039441194,-0.023364441,0.02662257,-0.07521716,-0.04539479,-0.07293978,-0.11033578,0.10362298,-0.012705881,0.09879906,0.052854996,-0.15058148,0.057299763,-0.078181095,-0.017625121,0.029763289,0.038591743,0.01177074,0.027281381,-0.019340929,-0.0112490775,0.0423557,0.03437359,-0.116174646,-0.005723077,-0.063313045,0.041882373,0.10106915,0.007892093,-0.0543145,0.018095862,-1.3147016,0.096183285,0.19938217,0.09813537,-0.0735661,-0.11929703,0.0015766756,0.060783923,0.027674798,-0.009886057,-0.019426338,-0.015858606,0.06770035,-0.052430905,0.071481526,0.10168542,-0.117779575,-0.037083257,0.002383429,-0.008667974,0.041238036,-0.018535364,0.0726649,0.06854849,-0.03328572,-0.04574495,-0.0058756685,0.049988464,0.0005315379,0.002405963,-0.025287911,-0.058194444,-0.10796053,-0.058582194,0.095079556,-0.043296646,-0.008943208,0.040858004,-0.011259382,-0.018234944,-0.0028228147,0.038626797,0.037013408,-0.008801675,0.040824406,0.00627911,0.027151363,-0.007870153,0.05796369,-0.010358344,-0.034584817,-0.04840126,-0.047647327,0.09640534,0.035589438,0.069088265,0.011874958,-0.005010751,-0.030516163,0.0007914043,-0.026833886,0.08782424,0.012838624,0.20379366,0.027448827,0.09967555,0.073807985,0.04156841,-0.09868049,0.060301743,-0.021906542,0.0012691568,0.06579811,0.08213118,0.046227973,-0.07235469,-0.014888654,-0.013642158,0.00277963,-0.032632634,0.07769221,-0.023103014,-0.0829825,-0.037964255,0.0008344616,0.027331533,-0.002474044,-0.07552391,0.01193788,0.012425898,-0.057368133,0.05368995,0.015590242,0.07533516,-0.09449654,-0.089773916,0.021283232,0.0135566825,-0.009859859,0.0683899,-0.10447315,0.05128517,0.08549591,-0.0066580297,0.037319075,-0.04949084,0.004135965,-0.040932503,-0.035746697,0.026632648,-0.09705542,-0.065732665,0.008387532,0.03282052,-0.07913043,-0.053343937,0.024739934,-0.018717375,-0.030442365,-0.038060453,0.15082341,-0.046963926,-0.009128727,-0.11531725,-0.028831204,0.031278204,-0.033828087,0.0010566973,-0.012128767,0.054431472,-0.034553323,0.08030628,0.10591875,-0.12447756,0.075560905,-0.065968946,0.09333266,0.13623393,-0.005594603,-0.09591644,0.11663765,0.07694211,-0.042491652,0.15011342,0.16128284,-0.05583932,-0.017891148,-0.10247973,-0.0240994,0.025742672,0.13743085,0.010582966,-0.11111561,0.051974658,0.032696944,0.012072549,0.002306493,0.015191279,0.0525968,0.10141088,-0.04073883,-0.07054684,-0.017386068,0.033822678,0.07078028,0.005341229,-0.023061795,0.026752785,-0.04940395,0.09569212,-0.009406916,0.029300535,-0.030712817,0.0082205525,-0.010195445,-0.024845013,0.030593261,-0.024097515,0.09033276,-0.029942038,0.009392939,0.10227116,0.070689745,0.074597925,-0.006395508,0.063820176,-0.059685253,0.054664526,0.007640315,0.034036163,-0.014693265,0.021778462,-0.04676773,0.050224245,0.058685783,0.05338895,-0.03837191,-0.004000546,0.040469702,0.033030305,0.034640506,0.0732358,0.060893286,0.010945973,-0.025324484,-0.01022361,-0.010650411,0.05953044,0.004859832,-0.14800611,0.025321526,0.0055749156,0.10429221,-0.05543378,0.053495068,-0.0360583,0.022484938,0.021641672,0.022868937,0.046789207,0.05572916,0.047266617,0.120874025,0.0069268607,-0.019479709,0.10862466,0.07241274,-0.014479588,0.041387312,0.010164432,0.027049769,0.050095268,-0.04800556,0.06991646,0.0351721,0.0022572398,-0.038312405,0.051650137,-0.058927063,0.030101594,0.009378757,-0.07722405,-0.000102451944,0.0017111935,-0.05568082,-0.064093694,-0.062396888,-0.012138378,0.020730935,-0.057327315,0.028154578,0.045851596,0.00019630457,-0.007456518,-0.041699897,0.0154962875,-0.08382528,-0.02022707,-0.048426352,0.008802764,-0.06377026,0.031203791,0.019115089,-0.06978498,-0.078072466,-0.06421617,-0.070799515,-0.07796474,-0.11769104,-0.033446237,0.03982977,0.05393023,0.028270345,0.11349089,-0.04789021,0.021158192,0.035002872,0.017683355,-0.025123155,-0.031536274,0.034796536,0.0066633727,-0.021783741,-0.08762013,0.057475403,-0.09743293,0.0037649786,-0.07067511,0.015708245,-0.051267345,-0.04357065,-0.09572467,0.022408748,-0.0023017284,0.051506333,-0.025226878,0.0060439315,0.16388704,0.016813476,-0.03398718,-0.010644582,-0.0014231057,-0.012175939,-0.00212417,-0.058847647,-0.01627065,-0.0053043216,-0.011570973,-0.061052337,0.061118357,0.011246515,-0.015580806,0.05295617,-0.097173735,0.11995643,-0.0401466,0.052350767,0.022754187,-0.05840887,0.12961823,-0.010346832,-0.021926373,-0.19538553,-0.021735793,-0.021075925,0.001723985,0.030155234,0.09602287,-0.020439444,0.010752505,0.09636307,-0.10788708,0.047026787,0.06257018,-0.01909096,-0.09428502,-0.03724058,0.2180143,0.014725832,-0.0055626538,-0.042304654,0.08654282,-0.0325771,0.08011705,0.020542819,-0.045798272,-0.060181182,-0.06970504,0.003138078,0.057596594,0.08134913,0.10395416,0.06660431,0.024889901,-0.031807348,0.073042125,0.015496503,-0.02871064,0.03997631,0.051346194,0.09700979,-0.025279386,0.007970654,-0.006554591,0.10462016,-0.071480654,-0.12524542,0.008171115,0.087377176,-0.049904417,-0.026073629,0.11311594,0.03396388,-0.004657856,-0.07157,-0.02935903,0.087265015,0.028435301,-0.04641504,-0.06754764,0.06914526,0.049450245,-0.076569,-0.011283825,-0.0030874866,0.016199505,0.043855228,-0.055432457,0.0050246823,0.020936841,-0.04053317,0.057527877,-0.018718816,-0.0056797345,0.06474299,-0.12339867,0.05067983,0.0102413595,0.033021387,0.028373737,0.084586084,-0.039084755,-0.10018909,-0.013944812,-0.030617457,-0.0942416,0.019298647,-0.037637316,0.038137387,0.10604962,0.09469935,0.034571752,0.10695155,0.010076834,-0.08980628,-0.010714112,-0.0055510174,0.14371823,0.06983699,-0.077978596,-0.03462748,-0.0038818452,0.039595198,0.02191492,-0.07099248,0.08841265,0.027915867,-0.036374524,-0.053606633,-0.012809536,-1.6916837e-07,-0.020098908,-0.0875543,0.064249136,0.045469947,0.030782845,0.028275166,-0.11735162,0.05454038,-0.043429274,0.016107056,-0.027885124,-0.01493002,0.0398169,0.034625925,-0.047617644,0.038738597,0.048432123,-0.0573954,0.15963942,0.058667783,-0.12725173,0.07615022,0.09910992,-0.018061677,-0.062193517,0.0038379417,-0.011475114,0.022347393,0.037758566,0.057588935,0.05356555,-0.031395297,-0.07237858,0.004332044,-0.07930964,0.17015295,0.058802176,0.052097164,-0.02882445,0.043037303,0.054440748,0.06466644,-0.045059495,0.05778558,-0.0037608538,-0.0383357,-0.04021627,0.005703328,-0.008217138,0.032056868,0.019928953,-0.030122312,0.07154924,-0.04272844,0.030261993,0.022236286,0.032874156,0.042995937,0.05699407,0.0005319222,-0.029772693,0.010647653,0.046221506,-0.022298329,0.006092766,-0.020901436,0.0029353036,0.119457975,-0.019798223,0.026261395,0.10027524,0.24291457,0.03470256,-0.04342892,-0.034670953,-0.069562644,-0.01685407,0.023127522,-0.034946088,-0.03247603,-0.099802196,-0.04082255,0.004550482,0.07814914,0.059840523,0.086808,0.012178946,-0.02056592,-0.017090658,0.009887963,0.016919618,-0.0037833268,0.007579449,0.05856088,-0.05671514,-0.1286984,0.071324766,0.07820595,-0.035608523,-0.06815938,0.12594052,-0.0513657,0.016608816,-0.04605565,0.07828135,0.06900042,0.0018009867,-0.074989095,0.016361376,-0.06579567,0.12358591,0.03144512,-0.015892262,0.08653907,-0.10136187,-0.07227064,-0.00535091,-0.012672392,0.041816775,-0.072770946,-0.07587343,0.17561261,-0.10255618,0.032244284,0.011814754,0.10610446,0.022752704,-0.046231084,0.13784021,-0.06101261,0.006927762,0.025931638,0.0073602963,-0.06931661,-0.0157522,-0.034858726,0.116042316,-0.015570709,-0.046589237,-0.025183082,-0.065485395,0.02731003,-0.11917448,0.037362304,-0.06406034,0.055012625,-0.029126082,0.09789812,-0.12350112,0.05517773,-0.06837437,-0.02374216,-0.04149384,0.13605095,-0.08613271,0.10035739,0.110697836,-0.021457992,0.118802354,-0.043734,-0.027333152,0.045488004,-0.07816973,-0.0082799215,-0.037788432,-0.13074505,-0.08509951,-0.04194377,0.050128598,0.10712651,0.015622501,0.20304535,0.021820668,-0.03508693,-0.09327,-0.09677666,0.03866665,0.046956558,0.060292855,0.03058396,0.06696769,-0.0394907,0.040297765,0.0668543,0.038410097,0.07439508,-0.008073192,0.016934678,-0.07271314,-0.067779906,-0.14087674,0.021747539,0.15759677,-0.0043821707,0.029864637,0.01314454,0.055137396,-0.027905894,-0.027076088,0.026908597,0.054783065,0.04422142,-0.08502142,-0.0066541536,0.008355386,-0.034552183,0.15743127,0.053830277,-0.06839445,0.015881283,-0.010290864,0.011861574,0.070379354,0.114148766,0.06675149,0.12851158,-0.039117575,0.034605473,-0.09641645,0.079736225,-0.062997006,0.0188554,-0.06282169,-0.005916064,0.039000463,0.00015829361,0.009090819,0.05823372,0.13776125,-0.035059188,0.026123568,0.03686032,-0.06421112,-0.08446279,0.10298528,-0.03534199,-0.05231421,-0.0027054069,0.03903918,-0.041131932,0.03578773,-0.023236383,-0.018092467,-0.008141337,-0.06026369,0.0072027273,0.11105292,-0.034895536,-0.019574415,-0.01946194,-0.107137375,-0.055332147,-0.0015508784,0.10052631,0.11278631,0.043484155,-0.02689256,-0.06512294,0.0669442,-0.026867904,-0.10188344,0.04979333,-0.00025201734,-0.06373637,-0.065469995,0.14813223,-0.08162773,-0.07636748,-0.07142183,-0.017237844,-0.020386644,0.19774058,0.11891863,0.0011477015,0.019566312,0.010644655,-0.044944517,0.15693313,0.10200769,0.022815187,0.01637789,0.10226808,0.022388993,-0.019104129,-0.009964419,0.12430055,0.038003627,0.017403813,-0.0021461293,0.053415876,-0.114873715,-0.08039787,-0.04461128,-0.024052577,0.059158176,-0.004814122,0.09308357,-0.052209616,0.08247823,0.0011931064,-0.0031417923,-0.042207845,0.06893967,0.02378032,-0.020723479,-0.131658,0.13512024,0.098982796,0.04579525,0.013593378,-0.007307983,0.002464324,-0.0019315655,0.008696285,0.014300014,-0.02126089,-0.008989,-0.026026346,-0.022375958,-0.014820568,0.043700714,-0.085035995,-0.04319274,-0.088856265,0.07751411,-0.0031548173,-0.13546647,0.039463222,0.024521187,0.012885885,0.008684128,-0.0024234012,-0.044373576,0.07646189,-0.01969284,-0.084008,0.026044348,0.06609936,-0.019862838,0.0859582,-0.014024445,0.023998493,0.01129958,-0.03177805,0.023571515,0.042019967,-0.034309797,0.080078855,-0.04609363,0.040544327,-0.0072881076,-0.06864972,-0.0007987426,-0.059068225,0.08562595,-0.015402012,0.071767025,-0.0042172656,0.042015783,0.027114743,-0.08386451,-0.07600178,-0.02661595,-0.042996,-0.010752684,0.03199113,-0.05582491,0.044811178,0.07577912,-0.0010522173,0.15604135,-0.05587846,-0.007680594,-0.011086314,0.0016369938,-0.12608366,0.09108726,0.08994773,0.044953503,0.014879343,-0.015395629,0.006239172,0.048931625,-0.01493657,-0.08685493,-0.00875258,-0.07389603,0.04278335,-0.09889305,-0.057196673,0.031636585,-0.00019879163,0.07269737,-0.059790425,-0.019406082,-0.061678424,-0.040562548,-0.019939618,0.038670044,-0.07718874,-0.06756562,0.009071423,0.0069890455,-0.04983588,0.020031929,-0.023341069,-0.006057436,0.043378808,-0.0038698367,0.054969206,-0.081211165,0.03196979,0.03213583,0.0062811673,0.042282462,0.040485226,0.00029686774,0.028147675,-0.026444811,0.054267295,0.044567566,0.010979863,-0.05934659,-0.005247903,0.04030472,-0.02600357,-0.0152092455,0.03328744,-0.079402566,0.077634424,0.16400217,-0.0496209,-0.030143406,0.13245195,0.0693814,-0.046810098,-0.028348634,0.08782726,-0.10795779,-0.0061638504,-0.09313202,0.042296212,0.12034914,0.01066,-0.022536222,-0.021723779,0.022933714,-0.061341546,0.039334763,0.06611902,0.103597425,0.07789884,-0.018912667,-0.045719735,-0.07636003,0.12446278,-0.04961343,-0.067390166,-0.14346543,-0.05101777,-0.032106016,-0.053715613,-0.0057926946,0.009475905,0.024127334,-0.01567848,-0.102723606,-0.032582372,0.07908574,0.048785597,-0.113085985,-0.0010639867,0.006168207,0.048553105,0.098434195,-0.057957027,-0.0063960245,-0.057517096,-0.039779957,-0.03028859,0.079959184,0.11761342,0.00890495,-0.034139723,0.011084877,-0.00352624,0.068750665,0.008376199,0.005719955,0.024273267,0.04930884,0.009721204,0.0060957554,-0.06407195,0.04587813,-6.7682033,-0.06708707,0.094978705,-0.025370687,0.021930628,-0.03660004,0.03538795,-0.12575087,0.15493625,-0.046244223,0.02821111,0.043211497,0.021316445,-0.04951761,0.0006573705,0.07906404,-0.006745173,0.053597145,-0.016566677,-0.005155881,0.05018968,0.027300747,0.010570764,0.09086737,0.041937727,-0.10374786,0.0038562054,0.035730444,-0.008665591,0.10207509,-0.008939328,0.032507744,-0.025452737,0.08029631,0.100984916,-0.009233732,-0.08115617,0.021132851,0.08317097,-0.06740342,0.13337149,-0.05562294,-0.021506296,0.023423912,-0.003015256,-0.0025043942,-0.057901643,-0.035028085,0.026882432,0.03865522,0.017340297,0.028288525,0.016103918,-0.0023460407,0.098137885,0.058195777,-0.04901812,0.14043905,0.07782219,-0.024462905,-0.023332966,0.019339552,-0.026286598,0.02011728,-0.012955811,-0.07142897,-0.15845017,-0.029976849,0.04659104,-0.017948491,0.1839047,-0.05603309,0.0028599673,0.13073747,0.04677938,0.022708964,-0.068915956,-0.082878426,0.093463056,0.0777913,-0.08599955,0.019201605,0.014870994,0.018483937,0.03239171,-0.051698707,-0.038112365,0.022316827,-0.09686579,0.11333032,0.1012118,0.084353894,0.048432898,-0.02967864,0.089731984,0.031863317,-0.08428264,-0.010700148,0.05757138,0.012267288,0.05069713,0.069391996,0.00350337,0.08526701,-0.031741597,-0.04241193,-0.008765698,0.030570803,0.097838186,-0.018543601,0.028356537,-0.049829625,-0.072405614,0.014538371,0.04323216,0.010226913,0.0551889,-0.14528921,-0.072402194,0.053390287,-4.8061247,5.5650167,-6.49183
CHEMBL308,0.014562398,-0.0008207981,-0.008934879,-0.020664219,-0.09474878,-0.07182352,0.06008762,-0.012110477,-0.08210102,0.075523846,-0.0129319485,-0.019361502,0.031078981,0.013796485,-0.007499993,0.09366478,-0.009325496,0.07724737,-0.009585692,-0.03790096,0.00041664892,0.009776554,0.076515704,0.0042007477,0.02973171,0.14375693,0.009551947,-0.045562197,-0.06503769,-0.1985549,-0.01699075,-0.01436346,0.07902157,-0.03566792,0.053702667,0.049484253,-0.028130865,0.084951654,-0.0030775038,-0.019335924,0.023538185,-0.02333717,0.11756242,-0.016890127,-0.035187833,-0.05524832,-0.10083577,0.08941762,-0.020755049,-0.12336037,0.020307174,0.05151339,0.00029346277,0.09497931,-0.003614302,0.033642028,-0.04396501,0.04765722,0.0014720171,0.053184245,-0.26949623,0.03306968,-0.051583894,0.07007051,0.032128856,0.027109794,0.13669392,-0.021508629,0.08241308,-0.06092037,0.03671334,-0.031428732,0.07002414,-0.02327183,-0.025051441,0.0019663856,0.0010679603,0.10532101,0.0031810938,0.08105713,-0.049036358,0.0315135,-0.05180509,0.06427563,0.027285136,-0.04583432,0.014949477,0.102362245,0.11759999,0.110962324,0.12877832,0.031632714,-0.024025086,-0.052241523,-0.010388644,-0.03900515,-0.025502257,-0.02562204,0.0070524407,-0.001875957,0.02827659,-0.04005268,-0.06763471,-0.044344533,-0.0655851,-0.04477623,-0.07706198,0.0305211,-0.097849876,-0.06968465,-0.028130563,-0.013868133,0.021326907,-0.015751647,0.03607504,-0.060227852,-0.11069206,-0.0273568,0.014452053,0.1292296,-0.12915713,3.552156e-05,0.0172927,-0.030905811,-0.10259698,-0.088602476,0.10870029,0.08758933,-0.10481441,0.013569883,0.011440194,-0.032058947,0.031662572,-0.031035835,0.04781684,0.18449832,0.08214491,0.06090896,-0.0398915,-0.013656346,0.036121845,-0.08569343,-0.055527166,0.0014874502,0.088461064,0.059437253,-0.03516051,0.025283353,-0.04823273,0.07896197,0.11658183,-0.034253526,0.078277096,0.07391637,0.040485118,-0.117556974,0.0748738,0.07422458,-0.023159744,0.054214228,-0.10144143,0.08180923,0.047811266,-0.070729524,0.009362098,0.10034101,0.031193675,0.03881092,0.014454336,-0.06040204,-0.062300578,-0.057214744,0.074067764,0.016912548,-0.10179249,-0.008452607,-0.0050623086,0.009127208,0.024095135,0.014116931,0.013047013,0.0048029833,0.040929478,0.019843796,-0.00536062,-0.03320408,-0.057307277,-0.025332607,0.054294605,-0.04396208,-0.0048161927,0.13001992,-0.071174555,-0.03476986,0.1530684,0.0079743,-0.07330879,0.09608986,-0.11679922,-0.10671357,0.09083267,0.11478866,-0.095351115,0.07612409,-0.031095846,0.027698455,-0.04401245,-0.016247071,-0.11944629,-0.104494855,0.09632769,0.0829552,0.05057968,0.009982466,-0.16149583,0.011948628,0.035486273,-0.05907923,0.045697313,0.04132407,-0.048334904,-0.0133957,0.12061004,-0.14442727,-0.02737009,-0.03574403,-0.17333868,0.02795503,-0.25268328,0.0550321,0.057995792,-0.043559663,-0.1279842,-0.0340179,-0.15002894,0.09583541,0.24418935,0.06535266,-0.14932573,-0.161165,-0.036554463,0.06897995,-0.01707744,0.035209112,-0.04862976,0.026975593,0.09034718,0.0004671832,0.082860984,0.09177386,-0.18297917,-0.006227849,-0.06889265,-0.055028506,0.070946805,-0.032888424,0.058243718,0.0007626296,-0.036681604,-0.14807402,0.016882587,0.06751519,0.033641737,-0.024182644,-0.19706286,-0.104152255,-0.093230665,-0.0980314,0.04675078,-0.046971016,0.040662758,0.103180595,-0.09203345,0.037243392,-0.080282725,0.012598099,-0.010657069,0.0046568336,0.07620335,-0.07441598,0.103952065,-0.080875,0.034796897,0.06014257,0.048840422,-0.19826652,-0.007923146,0.098163195,0.12439693,0.102499716,-0.04462666,0.038656853,-0.08719016,-0.09886868,-0.0068437555,-0.011854515,0.015215379,0.09270369,0.03335318,0.03555767,0.14938468,0.026933571,-0.1658344,0.087987095,0.014138493,0.009297921,-0.029853377,0.096506186,-0.04660761,0.031469133,-0.01742818,-0.021390278,-0.0420709,-0.030370694,-0.0074151075,0.027134866,-0.03403438,-0.09285149,-0.054519653,0.0026069176,0.067553855,-0.018183786,-0.0034151953,0.027860606,-0.06156783,-0.0047523375,0.04855219,0.027756235,-0.012193071,-0.026116798,-0.06600303,0.02118294,-0.019256903,-0.011940398,-0.113162056,0.055501513,0.17702982,-0.084301606,0.0018415551,-0.010408639,0.060391217,-0.059046414,-0.09688295,-0.04704714,-0.09824784,-0.12975278,-0.050698496,0.025134806,0.0046027806,-0.11589415,0.026763516,0.017418494,0.023526998,-0.065615915,0.08380827,-0.03457194,0.0037577378,-0.14112222,-0.09074542,0.026322475,-0.004650533,0.033816162,-0.08299552,-0.0033236344,-0.086513296,0.05669026,0.114753544,-0.038202364,0.063142926,-0.079684876,0.19837993,0.07445923,-0.076857604,-0.11818067,0.051770892,0.087565884,0.01709025,0.09261449,0.25766334,-0.0033082054,0.032110866,-0.09824422,0.024735263,0.033833586,0.063839495,-0.0011334419,-0.040400624,-0.006448419,-0.04480058,-0.010322615,-0.04924365,-0.023045322,0.11977473,0.12531869,-0.04964869,-0.081259504,-0.0039365687,0.009617632,-0.0010575291,-0.041317314,0.017300364,-0.059722748,-0.048590843,0.1845413,-0.00023196061,0.06757287,0.016714057,0.013007064,-0.02040338,-0.11477358,0.075126395,0.016872631,0.107669055,-0.07694401,-0.004521437,0.014215106,0.07239325,0.08024697,0.077415235,0.025174785,-0.12915406,0.054733798,-0.053038713,0.06769238,-0.03184104,-0.022286376,-0.04296149,0.0026063093,0.050774883,-0.049921304,0.00021470677,0.014939947,0.011083561,0.0087976325,0.097871244,0.052462358,0.1462745,-0.0018213433,-0.077511005,0.059408437,-0.054490704,-0.0014309498,0.0004038602,-0.17110813,0.049179174,0.0033725705,0.092384145,-0.05608722,-0.0914621,-0.013454224,0.024741387,-0.02590574,-0.030177006,-0.02711973,0.020513788,-0.015584278,0.021954201,0.039824616,-0.12397034,0.09901342,0.0036110934,0.08637968,-0.034785334,-0.13203447,0.07801353,-0.033083186,0.07853061,0.032366224,0.0153243905,0.0076582553,-0.0707946,-0.010448608,0.06334417,-0.029234603,0.12012881,-0.0488606,-0.050171554,-0.031741947,-0.017139208,-0.084435366,-0.14960557,-0.07388762,0.0015821875,0.04646772,0.0060358425,0.011175394,0.008949544,-0.029225744,-0.03111016,0.0738521,-0.10154349,0.02042465,-0.09287627,-0.088430285,-0.0057621785,-0.026035625,0.026003705,-0.025025513,-0.13551944,-0.06696571,-0.050552253,-0.074095465,-0.073658906,0.028782642,-0.01832716,0.061495095,0.0639934,0.14360799,-0.01206,-0.095832355,-0.008964561,0.04435419,-0.08223141,-0.024463864,0.063928664,0.034698144,-0.01207784,-0.08820593,0.13487999,-0.07380565,0.11189937,-0.09619791,-0.04778995,-0.044358842,-0.0220324,-0.13579626,0.028625572,0.009141755,0.021410687,-0.013192622,0.03038976,0.10337181,-0.013934916,-0.018727763,0.020342857,0.02236839,0.022685133,-0.11391795,-0.18610452,0.06499794,-0.048127018,-0.062206954,0.034258343,0.124262065,-0.07552671,-0.0021550255,0.004193215,0.00029014135,0.0336633,-0.025267148,-0.06263869,0.08435116,-0.076690555,0.14525858,0.06366931,-0.11885618,-0.16605282,-0.035580605,0.006111287,0.08728272,-0.006217208,0.05213556,0.016923377,0.021846011,0.19554031,-0.14081693,0.024057787,0.07165879,0.04877022,-0.031050203,-0.047213256,0.20022456,0.053404287,0.09963673,-0.08537179,0.15149443,0.02649669,-0.009629496,-0.009974291,0.01248972,0.053842906,-0.089163736,0.037745994,-0.01650249,0.06808521,-0.0437061,0.04586284,0.050032683,-0.018185416,0.040740024,0.01139899,-0.048451018,0.09265277,-0.010937286,0.07779301,0.038701024,-0.029650062,0.030076887,0.09561248,-0.012501762,-0.071031876,-0.07037651,0.031526756,-0.022332925,-0.012433465,0.021476507,-0.021460783,-0.020703472,-0.14475977,-0.00943796,0.01626529,0.004457925,0.021430155,0.028214853,0.051422782,0.015483271,-0.033016253,-0.060337625,0.032246664,0.047764763,-0.010775953,-0.019557888,0.0036314882,-0.0056301462,-0.04970681,0.13613321,-0.010627079,-0.017115455,0.027772203,-0.13834716,0.023340253,-0.041152697,0.019988393,0.0644956,0.132493,0.0422204,-0.004193676,-0.026628068,-0.054002844,-0.012800361,-0.06806716,-0.11105476,0.015166036,0.07307994,0.082910396,-0.07272062,0.1328722,-0.07561086,-0.0841228,-0.02305984,-0.01958144,0.18404226,0.011038297,-0.061551694,0.021932665,0.070762515,0.00999985,0.07737874,-0.15896751,0.14332023,0.03598377,-0.11446337,-0.09861441,-0.06343038,0.047087908,0.014302243,-0.027676964,0.06425905,0.040381055,-0.047443356,0.06363452,-0.1366085,0.05730244,-0.014729503,-0.0077389274,0.00085527246,0.00075352204,0.033581585,0.024926817,0.01122186,-0.01786581,0.027516156,-0.10343312,0.27394262,0.07749605,-0.057290323,0.03902889,0.03635866,-0.042921815,-0.0019536577,0.01700523,-0.06530159,-0.088912055,0.0015940097,0.10510369,0.012877374,-0.046092946,-0.09154619,0.0537579,-0.04245757,0.17579095,0.094281696,0.034283835,0.0386268,-0.0047116703,0.021798268,0.045072544,-0.018870933,-0.031130316,-0.0016346893,0.008426433,-0.097410716,-0.020557966,-0.017181167,0.045619767,-0.047409907,-0.009333534,0.08430882,-0.0143575985,0.19420932,0.089679465,-0.03611352,0.0797077,0.007213274,-0.054381516,-0.027210765,0.055536583,0.14149812,0.040217064,0.028138703,-0.030949246,-0.025006464,0.18917982,0.026961716,0.04936613,0.144195,0.3313008,0.011073632,-0.059137844,-0.11620868,-0.035803597,0.0986141,-0.063743085,-0.018598553,-0.0425318,0.03166425,-0.05423892,0.008975468,0.17305742,0.025652554,-0.01564564,0.06828771,0.049247853,-0.115077905,0.045182332,0.002143287,0.046576567,0.009647094,0.053015906,-0.048446435,-0.14519075,0.0064667766,0.08829307,0.04739699,-0.03852746,0.00022931893,-0.06334183,0.01959789,0.009143393,0.026675591,0.0026464586,-0.0058266697,-0.023104453,0.004902824,-0.017434336,0.0925539,0.03552699,-0.10787096,0.03524574,-0.056542303,-0.13033447,-0.016920153,0.068541855,-0.05392363,-0.17142901,-0.04064018,0.23293579,-0.08983307,-0.011063433,0.041725725,0.089290224,0.08307271,0.0258668,0.17981322,-0.044347282,-0.006632059,-0.02257062,-0.10041195,0.010221321,0.018075721,0.046058517,0.056669757,0.006621146,-0.06518821,0.02812214,0.059229482,0.010524701,-0.07940859,0.009227549,-0.056842964,0.095730856,0.019593297,0.03504807,-0.067597486,-0.003363086,-0.07755261,0.013359,-0.05344246,0.18790545,0.0033934428,0.058980543,0.13211663,-0.12048463,0.07676361,-0.07513045,0.0543242,0.07749048,-0.16831438,0.058842015,-0.0027114581,-0.18239634,-0.06549024,-0.06480856,0.051489912,0.011509635,0.012756077,0.20118731,0.084880844,-0.0168408,-0.10669739,-0.113810964,-0.049803223,-0.0053401613,0.052725352,-0.0003666396,0.13382353,-0.08209376,-0.045357887,0.037458517,-0.045173906,-0.014346633,-0.123374686,0.07589992,-0.028208485,-0.029234957,-0.081460886,0.01762738,0.043331236,0.035042983,-0.06159912,0.10821354,0.06263261,-0.05025829,-0.039374456,0.048882015,-0.09658709,0.02459686,-0.065272935,-0.017326334,0.0071551856,-0.028422067,0.12074045,0.04852489,0.006402711,0.030643178,0.010904636,-0.13506626,0.004723044,0.0012113935,-0.020035988,0.096576504,-0.037295535,0.1195364,-0.11980004,-0.02376441,-0.0454355,-0.015800025,0.07210115,-0.043531306,0.06693873,-0.021531655,-0.08001287,-0.06610043,0.12854275,-0.12555522,0.02541933,0.1268893,-0.08117332,-0.05717831,0.20152403,0.025402853,-0.049303144,-0.03433729,0.04469705,-0.006200309,0.02542395,-0.033622667,-0.022087673,0.04313084,0.012971862,-0.0006540489,0.04256912,-0.009597086,-0.07653819,0.031775516,-0.056123424,0.0017933476,0.01402984,0.053448904,0.058770407,0.1739133,-0.06749628,-0.036350064,0.004950252,-0.073743254,-0.022253403,0.06969768,-0.019840106,-0.02237835,0.015666014,0.07174342,-0.059468355,-0.09181074,-0.13737921,0.005730103,-0.0061553773,0.10944533,0.10729329,0.0011727421,0.0176176,0.030013897,0.051748037,0.16581836,0.041717105,-0.053355534,0.023575509,0.11231874,-0.0484378,-0.07844069,0.02768505,0.17111765,-0.005042444,0.028914355,0.105185695,0.091739014,-0.020300258,-0.013831474,-0.12119714,0.0048762825,0.08960715,0.042060934,0.16109192,-0.035786863,0.08572683,0.056711268,-0.01722427,-0.036063347,0.19978593,0.046409402,-0.07568989,-0.16087976,0.2180675,0.16601051,-0.007025193,0.028030235,0.12513682,0.01374262,-0.021999886,0.046473794,0.010482646,-0.041713383,-0.035618983,-0.0533344,0.002141245,-0.08928029,-0.02991929,-0.092394665,-0.042351034,-0.0022098208,0.042642046,-0.0045970087,-0.099035025,0.053514857,0.11004667,-0.056981534,-0.0142898355,0.057275772,-0.008407896,0.08325295,0.009484397,-0.09845722,0.051031824,-0.024177697,-0.05871532,0.10020816,0.044422533,-0.0824108,-0.021976471,-0.017446548,-0.081795074,0.0395855,-0.0411982,0.09351835,0.05545451,0.10427925,0.020017145,-0.07736818,0.013106087,-0.014285778,0.14112096,-0.13885558,0.17179275,0.009585777,-0.05562281,0.000833146,-0.11512489,-0.086979635,-0.098623484,-0.073463134,0.009009608,-0.044591196,-0.069036655,0.052786734,0.036581937,0.056030005,0.1889558,0.038043264,-0.06221467,0.0005116784,0.01433709,-0.004257498,0.052235976,-0.011100165,-0.03588523,0.034041006,0.06364833,0.038701363,0.084246546,0.088417284,-0.049622223,0.008715574,-0.005871911,0.108894,-0.027292708,-0.09652545,-0.00087841693,0.0030552924,0.024384264,-0.02382718,-0.078750215,-0.14515197,-0.051762383,-0.016821466,0.08847253,-0.104912534,-0.04272777,0.027074171,0.053201385,-0.07436683,0.035477567,-0.012683377,-0.06561291,0.02315718,0.036229424,0.0045755925,-0.0245265,0.066427216,0.09336134,-0.116274476,-0.02832053,0.014771169,-0.005815635,-0.11200517,-0.120016605,0.119965486,-0.047526684,-0.06251521,-0.036452528,0.09049,0.050743695,0.041306447,0.07815328,0.0491451,-0.13575898,-0.015153111,0.08106378,0.011107361,-0.04949107,0.20442595,0.043228336,-0.07448996,0.0027418458,0.06831302,-0.07257144,0.008050189,-0.054525595,0.038575232,0.15852033,-0.02237354,-0.04157113,0.017502895,0.07157081,-0.036353495,0.020454517,0.06788262,-0.004995215,0.0888058,0.13737641,-0.021229425,-0.081228375,0.10769448,-0.105102696,-0.07440044,-0.18381846,-0.04369889,0.039627627,-0.0825397,-0.027430592,-0.020348411,-0.0014834147,-0.03189383,-0.043008,-0.02984362,0.20845385,-0.025192013,-0.12930177,0.080433525,0.04098194,0.033726897,-0.04513523,-0.00933049,0.08655864,-0.13881344,0.0019100298,0.029469477,0.07623449,-0.0154842995,0.061174475,-0.029345542,0.043585464,-0.050755326,-0.024225079,0.046182636,-0.08620132,0.0045216116,-0.017002497,-0.05923084,-0.06434453,-0.114910424,0.06368559,-4.945058,-0.023944497,0.09973344,-0.038915467,0.0011616749,-0.016785474,-0.027511416,0.04459703,0.096383475,0.021562697,0.007791231,-0.09600044,0.014589939,-0.023805076,0.0049435063,0.03249462,-0.0013277081,0.0322042,-0.027335845,0.05300581,-0.0727165,-0.0446421,-0.004528612,0.18729044,-0.03744763,-0.08850718,-0.05107255,-0.020558316,0.06389769,0.19669256,0.050717402,0.09673968,-0.0440506,0.22269946,0.026041502,0.10347351,0.04012409,-0.034156647,0.16149364,0.008380584,0.17464623,-0.06502302,0.05073315,-0.041826237,-0.033696786,-0.06815373,-0.030545834,-0.09054856,0.08867109,-0.015984831,0.05271561,-0.0030953165,0.014257842,-0.05611742,0.05730487,-0.026015177,-0.10560644,0.15016848,0.047433734,0.022833213,0.03844967,-0.012165445,-0.07741316,0.12919547,-0.036328144,-0.08509868,-0.0035782293,-0.04391482,-0.033753503,0.0515833,0.14073417,0.0329671,0.0039190156,0.16299522,0.0032052705,0.028867247,-0.07513939,-0.10274983,0.119672075,-0.0010752834,-0.2448628,0.037835155,-0.10604517,0.060243897,0.11296967,0.0058153523,0.012958558,0.10226977,-0.061249815,-0.011409334,0.04837021,0.10449974,0.013940239,-0.00879922,0.18508986,-0.031488515,-0.034999218,0.03393176,0.13121821,-0.025555512,0.03081771,0.11281167,-0.011930761,0.10863536,0.03501643,-0.05074238,-0.039261572,-0.027406493,0.08448184,0.06552536,0.029684462,-0.018465385,-0.07381179,0.055320174,0.020079149,-0.0034802852,0.08144831,-0.16208358,0.09750496,0.025718136,1.1183707,-0.49185166,-1.0434378
