Target_ID,emb_0,emb_1,emb_2,emb_3,emb_4,emb_5,emb_6,emb_7,emb_8,emb_9,emb_10,emb_11,emb_12,emb_13,emb_14,emb_15,emb_16,emb_17,emb_18,emb_19,emb_20,emb_21,emb_22,emb_23,emb_24,emb_25,emb_26,emb_27,emb_28,emb_29,emb_30,emb_31,emb_32,emb_33,emb_34,emb_35,emb_36,emb_37,emb_38,emb_39,emb_40,emb_41,emb_42,emb_43,emb_44,emb_45,emb_46,emb_47,emb_48,emb_49,emb_50,emb_51,emb_52,emb_53,emb_54,emb_55,emb_56,emb_57,emb_58,emb_59,emb_60,emb_61,emb_62,emb_63,emb_64,emb_65,emb_66,emb_67,emb_68,emb_69,emb_70,emb_71,emb_72,emb_73,emb_74,emb_75,emb_76,emb_77,emb_78,emb_79,emb_80,emb_81,emb_82,emb_83,emb_84,emb_85,emb_86,emb_87,emb_88,emb_89,emb_90,emb_91,emb_92,emb_93,emb_94,emb_95,emb_96,emb_97,emb_98,emb_99,emb_100,emb_101,emb_102,emb_103,emb_104,emb_105,emb_106,emb_107,emb_108,emb_109,emb_110,emb_111,emb_112,emb_113,emb_114,emb_115,emb_116,emb_117,emb_118,emb_119,emb_120,emb_121,emb_122,emb_123,emb_124,emb_125,emb_126,emb_127,emb_128,emb_129,emb_130,emb_131,emb_132,emb_133,emb_134,emb_135,emb_136,emb_137,emb_138,emb_139,emb_140,emb_141,emb_142,emb_143,emb_144,emb_145,emb_146,emb_147,emb_148,emb_149,emb_150,emb_151,emb_152,emb_153,emb_154,emb_155,emb_156,emb_157,emb_158,emb_159,emb_160,emb_161,emb_162,emb_163,emb_164,emb_165,emb_166,emb_167,emb_168,emb_169,emb_170,emb_171,emb_172,emb_173,emb_174,emb_175,emb_176,emb_177,emb_178,emb_179,emb_180,emb_181,emb_182,emb_183,emb_184,emb_185,emb_186,emb_187,emb_188,emb_189,emb_190,emb_191,emb_192,emb_193,emb_194,emb_195,emb_196,emb_197,emb_198,emb_199,emb_200,emb_201,emb_202,emb_203,emb_204,emb_205,emb_206,emb_207,emb_208,emb_209,emb_210,emb_211,emb_212,emb_213,emb_214,emb_215,emb_216,emb_217,emb_218,emb_219,emb_220,emb_221,emb_222,emb_223,emb_224,emb_225,emb_226,emb_227,emb_228,emb_229,emb_230,emb_231,emb_232,emb_233,emb_234,emb_235,emb_236,emb_237,emb_238,emb_239,emb_240,emb_241,emb_242,emb_243,emb_244,emb_245,emb_246,emb_247,emb_248,emb_249,emb_250,emb_251,emb_252,emb_253,emb_254,emb_255,emb_256,emb_257,emb_258,emb_259,emb_260,emb_261,emb_262,emb_263,emb_264,emb_265,emb_266,emb_267,emb_268,emb_269,emb_270,emb_271,emb_272,emb_273,emb_274,emb_275,emb_276,emb_277,emb_278,emb_279,emb_280,emb_281,emb_282,emb_283,emb_284,emb_285,emb_286,emb_287,emb_288,emb_289,emb_290,emb_291,emb_292,emb_293,emb_294,emb_295,emb_296,emb_297,emb_298,emb_299,emb_300,emb_301,emb_302,emb_303,emb_304,emb_305,emb_306,emb_307,emb_308,emb_309,emb_310,emb_311,emb_312,emb_313,emb_314,emb_315,emb_316,emb_317,emb_318,emb_319,emb_320,emb_321,emb_322,emb_323,emb_324,emb_325,emb_326,emb_327,emb_328,emb_329,emb_330,emb_331,emb_332,emb_333,emb_334,emb_335,emb_336,emb_337,emb_338,emb_339,emb_340,emb_341,emb_342,emb_343,emb_344,emb_345,emb_346,emb_347,emb_348,emb_349,emb_350,emb_351,emb_352,emb_353,emb_354,emb_355,emb_356,emb_357,emb_358,emb_359,emb_360,emb_361,emb_362,emb_363,emb_364,emb_365,emb_366,emb_367,emb_368,emb_369,emb_370,emb_371,emb_372,emb_373,emb_374,emb_375,emb_376,emb_377,emb_378,emb_379,emb_380,emb_381,emb_382,emb_383,emb_384,emb_385,emb_386,emb_387,emb_388,emb_389,emb_390,emb_391,emb_392,emb_393,emb_394,emb_395,emb_396,emb_397,emb_398,emb_399,emb_400,emb_401,emb_402,emb_403,emb_404,emb_405,emb_406,emb_407,emb_408,emb_409,emb_410,emb_411,emb_412,emb_413,emb_414,emb_415,emb_416,emb_417,emb_418,emb_419,emb_420,emb_421,emb_422,emb_423,emb_424,emb_425,emb_426,emb_427,emb_428,emb_429,emb_430,emb_431,emb_432,emb_433,emb_434,emb_435,emb_436,emb_437,emb_438,emb_439,emb_440,emb_441,emb_442,emb_443,emb_444,emb_445,emb_446,emb_447,emb_448,emb_449,emb_450,emb_451,emb_452,emb_453,emb_454,emb_455,emb_456,emb_457,emb_458,emb_459,emb_460,emb_461,emb_462,emb_463,emb_464,emb_465,emb_466,emb_467,emb_468,emb_469,emb_470,emb_471,emb_472,emb_473,emb_474,emb_475,emb_476,emb_477,emb_478,emb_479,emb_480,emb_481,emb_482,emb_483,emb_484,emb_485,emb_486,emb_487,emb_488,emb_489,emb_490,emb_491,emb_492,emb_493,emb_494,emb_495,emb_496,emb_497,emb_498,emb_499,emb_500,emb_501,emb_502,emb_503,emb_504,emb_505,emb_506,emb_507,emb_508,emb_509,emb_510,emb_511,emb_512,emb_513,emb_514,emb_515,emb_516,emb_517,emb_518,emb_519,emb_520,emb_521,emb_522,emb_523,emb_524,emb_525,emb_526,emb_527,emb_528,emb_529,emb_530,emb_531,emb_532,emb_533,emb_534,emb_535,emb_536,emb_537,emb_538,emb_539,emb_540,emb_541,emb_542,emb_543,emb_544,emb_545,emb_546,emb_547,emb_548,emb_549,emb_550,emb_551,emb_552,emb_553,emb_554,emb_555,emb_556,emb_557,emb_558,emb_559,emb_560,emb_561,emb_562,emb_563,emb_564,emb_565,emb_566,emb_567,emb_568,emb_569,emb_570,emb_571,emb_572,emb_573,emb_574,emb_575,emb_576,emb_577,emb_578,emb_579,emb_580,emb_581,emb_582,emb_583,emb_584,emb_585,emb_586,emb_587,emb_588,emb_589,emb_590,emb_591,emb_592,emb_593,emb_594,emb_595,emb_596,emb_597,emb_598,emb_599,emb_600,emb_601,emb_602,emb_603,emb_604,emb_605,emb_606,emb_607,emb_608,emb_609,emb_610,emb_611,emb_612,emb_613,emb_614,emb_615,emb_616,emb_617,emb_618,emb_619,emb_620,emb_621,emb_622,emb_623,emb_624,emb_625,emb_626,emb_627,emb_628,emb_629,emb_630,emb_631,emb_632,emb_633,emb_634,emb_635,emb_636,emb_637,emb_638,emb_639,emb_640,emb_641,emb_642,emb_643,emb_644,emb_645,emb_646,emb_647,emb_648,emb_649,emb_650,emb_651,emb_652,emb_653,emb_654,emb_655,emb_656,emb_657,emb_658,emb_659,emb_660,emb_661,emb_662,emb_663,emb_664,emb_665,emb_666,emb_667,emb_668,emb_669,emb_670,emb_671,emb_672,emb_673,emb_674,emb_675,emb_676,emb_677,emb_678,emb_679,emb_680,emb_681,emb_682,emb_683,emb_684,emb_685,emb_686,emb_687,emb_688,emb_689,emb_690,emb_691,emb_692,emb_693,emb_694,emb_695,emb_696,emb_697,emb_698,emb_699,emb_700,emb_701,emb_702,emb_703,emb_704,emb_705,emb_706,emb_707,emb_708,emb_709,emb_710,emb_711,emb_712,emb_713,emb_714,emb_715,emb_716,emb_717,emb_718,emb_719,emb_720,emb_721,emb_722,emb_723,emb_724,emb_725,emb_726,emb_727,emb_728,emb_729,emb_730,emb_731,emb_732,emb_733,emb_734,emb_735,emb_736,emb_737,emb_738,emb_739,emb_740,emb_741,emb_742,emb_743,emb_744,emb_745,emb_746,emb_747,emb_748,emb_749,emb_750,emb_751,emb_752,emb_753,emb_754,emb_755,emb_756,emb_757,emb_758,emb_759,emb_760,emb_761,emb_762,emb_763,emb_764,emb_765,emb_766,emb_767,emb_768,emb_769,emb_770,emb_771,emb_772,emb_773,emb_774,emb_775,emb_776,emb_777,emb_778,emb_779,emb_780,emb_781,emb_782,emb_783,emb_784,emb_785,emb_786,emb_787,emb_788,emb_789,emb_790,emb_791,emb_792,emb_793,emb_794,emb_795,emb_796,emb_797,emb_798,emb_799,emb_800,emb_801,emb_802,emb_803,emb_804,emb_805,emb_806,emb_807,emb_808,emb_809,emb_810,emb_811,emb_812,emb_813,emb_814,emb_815,emb_816,emb_817,emb_818,emb_819,emb_820,emb_821,emb_822,emb_823,emb_824,emb_825,emb_826,emb_827,emb_828,emb_829,emb_830,emb_831,emb_832,emb_833,emb_834,emb_835,emb_836,emb_837,emb_838,emb_839,emb_840,emb_841,emb_842,emb_843,emb_844,emb_845,emb_846,emb_847,emb_848,emb_849,emb_850,emb_851,emb_852,emb_853,emb_854,emb_855,emb_856,emb_857,emb_858,emb_859,emb_860,emb_861,emb_862,emb_863,emb_864,emb_865,emb_866,emb_867,emb_868,emb_869,emb_870,emb_871,emb_872,emb_873,emb_874,emb_875,emb_876,emb_877,emb_878,emb_879,emb_880,emb_881,emb_882,emb_883,emb_884,emb_885,emb_886,emb_887,emb_888,emb_889,emb_890,emb_891,emb_892,emb_893,emb_894,emb_895,emb_896,emb_897,emb_898,emb_899,emb_900,emb_901,emb_902,emb_903,emb_904,emb_905,emb_906,emb_907,emb_908,emb_909,emb_910,emb_911,emb_912,emb_913,emb_914,emb_915,emb_916,emb_917,emb_918,emb_919,emb_920,emb_921,emb_922,emb_923,emb_924,emb_925,emb_926,emb_927,emb_928,emb_929,emb_930,emb_931,emb_932,emb_933,emb_934,emb_935,emb_936,emb_937,emb_938,emb_939,emb_940,emb_941,emb_942,emb_943,emb_944,emb_945,emb_946,emb_947,emb_948,emb_949,emb_950,emb_951,emb_952,emb_953,emb_954,emb_955,emb_956,emb_957,emb_958,emb_959,emb_960,emb_961,emb_962,emb_963,emb_964,emb_965,emb_966,emb_967,emb_968,emb_969,emb_970,emb_971,emb_972,emb_973,emb_974,emb_975,emb_976,emb_977,emb_978,emb_979,emb_980,emb_981,emb_982,emb_983,emb_984,emb_985,emb_986,emb_987,emb_988,emb_989,emb_990,emb_991,emb_992,emb_993,emb_994,emb_995,emb_996,emb_997,emb_998,emb_999,emb_1000,emb_1001,emb_1002,emb_1003,emb_1004,emb_1005,emb_1006,emb_1007,emb_1008,emb_1009,emb_1010,emb_1011,emb_1012,emb_1013,emb_1014,emb_1015,emb_1016,emb_1017,emb_1018,emb_1019,emb_1020,emb_1021,emb_1022,emb_1023,emb_1024,emb_1025,emb_1026,emb_1027,emb_1028,emb_1029,emb_1030,emb_1031,emb_1032,emb_1033,emb_1034,emb_1035,emb_1036,emb_1037,emb_1038,emb_1039,emb_1040,emb_1041,emb_1042,emb_1043,emb_1044,emb_1045,emb_1046,emb_1047,emb_1048,emb_1049,emb_1050,emb_1051,emb_1052,emb_1053,emb_1054,emb_1055,emb_1056,emb_1057,emb_1058,emb_1059,emb_1060,emb_1061,emb_1062,emb_1063,emb_1064,emb_1065,emb_1066,emb_1067,emb_1068,emb_1069,emb_1070,emb_1071,emb_1072,emb_1073,emb_1074,emb_1075,emb_1076,emb_1077,emb_1078,emb_1079,emb_1080,emb_1081,emb_1082,emb_1083,emb_1084,emb_1085,emb_1086,emb_1087,emb_1088,emb_1089,emb_1090,emb_1091,emb_1092,emb_1093,emb_1094,emb_1095,emb_1096,emb_1097,emb_1098,emb_1099,emb_1100,emb_1101,emb_1102,emb_1103,emb_1104,emb_1105,emb_1106,emb_1107,emb_1108,emb_1109,emb_1110,emb_1111,emb_1112,emb_1113,emb_1114,emb_1115,emb_1116,emb_1117,emb_1118,emb_1119,emb_1120,emb_1121,emb_1122,emb_1123,emb_1124,emb_1125,emb_1126,emb_1127,emb_1128,emb_1129,emb_1130,emb_1131,emb_1132,emb_1133,emb_1134,emb_1135,emb_1136,emb_1137,emb_1138,emb_1139,emb_1140,emb_1141,emb_1142,emb_1143,emb_1144,emb_1145,emb_1146,emb_1147,emb_1148,emb_1149,emb_1150,emb_1151,emb_1152,emb_1153,emb_1154,emb_1155,emb_1156,emb_1157,emb_1158,emb_1159,emb_1160,emb_1161,emb_1162,emb_1163,emb_1164,emb_1165,emb_1166,emb_1167,emb_1168,emb_1169,emb_1170,emb_1171,emb_1172,emb_1173,emb_1174,emb_1175,emb_1176,emb_1177,emb_1178,emb_1179,emb_1180,emb_1181,emb_1182,emb_1183,emb_1184,emb_1185,emb_1186,emb_1187,emb_1188,emb_1189,emb_1190,emb_1191,emb_1192,emb_1193,emb_1194,emb_1195,emb_1196,emb_1197,emb_1198,emb_1199,emb_1200,emb_1201,emb_1202,emb_1203,emb_1204,emb_1205,emb_1206,emb_1207,emb_1208,emb_1209,emb_1210,emb_1211,emb_1212,emb_1213,emb_1214,emb_1215,emb_1216,emb_1217,emb_1218,emb_1219,emb_1220,emb_1221,emb_1222,emb_1223,emb_1224,emb_1225,emb_1226,emb_1227,emb_1228,emb_1229,emb_1230,emb_1231,emb_1232,emb_1233,emb_1234,emb_1235,emb_1236,emb_1237,emb_1238,emb_1239,emb_1240,emb_1241,emb_1242,emb_1243,emb_1244,emb_1245,emb_1246,emb_1247,emb_1248,emb_1249,emb_1250,emb_1251,emb_1252,emb_1253,emb_1254,emb_1255,emb_1256,emb_1257,emb_1258,emb_1259,emb_1260,emb_1261,emb_1262,emb_1263,emb_1264,emb_1265,emb_1266,emb_1267,emb_1268,emb_1269,emb_1270,emb_1271,emb_1272,emb_1273,emb_1274,emb_1275,emb_1276,emb_1277,emb_1278,emb_1279,emb_1280,emb_1281,emb_1282
CHEMBL1824,0.029359087,-0.090550005,-0.07247647,0.09258027,-0.07354936,-0.013049049,0.1488224,-0.004255439,0.0209828,0.18722674,0.0028478205,0.0395237,0.1106581,0.14122985,0.067885645,0.058783196,0.035618473,0.0763434,-0.082887866,0.1185974,0.1326784,-0.085398205,0.09508415,-0.17602053,0.015780455,0.12730218,-0.11216143,-0.11881688,-0.0578686,-0.119742796,-0.057787586,0.081262745,0.053596534,0.05444437,0.0659875,0.059184108,-0.1421149,0.03723723,0.036054548,-0.00035088073,-0.0056198398,0.05511763,0.2139298,0.007934939,0.0005898814,-0.14537677,0.017777303,0.15873401,0.012846157,-0.13094786,-0.049349938,-0.048810665,0.099416226,0.07234529,0.010245435,0.069344535,0.052485056,0.08565345,0.09604848,0.04651624,-0.21319157,0.06359506,-0.055481832,-0.006336409,-0.0003285898,-0.0066383635,0.12307259,-0.0065512653,0.020811664,0.035482507,0.040649932,-0.089768,-0.14692368,-0.0758681,-0.075308725,0.05251981,-0.054498814,0.2194332,-0.052949116,0.024286527,0.07936518,-0.079604916,-0.16865312,0.02531252,0.031199943,-0.11398792,0.083560824,0.040111303,0.1514242,0.06814891,0.013759298,0.07741153,-0.13836135,0.051652644,-0.00059309084,0.031072758,0.040141266,-0.1572969,-0.04561031,-0.1531724,0.04733761,-0.10426069,-0.13266331,-0.08509529,-0.11252698,-0.17308702,-0.17077509,0.06905561,-0.04466939,-0.06632541,0.014411677,0.06768708,0.0020433858,0.030504921,0.009643703,-0.050039772,-0.0181942,0.09908463,0.031828623,0.07915125,-0.12579377,0.003004411,0.17355521,-0.046245907,-0.1334102,0.026900318,0.1835476,0.09175458,0.0017753814,0.055954367,-0.12008611,-0.09380042,-0.10240935,-0.093044676,0.05240388,0.07957628,0.15511103,0.20110562,-0.06453619,0.011713415,0.00867301,-0.10078603,-0.086505964,0.03951388,0.03581993,0.3021299,0.050844222,0.07792368,-0.06755926,0.022790661,-0.07845707,-0.11248581,0.0646642,0.03499742,-0.008833354,0.0016048604,0.11833886,0.11115616,0.0936222,-0.09414434,-0.064659335,0.13355896,0.106,-0.060898695,-0.038870204,0.047075998,0.14028524,-0.11211205,0.15056764,-0.0516462,0.0099861035,-0.012816142,0.15146491,-0.06575987,0.016880998,-0.10415105,-0.1359361,-0.110841095,0.0087040495,0.03050894,0.10376115,-0.03415108,0.079500504,0.10069528,0.039654493,-0.009246201,-0.031781096,0.0714882,0.05239134,0.018345717,-0.05227888,0.11439451,0.052391928,-0.09546723,0.11586628,0.07107313,-0.069661014,0.13464464,-0.1493772,-0.017739888,0.07408753,0.17728817,-0.13731949,0.083570845,0.023126243,0.085771024,0.028269105,-0.053120647,-0.09747842,-0.20387578,-0.054560725,0.03544596,0.17149833,0.1332215,-0.022285614,0.06928616,-0.13633941,0.07312056,0.1356773,-0.0037660562,0.11153836,-0.028850863,0.098600425,-0.057327155,0.104110315,-0.04692902,-0.15970936,-0.029892256,-0.08024969,-0.08038775,0.17276034,-0.051080324,-0.065004654,-0.15441594,-1.0831637,-0.013289349,0.24380675,0.100331075,-0.15607354,-0.069066495,-0.10403355,0.011013091,-0.110660315,0.12162612,0.0128910765,0.011481333,-0.017736651,-0.064533286,0.002515678,0.10897697,-0.12915291,0.10621381,0.02359365,-0.061502986,0.04527761,0.011859464,-0.10682988,0.028044375,0.056429196,-0.12171524,0.07248935,0.0131801255,0.06532185,-0.025676453,-0.14026576,-0.027666667,-0.051201694,0.03588513,-0.011344883,0.07416347,0.011205973,0.03247902,-0.0005931641,0.19005798,-0.03693566,0.04307267,0.08779921,0.08647375,-0.04611483,0.13073294,0.030341564,-0.0048224265,0.11341747,0.07381708,-0.028590508,-0.22543131,0.1427441,0.17459053,0.12759677,0.09442603,0.07801163,0.046338018,-0.12591887,-0.13101351,0.060588833,0.08218912,-0.056120183,0.12908442,0.03258703,-0.028369626,0.19514239,0.04267327,-0.15195845,0.13220751,-0.049440004,-0.07410218,-0.004013664,-0.0028076228,0.06903218,-0.0033871534,-0.11907416,-0.13092941,0.07004854,0.09961349,-0.12573342,-0.040455032,0.02233855,0.08692222,-0.20056033,-0.0060639703,0.007196235,-0.037861954,0.09372287,-0.058025185,-0.10251626,0.025215006,0.01550075,-0.11802125,-0.022407485,0.050148934,0.029532416,-0.027453613,0.027638193,-0.1370601,-0.1383332,0.09400608,0.06278206,0.04087992,0.011853015,0.004443668,-0.0632138,-0.07743251,-0.058591228,-0.13067056,0.014570849,-0.11392841,-0.06906654,0.07807166,-0.040384784,0.050235823,-0.025881644,-0.051178508,-0.10536323,-0.07404286,0.25084293,-0.06167186,0.01497928,-0.065247156,-0.0540755,0.13027047,-0.03432781,-0.022125257,-0.025840698,0.12699778,0.064489506,-0.00077276875,0.03744708,-0.020397794,0.13437767,-0.08195137,0.1382673,0.1656908,0.072947316,-0.021068882,0.12925676,0.24873064,0.056760166,0.118542664,-0.023533285,0.07821928,-0.047718044,-0.09394881,0.055864565,0.02035322,0.18379815,0.023279151,-0.03515208,0.040765893,0.03916494,-0.04824678,-0.08786088,-0.09651616,0.027632253,-0.13241552,-0.18572532,-0.03469712,0.115665294,0.05251752,0.06770304,0.00188675,-0.022217033,0.15859438,-0.17193627,0.22857817,-0.041197747,0.09461034,-0.075643755,-0.046473067,-0.061925218,0.07000336,0.037696898,-0.016450692,0.06396714,-0.099964246,0.21253832,0.12543376,0.099435575,0.14958337,0.290788,-0.021481253,-0.07231226,0.1332027,-0.02468524,0.044065244,-0.054961137,0.062240783,0.06257109,0.016719313,0.15293708,0.0411793,-0.0021515188,-0.1852656,-0.0444964,0.013519325,-0.12226106,0.12995283,-0.02798216,-0.1764985,-0.047540892,-0.052482616,0.04444742,0.012112696,-0.06089825,-0.2908083,0.1072552,-0.16190583,0.08696131,0.05390525,0.14471383,-0.15122342,0.015565974,0.0041966564,-0.06887606,-0.12008165,0.0106698545,0.01292113,0.14151248,0.087517425,-0.14583638,0.18778601,0.10345713,0.07602129,0.062108602,0.03500764,-0.114230774,-0.128981,0.06738874,0.14759652,0.056037035,0.03794345,0.073124744,0.02545666,0.09161111,-0.13139118,-0.0041469005,0.005465984,-0.08767708,0.06382188,-0.05273628,-0.015176227,0.055345833,-0.121125616,-0.06051027,0.045052323,0.009853987,0.07652683,0.07264836,0.0048103696,0.062323935,-0.05259983,-0.043886125,0.0101400865,0.013653061,0.11683809,-0.0342404,0.09458786,0.109818175,-0.07518089,-0.012106731,-0.1225134,-0.050909095,-0.12605025,-0.088468626,0.04061755,0.09766036,0.036377516,0.058643695,0.26819405,-0.032496873,-0.005562094,0.06961644,-0.020298518,-0.028485728,-0.04822897,0.14159063,-0.07769665,-0.020183213,-0.1615166,0.028459763,-0.13976145,0.09111972,-0.07178586,0.002856491,0.04683617,0.0050610835,-0.036739085,0.11473307,0.011351556,0.10614878,-0.059913315,-0.06284042,0.021707911,-0.028365035,-0.08003957,-0.18283692,-0.09410497,-0.0527235,-0.07400213,-0.28481522,-0.044594977,-0.08178353,-0.050624866,0.045739695,0.030029409,-0.0028045727,-0.023267552,0.081710994,0.030800678,-0.032338783,-0.15680125,0.053786416,0.008111411,-0.19398494,0.15511821,-0.057464223,-0.23963502,-0.17561847,-0.09742609,0.00578699,0.0030240382,0.0016601289,0.007587046,0.031001404,0.16212419,0.2989663,-0.017476818,0.056226417,-0.13417843,0.05073076,-0.0897566,-0.10579979,0.22353949,0.011622661,0.1522099,-0.045270603,0.017570432,0.023421615,0.05670645,0.0670744,0.1581805,-0.06794212,-0.08823786,0.16084035,0.09660532,0.14425817,0.015245207,0.04390882,0.15041375,-0.020611804,0.023993187,-0.060048893,-0.10825476,0.014975542,0.05749022,0.084678635,0.10530783,0.004495201,-0.12503175,0.0033028165,-0.108934395,-0.043779157,0.12723495,0.013163233,-0.04710469,-0.10190261,0.030023446,0.057374906,0.070086494,0.025745165,0.11890424,-0.0053035584,0.17293146,0.11049199,-0.010119978,-0.082131475,0.13860698,-0.111701384,-0.15490441,-0.08405976,-0.0327405,-0.08555545,0.058826208,-0.097281806,0.051244833,-0.12839924,-0.0070065334,0.040556446,-0.09048457,0.105414644,-0.014892183,-0.006066203,0.1578989,0.09907196,-0.0050466135,-0.09138029,-0.11262118,0.0752317,0.0548779,-0.029162299,-0.09873478,-0.00036261205,-0.11126923,0.050711427,0.008120844,-0.14408375,-0.18185706,0.022417044,0.054705676,0.062365785,-0.006606542,0.032802902,0.15706211,0.05388804,-0.023187151,0.14008024,-0.05089746,0.1214431,0.069012284,-0.082581565,0.12863916,0.024776852,-0.083639115,-0.041751917,-0.13575213,0.09626972,0.0036580227,-0.095196895,0.016076175,0.08006741,-0.06111027,0.018865174,-0.21328674,0.061185792,-0.0911345,0.009501073,-0.08504026,0.019765759,-0.059617225,-0.024041811,-0.0755726,-0.06660915,-0.005901323,-0.1288733,0.25527868,0.07463552,-0.15998931,0.1394691,0.024897257,-0.018979939,-0.07436618,0.22877742,-0.017596904,-0.05888988,0.009725857,0.047854956,0.091508,0.028921235,-0.004344755,0.06794352,-0.18358888,0.15871859,0.16510059,0.105219334,0.04521233,-0.062486224,-0.10523415,-0.10056383,-0.052455783,0.006673056,-0.0041182726,-0.02137998,0.0005841267,0.03206634,0.07648069,0.06665696,0.08695846,0.09322242,0.13904233,0.024431817,0.017777972,0.024643322,-0.0036607492,0.093599044,-0.023934145,-0.07956158,0.0106276935,0.007359738,0.20786265,0.073312216,0.07365863,-0.15465777,0.08357666,0.121615276,0.022903103,-0.014957416,0.15901046,0.3030244,0.035215113,-0.025422668,-0.06643091,0.03846511,0.07028402,0.10280217,-0.015047994,-0.10668537,-0.18695341,-0.037489835,-0.04743743,0.099457,0.006130755,-0.014683287,0.09714432,-0.020330764,-0.046978038,0.06769098,0.018411247,0.11686,0.042924944,-0.092494845,0.009620612,-0.054949783,0.09949535,0.15915705,0.0080848355,-0.00337101,0.031623185,-0.055875048,0.020794315,-0.078056976,0.12063825,0.07734834,0.13070728,-0.14719817,-0.14599507,0.10292748,0.12362277,-0.046963118,-0.0050295945,0.11378985,0.0010747074,-0.10857983,-0.046396434,-0.06807153,-0.04911805,0.03604929,-0.074898146,0.19661899,0.06251386,-0.043634262,-0.0042271526,0.04557395,0.114485964,-0.08930017,0.19693846,-0.02518135,-0.22949603,0.08684322,-0.042228773,-0.06312203,0.023868175,-0.027981436,0.16042203,-0.020214142,-0.0052978173,-0.042457156,-0.03933731,0.02756203,0.018003123,-0.111904666,0.013760236,0.21341488,-0.2310024,0.21429604,0.09253345,-0.0628866,-0.033521343,0.09222271,-0.04290666,0.015911205,-0.07404413,0.23216611,0.018297564,-0.060877755,0.023035314,-0.14972825,0.16542523,-0.07330809,-0.15875934,0.06198126,0.06803798,-0.08542823,-0.11362649,0.0033101898,0.14071038,0.0113120675,0.058912117,0.2534084,-0.040819455,0.028094374,0.1064483,-0.05581743,-0.09585464,-0.07600177,-0.021996573,-0.18923298,0.080067925,-0.09231404,-0.06661921,0.14115559,-0.13519475,-0.01179871,-0.044767313,0.010490691,0.080533,0.008477978,-0.04897061,0.0050571556,-0.052862726,0.10042881,-0.0050496547,-0.12941387,0.05326595,-0.058105905,-0.027908614,0.02184875,-0.013492546,0.029218685,-0.032083277,-0.04552026,-0.03481678,-0.0022090676,-0.027862214,0.06215492,-0.02764606,-0.018353974,0.06277037,0.09890287,-0.11049291,0.0141386585,-0.058381155,0.2636382,-0.034806307,-0.008802049,-0.055223502,-0.042762946,0.022765012,0.060140956,-0.32149455,-0.02383215,0.06019952,-0.057235513,-0.025618207,0.010190314,0.0076421318,-0.11214831,0.07123668,0.049192656,-0.05771082,-0.18266298,0.18144381,-0.041129924,-0.048335228,0.074221045,0.031725418,0.0013373827,0.12168263,-0.07174467,0.11555594,0.020075867,-0.08155286,0.024245799,-0.04561071,-0.030122804,-0.09432341,0.0006343317,-0.083917215,-0.040520888,0.049195692,-0.06384351,0.106431685,-0.035763945,0.028648727,0.09554166,0.14321606,-0.2012274,0.096516535,0.0031205895,-0.007108696,0.006958491,0.05593367,0.030287733,-0.1574905,-0.114356056,-0.23083596,-0.07979568,-0.079842806,0.09309337,0.11237252,-0.14096588,0.014598697,-0.08197469,-0.1138307,0.17809159,0.10545251,-0.044877104,0.12569629,0.11778568,-0.088272996,-0.041200962,-0.06527695,0.13017103,-0.013471697,0.07193344,0.09329538,-0.06451623,-0.13509835,-0.0026805953,0.011104845,-0.107222356,0.09808962,-0.03385694,-0.0018841436,-0.091416016,-0.039637372,0.020483715,0.07185461,-0.05053936,0.013103973,0.015366967,-0.12142508,-0.012538195,0.07259479,0.23780423,0.055982523,0.21402009,0.022911653,-0.04490345,0.0013272404,-0.035052743,-0.034567777,-0.049637668,-0.10035792,-0.0059973104,-0.011568465,-0.02184489,0.050056707,-0.16162224,-0.123633064,-0.091157645,0.13892826,-0.027248321,-0.060241178,0.03147331,0.052106842,-0.019867832,-0.017271955,0.04760193,-0.061667636,0.18837295,-0.005696492,-0.16575174,0.005777659,0.0435792,-0.062633,-0.07071983,-0.035936184,-0.10852016,-0.016186062,0.07308443,-0.022368198,0.04483873,-0.024676668,0.10302991,0.0027715783,0.15102622,-0.021176634,-0.08208133,0.06414248,-0.009019549,0.14543582,-0.14510344,0.15413554,0.08579007,0.060729403,0.13346884,0.03204757,-0.12210229,-0.05000515,-0.077298135,-0.004764696,-0.074060835,-0.084740184,0.056621786,0.16106567,-0.11013028,0.11897016,0.068877235,-0.111635394,-0.048621826,-0.03921075,0.0013041409,0.020473529,0.05684547,-0.011915168,0.03730519,-0.07743343,-0.018151406,0.17905347,0.0023948574,-0.19784139,0.0016521089,-0.019004636,0.05682982,-0.009901775,-0.12605613,0.05987545,0.024923982,0.000596491,-0.14036517,-0.08064211,-0.112229295,-0.016020192,-0.0623297,-0.00027494412,-0.2727437,0.016875701,0.013346866,0.080554605,-0.015839502,0.10956747,-0.024011344,-0.18495542,0.045882255,-0.081468016,-0.16117883,-0.09995749,-0.06145507,-0.008095546,-0.10245422,-0.0013503953,0.15258385,-0.04774093,-0.17083257,-0.19158097,0.083253235,-0.097302936,-0.009096689,0.10819956,0.13140932,0.0852241,0.12930101,0.12402756,0.18626,-0.11087319,0.05418808,0.29998142,-0.2611428,-0.039823703,0.076697715,0.15313451,-0.08373635,0.0660597,0.02883724,0.0100026345,-0.0019061571,-0.07640391,0.117300935,0.27003476,-0.10337787,-0.10579379,-0.07363164,0.04166633,-0.13246807,-0.11818832,0.07247462,-0.08912184,-0.02069919,0.15965332,-0.0367908,0.0105509935,0.027142094,-0.19398932,-0.043554567,-0.1508433,-0.09062777,-0.07182325,-0.053995296,0.047484748,0.060884986,0.004396448,0.122952126,-0.13577637,0.036244743,0.02871754,0.024472836,-0.21803136,-0.006617761,0.012915271,0.043936137,-0.10716887,-0.07243292,-0.10177815,-0.14430094,0.024198586,-0.0072314246,0.0023107722,0.11539788,0.025737857,-0.05599887,0.13495189,0.015626889,0.08632386,-0.013413711,0.050191604,-0.08046416,-0.029859362,0.072478525,0.019338949,-0.12905222,0.042855665,-4.501628,-0.19809245,0.092569895,-0.064142995,0.044764888,0.12695582,-0.049213953,-0.08173996,0.16252233,0.053710908,-0.06593524,0.11604067,0.02205037,-0.078121655,-0.05685719,-0.046265334,0.07933036,0.086807564,0.019271417,-0.027971065,-0.04424889,-0.06360498,0.03496014,0.12917057,0.021249633,-0.09680091,0.0114626195,0.097117975,0.11149707,0.054226782,-0.040665127,0.097317785,0.05407713,0.041957438,0.115248136,0.11232526,-0.0021403704,0.0271028,0.037496146,-0.01498149,0.21722473,-0.03934845,-0.013068417,0.07033141,0.01082031,-0.079057224,-0.15386899,0.000798343,-0.02337845,-0.040898386,0.07515592,-0.09445029,-0.042919435,-0.008779369,-0.085852765,-0.0536175,-0.003636905,0.15114051,-0.026836853,0.037902918,0.00033332626,0.06606475,0.022053681,0.026680142,-0.05011875,0.022268308,-0.08142584,-0.19229695,0.07321172,0.01789259,0.20319666,-0.19779392,-0.07562584,0.099965826,0.056126624,-0.0008647995,-0.075674415,-0.14602308,0.24641521,-0.001993508,-0.08324946,0.0062764804,-0.17676385,0.014635408,0.09199879,0.09933962,0.06436285,0.032678433,-0.011169806,0.006165562,0.048980676,0.12931708,0.048494373,-0.019392544,0.020516919,0.0036053767,-0.09329181,-0.18767488,0.069516346,0.077748224,0.047541928,-0.06777049,0.03856411,0.1608178,0.23633267,-0.08746977,0.024652835,-0.07695555,-0.06809723,-0.055076137,-0.096969865,0.032399207,-0.26766887,0.023216886,0.004160579,-0.12030659,0.019427147,-0.16531263,0.12218801,0.13172375,-0.21892294,-2.4218936,-1.4301676
CHEMBL203,-0.0034071982,-0.0864552,-0.09732013,0.10979995,-0.09882369,-0.022674842,0.15882674,-0.04778592,-0.034533873,0.16299103,0.01340461,0.0004247949,0.116179325,0.1647284,0.03591371,0.040119022,0.047104754,0.11145844,-0.059351165,0.057417948,0.115056954,-0.064409345,0.10532681,-0.11306322,0.0064052637,0.09298906,-0.031604733,-0.14250204,-0.044498023,-0.15177651,-0.005409096,0.019131143,0.06284761,0.06560318,0.07670813,0.07902053,-0.14623328,0.06666517,0.023526808,0.014498865,0.015860433,0.07095706,0.23551969,-0.008010795,0.0017790014,-0.100856595,-0.06839169,0.13818075,-0.032698967,-0.13962881,-0.1198674,-0.04757708,0.11580742,0.06055991,0.071024746,0.05381099,0.023670202,0.07359567,0.046212327,0.07121978,-0.24566141,0.031477425,-0.056364402,0.0006383691,-0.00059642317,-0.008030848,0.13886838,-0.027729254,0.06334293,0.00054560415,0.033328127,-0.03263173,-0.13451293,-0.118246295,-0.030633349,0.036543753,-0.045500964,0.17060336,-0.029029468,0.0452955,0.048535537,-0.035153475,-0.17570056,0.097098954,0.030617965,-0.13401963,0.04872016,0.042172782,0.15104735,0.053186767,0.04666106,0.13010041,-0.123992935,0.0678813,0.012273843,0.014469925,0.073339924,-0.15985103,-0.03748751,-0.11356548,0.0540933,-0.07984061,-0.14775492,-0.076329604,-0.12800401,-0.21037698,-0.17527582,0.1096763,-0.061755106,-0.15537211,-0.019699253,0.021138672,0.03009147,0.0103732785,-0.029010337,-0.12456478,-0.11986895,0.034780655,0.009790714,0.0961468,-0.12642302,-0.015830556,0.13100348,-0.036566604,-0.10018248,-0.013483915,0.15627114,0.07570075,-0.02978119,0.036014087,-0.1324353,-0.109132156,-0.0565175,-0.12834889,0.08708955,0.061705578,0.14467534,0.17273897,-0.060575206,-0.014587844,0.09653923,-0.14351334,-0.09254762,0.05164252,0.05730574,0.2658792,0.046683248,0.12968457,-0.01880716,0.079881825,-0.019232655,-0.09506818,0.04798163,0.0037243709,0.0083363075,-0.05300458,0.06257008,0.13471776,0.08995136,-0.100806564,-0.1169657,0.14513224,0.06959334,-0.08972253,-0.040040262,0.053719588,0.110673815,-0.0526817,0.1647127,-0.014287421,-0.0077484534,-0.034576397,0.16818559,-0.07150398,-0.024260225,-0.054348692,-0.13105762,-0.040471263,-0.01998343,0.040913183,0.08039597,-0.06891622,0.06414735,0.08826276,0.056549683,-0.044987988,-0.086097784,0.07293403,0.022149175,0.0442792,-0.037737105,0.13486862,0.057991408,-0.14513351,0.14073572,0.04814782,-0.06560292,0.07779334,-0.13048075,-0.05172216,0.06643303,0.16598025,-0.12394835,0.042732384,0.015152862,0.081228375,0.008643442,-0.048937242,-0.14799042,-0.22189426,-0.028804766,0.053656593,0.11239619,0.11997196,-0.09285923,0.09598727,-0.08927144,0.033483434,0.11309148,-0.011247789,0.060970042,-0.053737074,0.14484164,-0.082266554,0.074458726,-0.023562845,-0.19482714,0.0051321047,-0.12157251,0.028467616,0.15636453,-0.011151869,-0.08109043,-0.11246303,-0.97638917,0.06283179,0.25887904,0.062358517,-0.14939968,-0.08244712,-0.15079328,0.058034856,-0.06741349,0.09603966,-0.0026394883,0.046532467,-0.018836392,-0.056839164,-0.02566949,0.10120123,-0.15622047,0.072994865,-0.08007782,-0.05350487,0.058033336,0.017755201,-0.057752084,0.045166027,0.025352217,-0.12656206,0.059800517,0.043933753,0.07664676,0.0082485,-0.099012025,-0.06343233,-0.07662734,0.012070414,-0.024294866,0.04954339,0.006669459,0.010746406,0.012259693,0.17674834,-0.030783383,0.05274018,0.10109162,0.037478026,-0.038789343,0.11948106,0.03857577,-0.06922842,0.122932926,0.028857674,-0.0037329674,-0.2419607,0.08352587,0.15518092,0.11470317,0.108887486,0.044385694,0.034205157,-0.1264449,-0.089758195,0.026986083,0.114475094,-0.009878485,0.16927591,0.014974371,0.006700674,0.20701195,0.024328565,-0.20755127,0.15572117,-0.023286438,-0.07978421,0.009481924,0.03316418,0.021513546,-0.07800702,-0.11141259,-0.08933306,0.057145778,0.06923176,-0.07609363,0.0014858498,0.007889593,0.03147963,-0.17373973,-0.01795746,-0.023496054,-0.067585915,0.04610062,-0.053283107,-0.10497066,0.03985845,0.0093607,-0.08657179,-0.04421124,0.06591121,-0.00958612,-0.022880714,0.0076349746,-0.08803728,-0.12061084,0.037994903,0.046867605,-0.0004087732,0.007286863,-0.01789431,-0.020437606,-0.049685996,-0.09279934,-0.10962577,-0.032161903,-0.11963978,-0.08667746,0.042280737,-0.042453453,0.0107269045,0.02087328,-0.036791563,-0.004120721,-0.060213692,0.29371783,-0.06446437,0.03316961,-0.07818423,0.008666501,0.10439932,-0.06549484,-0.010279914,-0.061668754,0.13796191,0.034823082,-0.012406291,0.10069404,-0.052338608,0.11993171,-0.07739495,0.10626849,0.19016446,0.03641878,-0.028526505,0.12960438,0.2594696,0.044463273,0.13418804,0.02845843,0.05754517,-0.049874384,-0.084794946,0.013381202,-0.0035787,0.17941822,-1.3934286e-05,-0.048292745,0.018061811,0.0013025458,-0.05933075,-0.06495243,-0.07173436,0.025372094,-0.11916062,-0.19150242,-0.12255652,0.13319238,0.086951114,0.04681779,0.060529877,0.0042952737,0.14046146,-0.19347681,0.23893584,-0.032254834,0.10231613,-0.052716408,-0.050294906,-0.021224013,0.030660821,0.056220252,-0.009259288,0.07192477,-0.087153286,0.14481866,0.12574613,0.099347435,0.18191971,0.22374555,-0.0050741527,-0.051752895,0.081357226,-0.024737298,0.1057522,-0.051731274,0.06328675,0.006942494,0.045732755,0.13643323,0.054201115,-0.031189457,-0.12349305,-0.012233903,0.029756788,-0.07374415,0.13477921,-0.06163571,-0.14600466,-0.027864907,-0.04426195,0.07811651,0.045680143,-0.03205124,-0.2919231,0.070248835,-0.1457338,0.12386409,0.012667708,0.16256802,-0.087243706,0.03981268,0.00045377892,-0.07550256,-0.08289285,-0.01251742,0.083328724,0.14627519,0.086310335,-0.16188866,0.20557867,0.09017928,0.073785946,0.08706358,-0.029122042,-0.088058576,-0.1185428,0.053904384,0.16378361,0.031748332,0.058667105,0.078778036,0.045113195,0.12261764,-0.10976836,-0.03648373,-0.04865873,-0.11725063,0.07891088,-0.066629454,-0.0610574,0.01101973,-0.11483222,-0.04720381,-0.037325617,0.04327972,0.0055106147,0.062950484,0.019059815,0.04088752,-0.07839476,-0.010847079,0.015980335,0.03216437,0.073025,0.0073144827,0.10583023,0.060496658,-0.07467606,-0.07488663,-0.09530657,-0.11084851,-0.13325338,-0.14373946,0.04491571,0.06423991,0.068789765,0.08030008,0.2720805,-0.06054869,0.02971926,0.10696617,0.006245637,-0.023656746,-0.04952444,0.11333019,-0.098782234,-0.01578322,-0.1728215,0.07054151,-0.19861801,0.12102114,-0.016544612,0.0023298091,0.0451111,-0.034047388,-0.07813865,0.10408248,0.06781517,0.090397514,-0.06911061,-0.02813179,0.0730134,-0.051956836,-0.11580697,-0.14925726,-0.04925261,-0.016964592,-0.08110418,-0.3138089,-0.04078099,-0.07836736,-0.07423072,0.02582263,0.025188731,-0.0046069855,-0.045117464,0.08107924,0.00882589,-0.049143918,-0.116222136,0.07225319,0.063917704,-0.1838767,0.21467593,-0.056363855,-0.20083737,-0.22130063,-0.090893835,-0.0047243834,0.014059572,0.021807088,0.040659897,0.015231417,0.11015899,0.27652973,-0.06715636,0.09943084,-0.09081554,0.0746404,-0.049194142,-0.06109061,0.2945084,0.0017588899,0.11239391,-0.06195426,0.060983874,-0.0017909608,0.08203689,0.0069453414,0.10441816,-0.06586933,-0.085990794,0.113325916,-0.015459332,0.14523058,0.0040021734,0.069212124,0.12960944,-0.013163959,0.02891139,-0.029994672,-0.07532809,0.0808547,0.07851309,0.112606406,0.08698845,0.036237586,-0.08616413,0.0075024976,-0.0760728,-0.07638909,0.10124726,0.00900957,-0.015235109,-0.0796173,0.048350576,0.037397906,0.011175277,-0.06184596,0.053928565,-0.032177366,0.08521296,0.09429037,-0.022790227,-0.072547905,0.06716724,-0.10153338,-0.13474753,-0.09269345,-0.07303285,-0.033253152,0.053787988,-0.05254063,0.031571247,-0.09094509,0.024426408,0.011240872,-0.05053062,0.124237694,-0.0074681086,-0.023353927,0.16177635,0.0732355,0.037491113,-0.041331153,-0.093488656,0.028473588,0.028836822,-0.0057482193,-0.060983565,-0.041823674,-0.095163755,0.06908022,0.031518206,-0.12897372,-0.14176908,0.020576386,0.06659075,0.044816475,0.03677232,0.03920337,0.15240644,0.13068552,-0.05261784,0.120566316,-0.05311192,0.033448193,0.08942923,-0.1382957,0.17011423,0.0154790655,-0.08793843,-0.06924169,-0.123938166,0.077046916,-0.03899583,-0.08899661,0.027450453,0.05815628,-0.04344691,0.076801494,-0.19901027,0.08322695,-0.097709596,-0.004082423,-0.0381806,0.0015947899,-0.04689829,0.03951174,-0.061953094,-0.009788244,-0.008587081,-0.14610839,0.23574883,0.09313,-0.111253835,0.13576578,0.09805055,-0.033483207,-0.048529632,0.13786265,0.0066686585,-0.026832985,-0.0018218932,0.027886402,0.078674756,0.013878215,-0.050203398,0.07435466,-0.18217619,0.17490186,0.15248182,0.08840297,0.058683045,-0.08101615,-0.07981537,-0.027423648,-0.050437957,0.05112696,-0.032705992,-0.024666892,-0.030014735,-0.016955674,0.06802665,0.07106087,0.08033625,0.049215328,0.15183918,0.018526342,0.06527072,0.072059855,0.021455687,0.034264248,0.0013339965,-0.1173593,0.0076586,0.032050584,0.2029834,0.110755555,0.068791606,-0.15623994,0.03219748,0.12730297,0.011481138,-0.016501747,0.15811546,0.23892038,0.031368367,-0.044711757,-0.10787897,0.0062480206,0.0041419966,0.04978583,-0.026932705,-0.10497703,-0.13563776,-0.00028516713,-0.03101576,0.16374263,0.06015407,0.04634263,0.08875538,-0.022922695,-0.011138631,0.035210256,0.012667723,0.12350888,0.05788885,-0.06604631,0.016973246,-0.13270712,0.12339735,0.18905145,-0.016786786,-0.029877597,0.021338437,-0.09942832,0.03867975,-0.049158026,0.13661078,0.07027818,0.09001623,-0.08803075,-0.08917646,0.078414954,0.121785335,-0.0069229463,0.038257737,0.11656184,-0.006276255,-0.093639985,-0.034505602,-0.035013273,-0.07334012,-0.01452855,-0.02197179,0.1496972,0.015309368,0.003911509,0.009879444,0.04375413,0.10295084,-0.05738733,0.21722776,-0.020905571,-0.14823619,0.06507978,-0.038537394,-0.07915733,0.023231316,0.013335674,0.22057404,-0.02401652,0.004818082,-0.058789648,-0.055607077,0.07276127,-0.005434739,-0.077480875,0.026818536,0.13407958,-0.18784903,0.2245487,0.028302936,-0.034163702,-0.011319313,0.049564324,-0.010030539,0.03919907,-0.08614884,0.21809934,0.035173036,-0.05265073,0.032274697,-0.1419574,0.13280648,-0.03465891,-0.13914798,0.07751143,0.052161016,-0.10636678,-0.1163351,-0.05464153,0.13208431,0.085292675,0.111780554,0.2542809,-0.049975332,0.033500236,0.048202347,-0.08930724,-0.12860522,-0.06142348,-0.03753555,-0.13006525,0.078641735,-0.08629457,-0.04692795,0.10947768,-0.12964614,0.030844636,-0.04086647,-0.009346112,0.09396333,-0.030801542,-0.044964034,0.011921946,-0.049047515,0.09446832,0.004363399,-0.038427427,0.051724374,0.0039639664,-0.079020925,0.051473092,-0.022228101,0.009345518,-0.07619691,-0.011656103,-0.063653246,-0.03530993,0.027087176,0.02086184,-0.030048976,-0.04851174,0.06154285,0.0786539,-0.063116565,0.054066185,-0.048007112,0.28564903,-0.024958503,0.03936536,-0.11888212,-0.06798366,0.0047772177,0.061324853,-0.25018045,0.01587656,0.049624648,-0.07261273,-0.014701615,0.014157423,0.090311855,-0.11679236,0.08130082,-0.012186524,-0.08099277,-0.18504217,0.10948847,-0.022755792,-0.03483654,0.11341752,0.02736107,-0.055642176,0.12965201,-0.061233792,0.04682497,-0.0032132918,-0.09927851,-0.014820673,-0.012646407,-0.09599318,-0.084632196,0.011145264,-0.09144612,-0.05209245,0.039429173,-0.03768763,0.0833663,0.05417144,-0.019879349,0.031423025,0.13726647,-0.23153043,0.01354084,0.05980158,0.037329018,0.0039161146,0.037165847,0.07309665,-0.12825993,-0.14774537,-0.2008741,-0.072772115,-0.05939657,0.06950638,0.14571409,-0.092291765,0.065569974,-0.028056284,-0.10442054,0.21063115,0.12764318,-0.05875198,0.10517825,0.10319695,-0.08815294,-0.039914016,-0.042910438,0.10634762,-0.014792119,0.061819293,0.032717455,-0.091465876,-0.13718747,0.003091325,0.017796196,-0.07675003,0.13212302,-0.0253357,0.05708792,-0.07974349,-0.012072319,0.041496053,0.06149118,-0.059717454,-0.0029336496,0.057468798,-0.12590581,-0.018783825,0.16987523,0.21074852,0.035823878,0.17533378,0.031410616,-0.048297625,-0.0019078294,0.0036430564,-0.046009198,-0.10741388,-0.08698699,-6.7324677e-06,-0.023853289,-0.03935313,0.077497564,-0.17006564,-0.11426013,-0.08553442,0.13553327,-0.05005495,-0.047157142,0.010836172,0.03825779,-0.03238691,-0.023024993,0.05528427,-0.062004026,0.1575234,0.019918662,-0.15260907,0.0310019,0.036395133,-0.08982298,-0.08424156,-0.02183862,-0.12267925,-0.019229265,0.027660508,-0.025779843,0.09768605,-0.103879325,0.14297524,-0.0015432445,0.15043849,-0.045177367,-0.09000042,-0.024928069,-0.05037713,0.14914268,-0.1469786,0.13576455,0.08233831,0.04693246,0.08964356,-0.04969835,-0.09426659,-0.051269025,-0.03181956,-0.09596351,-0.03212523,-0.089212455,0.058033884,0.13467625,-0.06944703,0.19258836,0.034279183,-0.05653426,-0.037172846,0.012265051,0.009500922,0.05102193,0.09941596,-0.035323463,0.06662503,-0.09041952,0.044668663,0.121752806,0.04544406,-0.16999102,-0.008331405,-0.046335954,0.06879299,-0.021921827,-0.097890005,-0.0023402183,0.010576554,0.08686633,-0.13527273,-0.062237352,-0.15037811,0.04847819,-0.07592496,0.052856747,-0.26047856,-0.025277954,-0.0025513198,0.04150685,0.014208357,0.0864765,-0.055055905,-0.17713703,0.07316563,-0.075777456,-0.12581031,-0.083889894,-0.08098047,0.012007888,-0.029907182,0.042917565,0.14472209,-0.057326987,-0.17891279,-0.17019537,0.06913014,-0.083088584,-0.033002388,0.100083984,0.09895101,0.06132705,0.09172269,0.12081,0.17077315,-0.11900224,0.07159741,0.20300184,-0.23011152,-0.035562158,0.09532828,0.13216355,-0.061564308,0.02031214,0.021609718,-0.081898384,-0.054234263,-0.04053546,0.09922706,0.23631406,-0.024433723,-0.12889601,-0.024766464,0.10479179,-0.13554949,-0.03898975,0.107614145,-0.0748013,0.030629534,0.15018807,-0.0838408,-0.009930506,0.06716876,-0.20775305,-0.047190595,-0.1427646,-0.069588356,-0.08979701,-0.028969776,0.040202793,0.056215275,0.023423683,0.06407772,-0.19200204,0.0023017307,0.060237937,-0.004233152,-0.16568115,-0.04402774,0.008656063,0.025919348,-0.100120686,-0.052468054,-0.11736866,-0.16854434,0.009114281,-0.008691795,0.014512527,0.15455426,0.023015056,-0.042502467,0.1017123,0.018739829,0.024379069,0.052070346,0.00088515796,-0.06181716,-0.0070469407,0.057624023,0.047554683,-0.12431155,0.028114155,-4.2905703,-0.20126204,0.094895534,-0.07322068,0.043369792,0.059093304,-0.032949854,-0.056802515,0.16618747,0.0077193994,-3.6345926e-05,0.08680118,0.0182431,-0.09571089,-0.025514528,-0.024892485,0.10716564,0.07848601,0.02793698,-0.05013871,-0.008277547,-0.06040808,0.050703082,0.18703371,0.059391174,-0.08448446,0.023302294,0.044870064,0.13702835,0.11838315,-0.0067731165,0.07720898,0.025183968,0.06774791,0.08685349,0.1313683,-0.030766066,0.05699186,0.08146927,-0.009318831,0.15571375,-0.07270562,0.011040432,0.032879736,0.04023606,-0.0280731,-0.16877952,-0.014884521,-0.0039501055,-0.026869267,0.07354465,-0.09734158,-0.059975296,-0.06751552,-0.034605052,-0.08764673,-0.078308314,0.100393325,0.03873402,0.105778456,0.025372008,0.08313614,-0.044438425,0.013952244,-0.0199056,-0.009788472,-0.11555048,-0.13015741,0.070045084,0.005111146,0.22197719,-0.12641189,-0.103556976,0.10193414,0.0533633,-0.017907701,-0.08385739,-0.16401316,0.22424042,-0.00915526,-0.15299954,-0.0002976331,-0.1757219,0.06491989,0.11806796,0.062902376,0.06609562,0.037815005,-0.020721488,0.029196287,0.06762419,0.13347603,0.061270155,-0.004750539,0.06077601,-0.012619877,-0.07707804,-0.16486304,0.08090024,0.08698448,0.061012167,-0.002425848,0.032078683,0.11908467,0.18609034,-0.047616716,-0.0037391726,-0.0802096,0.00044440318,-0.07710498,-0.059276424,0.0027705296,-0.18277757,0.00089351006,0.027217409,-0.09502561,0.017958328,-0.19963594,0.08488044,0.12811513,-10.178744,6.185167,1.8370601
CHEMBL267,-0.00021395042,-0.04749911,-0.05367373,0.0026378925,-0.09633081,-0.038152058,0.08068741,-0.017703518,0.054747216,0.121340394,0.02570524,-0.008132472,0.085019365,0.14539793,0.010859336,0.13688305,-0.0417048,0.06835538,0.0069370186,-0.023847597,-0.013020486,0.005552188,0.046182934,-0.044745144,0.083655566,0.09930655,0.08074152,-0.06705158,-0.0002537501,-0.19236703,-0.048820477,0.07208191,0.03521733,0.02454384,0.034136012,0.06438276,-0.0889613,0.07809835,-0.029346319,-0.045865916,0.046977848,-0.04191502,0.042411607,-0.059466742,-0.0873853,-0.038060833,-0.023570312,0.09564291,-0.031091433,-0.16829959,-0.10390607,0.011161839,0.02759735,0.03930433,0.009960516,0.031980403,-0.0008822256,0.06908743,0.024646142,0.017154925,-0.16909924,-0.04005771,0.044603866,-0.039894514,0.058558866,-0.004754167,0.08530595,0.018964274,0.08050255,0.0025614535,0.003299653,-0.04947446,0.020027839,-0.015142798,0.008879665,0.047509983,-0.046413243,0.13928777,0.030088417,0.071263954,-0.020263096,-0.0025465125,-0.090544045,0.05206996,0.06550878,-0.08260017,-0.058124043,0.10478327,0.099299386,0.027252132,0.11242995,0.024041863,-0.09723364,-0.043537818,0.033277214,0.023795629,0.06373021,-0.07774607,0.081206374,0.013731276,-0.06181459,-0.007952061,-0.11102251,-0.023903472,-0.001637546,-0.08011362,-0.1035616,0.060694586,-0.041495714,-0.14626233,0.06393946,-0.04554421,-0.07416904,-0.01312827,-0.014441659,-0.0629038,-0.0978884,0.059683144,-0.033614974,0.033532545,-0.124565765,-0.01971121,0.049749624,0.022242662,-0.08804942,0.038725,0.096411556,0.1545943,-0.047312263,0.020170877,0.006693719,-0.06223039,-0.013636388,-0.047315724,0.003500381,0.12221695,0.12357198,0.110093795,-0.021992836,-0.02566842,0.023312073,-0.068454504,-0.0777837,-0.027824013,0.033662636,0.15558967,-0.0031353785,-0.020465426,-0.044163447,0.07747598,0.05553433,-0.071739174,0.007306478,-0.029929055,-0.012396697,-0.12054832,0.08573885,0.112604775,-0.017222743,-0.013510526,-0.047446515,0.0005870906,0.05229035,-0.12783836,0.092866585,0.10599108,0.025352428,0.030408429,0.05280486,-0.054828368,-0.036539715,0.006271294,0.15140112,-0.022037197,0.016630616,-0.07865603,0.002896665,0.0059737847,0.040293913,-0.04742243,0.09213041,0.0161842,0.05996179,0.012589661,-0.01288935,0.009024349,-0.040529538,-0.034546606,-0.04029391,-0.012961308,-0.037173964,0.080517724,-0.04717381,-0.058887098,0.13197419,-0.010179132,-0.06477077,0.09768743,-0.088112846,-0.01937133,0.01129901,0.024231328,-0.11433328,0.046381194,-0.028961934,0.00999662,-0.057798456,-0.054513093,-0.12402855,-0.10885262,0.045591723,0.071345545,0.11334534,0.039987903,-0.11057733,0.06470263,-0.09886975,0.017677065,0.07630543,0.03199134,-0.009272723,0.02201568,0.14271465,-0.104031704,0.03398393,-0.092524245,-0.12639245,0.0016237925,-0.110651754,0.09975891,0.14911191,-0.03034564,-0.06154414,-0.081098974,-0.84730995,0.08263659,0.1309927,0.01990483,-0.1409302,-0.101801924,-0.099984825,0.040344927,-0.060340248,0.0022981826,-0.06589938,0.061552063,0.03888026,-0.038997356,0.10852711,0.10574871,-0.062339555,0.03817549,-0.026424836,-0.051249575,0.07711593,-0.07767245,0.0054826355,0.06736909,0.013324171,-0.08487339,0.030965406,0.016997313,-0.069812864,0.019817332,-0.15634987,-0.077811524,-0.06030121,-0.049329966,0.030431407,-0.02494184,0.042659067,0.05283522,-0.052336745,0.071846955,-0.03533485,0.029807415,0.037551846,0.006773425,0.007982601,-0.0722566,0.044602625,-0.076078676,0.03390061,0.01928312,0.056504555,-0.13776566,-0.0035687524,0.107329234,0.072477326,0.06505226,0.048213553,0.044579662,-0.12542576,-0.13647844,-0.022573577,-0.030667568,-0.009552819,0.14630033,0.017733976,0.022165997,0.22244196,0.0041075125,-0.16702206,0.13136372,-0.0029479035,0.02254722,-0.07856863,0.05863941,-0.029215392,0.0020631175,-0.041108172,-0.0033983816,0.025502546,0.0042981007,0.06328417,0.017530734,-0.0072335666,-0.09577836,-0.11267807,-0.016255692,-0.02796734,-0.057540867,0.037475627,0.06761384,-0.059590664,-0.053964913,0.08439075,0.07993262,-0.0056889537,0.064147554,0.027100869,-0.012569494,-0.04892975,-0.009978426,-0.15170528,0.044981066,0.13309617,-0.02793046,-0.022507597,0.008525549,0.049530625,-0.04022951,-0.08989139,0.0013480226,-0.09766951,-0.12791601,-0.09557893,0.060636498,0.02245826,-0.056807626,-0.01295926,0.022352023,0.02367979,-0.085643925,0.13267632,-0.050497293,0.028342871,-0.08432405,-0.027911127,0.07343931,0.06165445,0.018890854,-0.12621318,-0.013997699,-0.10107146,0.054612346,0.06532009,-0.04555278,0.084272854,-0.06597753,0.19867767,0.15150319,-0.03476617,-0.0892872,0.09035462,0.22820923,0.03215445,0.041163526,0.14072084,0.051903814,0.010925286,-0.12323986,-0.016311485,0.068616,0.06440068,-0.03352579,-0.019892408,-0.03802791,-0.0064943796,-0.063075304,-0.06790253,0.028666673,0.08414525,0.015588234,-0.108740576,-0.14950003,0.12891255,0.05178793,0.040080097,-0.027957039,0.015642457,0.041705202,-0.08722496,0.14017636,-0.045891233,0.040535484,0.03072961,-0.01668474,-0.05618509,-0.13759267,0.00038621642,-0.005855945,0.033858363,-0.059334554,0.0026541378,0.036736794,0.024976805,0.067728885,0.0985872,0.034821525,-0.04710719,0.06474386,0.057267394,0.0456658,-0.001743181,-0.02068118,0.030429104,0.025631664,0.06942486,0.002356252,0.046794917,-0.048791908,0.025832847,0.07328456,0.020745078,0.03987642,0.08298734,0.009191108,-0.07568415,-0.012449445,0.01662488,-0.014754822,-0.0135713685,-0.23481606,0.04835208,-0.06153284,0.076599374,-0.036473062,0.01089486,-0.07588919,0.0349044,0.0015105845,0.027686311,-0.042196393,0.024537714,0.057756454,0.14177918,0.10689503,-0.06821079,0.15451805,-0.008472531,0.07925296,-0.042292718,-0.05388358,-0.005648926,-0.11907085,0.060256068,0.057182092,0.07470576,-0.008941653,-0.078536905,0.0051344205,0.07561487,-0.0743016,0.019686691,-0.10267741,-0.036972705,-0.029627413,-0.028849678,-0.0962715,-0.02271086,0.0056437436,-0.06052669,0.047127765,0.012520968,0.02832696,-0.004358575,-0.058248915,-0.025334457,0.075435564,-0.09679575,0.03154997,-0.018475749,-0.027244382,-0.046891984,0.02749557,0.03259969,-0.05557848,-0.13087167,-0.092539735,-0.10851192,-0.096027315,-0.10198432,0.018865103,-0.016809143,0.051139183,-0.0015909245,0.19140127,-0.08286947,-0.04507951,-0.010763377,0.000114582144,0.014892264,-0.030830447,0.033913936,-0.047154162,0.027398158,-0.1411481,0.07685623,-0.1303421,0.16426787,-0.057501853,-0.021833647,-0.03538229,0.02521695,-0.16139711,0.110875666,-0.009850394,0.06289184,-0.02697071,0.0121190455,0.10067024,0.0056017796,-0.093560986,0.019823277,0.00809315,0.00044925621,-0.06906746,-0.23451005,0.04608467,-0.08784514,0.015306549,0.019928917,0.12465263,-0.07670091,0.041011035,0.047473222,0.018740285,0.06666618,-0.08952585,0.0421821,0.05937109,-0.07044446,0.12665339,0.08766763,-0.12990883,-0.16774076,-0.056106146,0.0074716886,0.040851973,-0.047970872,0.07991553,-0.00605474,0.07335981,0.23705205,-0.08850258,0.06249106,-0.040878892,0.022677286,-0.080716655,-0.047556214,0.2630599,0.057588786,0.055803593,-0.08590089,0.054460853,0.029481307,0.104606286,0.05790789,0.06138178,-0.04786763,-0.06954079,0.06492861,0.053594917,0.05415057,0.010304918,0.08560162,0.10457053,-0.009036979,0.09357761,-0.0004848602,-0.09360224,0.052699566,-0.017194092,0.06782636,0.029567601,-0.02154736,-0.0043500727,0.09963971,-0.086609125,-0.095826685,0.015871089,-0.07707822,-0.04274687,-0.12105051,0.053741913,0.021460764,-0.0103765195,-0.070357986,-0.013920995,0.034695257,0.054793067,0.0255267,0.025232283,0.05449757,0.083809614,-0.05292974,-0.045641486,0.01749095,-0.016586816,-0.030373354,0.061480436,-0.076568015,0.018368034,-0.003378635,0.09903072,0.040819388,-0.014172564,0.039524496,-0.029490426,0.0061803763,0.102220714,0.09789598,0.027651409,0.0458718,-0.0032892094,-0.010578335,0.066945635,-0.063626885,-0.05985381,-0.09090742,-0.0331795,0.051886007,0.077532694,0.014673295,-0.048825245,0.13653927,0.045585383,0.02633197,-0.044610187,0.008876804,0.2157582,0.10877438,-0.031497043,-0.021219086,0.032400213,0.025116287,0.07176986,-0.09708028,0.1298984,0.025135081,-0.017975813,-0.03449507,-0.096793324,0.028985536,0.053631887,-0.054018896,-0.021523712,0.04031851,0.0007851333,0.09590843,-0.1887424,0.03949806,-0.034353107,0.0278684,-0.052682996,-0.042735785,0.021256384,0.029441653,-0.01099887,-0.01732719,-0.050421596,-0.12582533,0.26229963,0.04475826,-0.06818774,0.0448704,0.052275375,-0.017905494,0.006614546,0.240605,-0.009370579,0.02552005,-0.041869905,0.068656944,0.061340112,-0.03268357,-0.08395389,0.11691197,-0.08929181,0.21803655,0.118515715,0.058991224,0.023663597,0.0037443282,0.038737822,0.03864463,-0.07859326,-0.055630095,0.019011205,0.08005654,-0.06538544,-0.086403064,0.028862705,0.062516645,0.0060229353,0.025702061,0.06024016,-0.016558945,0.11564075,0.014148997,-0.033536125,0.12101394,0.04779167,-0.04214659,0.0037934238,0.044256993,0.13866569,0.08038458,0.037277788,-0.053192537,-0.007364533,0.13736144,-0.038400702,0.009696394,0.11232762,0.4307731,0.0532549,-0.050136257,-0.11789965,-0.011702228,0.080631286,-0.020282933,-0.04433197,-0.07580487,-0.109031916,-0.047313385,-0.020447472,0.182465,0.028928705,-0.02177654,0.062870584,0.0106810825,-0.12230328,-0.010371236,-0.014877599,0.024097826,0.030378157,0.0075508407,-0.10523543,-0.17621969,0.07582976,0.08291423,-0.017282195,-0.030883571,-0.06688152,-0.10577072,0.0333021,-0.059279323,0.08034055,0.030132204,-0.02788273,-0.063221924,-0.041346256,0.0649632,0.067667715,-0.00113344,-0.020140216,0.1028452,-0.13039902,-0.15505937,-0.025935834,0.04466339,-0.13225728,-0.101299755,-0.005724525,0.2151696,-0.063999094,0.02915482,0.022414196,0.13280398,0.07805562,-0.019054012,0.20675424,-0.0962427,-0.10535752,-0.012596439,-0.064487785,-0.019944372,0.037092302,0.037243083,0.08405997,-0.027950274,-0.0307344,-0.03693576,0.04942149,0.048595555,-0.119244896,-0.06493472,-0.010837056,0.1196704,-0.09452914,0.09582051,-0.0009307133,0.009676565,-0.11796239,0.00087880023,-0.03835657,0.18118009,-0.03894196,0.07590842,-0.0039511905,-0.08192765,0.021599974,-0.08380103,0.04466336,0.049162522,-0.2214329,0.021415133,0.021003317,-0.15155189,-0.06885993,0.003492152,0.07864308,0.03744045,0.14534299,0.2707401,-0.0019902692,0.033726905,0.065081745,-0.12629287,-0.08889599,-0.040993977,0.009846519,-0.026447998,0.09345351,0.029608987,-0.023087163,0.049167346,-0.09935322,-0.009288947,-0.091505915,0.04931602,-0.014263498,0.03230418,-0.14832067,0.08944838,0.027263185,0.11115825,0.022092566,-0.0026876528,0.03565381,0.06947194,-0.03632231,-0.004121162,-0.029660176,0.041594684,-0.016757678,-0.051501486,0.0002594341,-0.023191957,0.000267733,0.063403524,0.05352951,0.029846277,0.0075078537,0.10639846,0.0328036,0.010292665,-0.004656653,0.12450772,0.009644882,0.10390306,-0.15280528,-0.032604266,-0.076492324,-0.048112344,-0.078240894,0.015440259,0.090608925,-0.039601997,-0.030132348,-0.036310352,0.09300815,-0.16941701,0.033575844,0.09987028,-0.08768772,-0.05847037,0.12670214,-0.023907047,-0.11518005,0.0115043605,0.022959132,-0.015110117,0.043270413,0.020658595,0.035219975,0.059071038,-0.08044288,0.0023963163,-0.018974988,-0.008473315,-0.055366535,0.038945317,-0.025171887,-0.010296532,-0.008908011,0.010946566,0.100492164,0.11771193,-0.008318446,-0.002926598,0.087952554,-0.111103415,0.064441316,0.09423699,0.012950408,0.0027609677,-0.02222693,0.05576755,-0.06578642,-0.08734073,-0.16278183,-0.07427643,-0.05280839,0.1087042,0.13184945,-0.057996042,0.07727531,0.036266,-0.03332089,0.15107375,0.017598681,-0.0071774055,0.022599252,0.14475954,-0.003798548,-0.065941736,0.056234017,0.15253651,0.051704634,0.12675583,0.04815447,0.049022507,-0.13196881,0.011009926,-0.08694902,-0.088036366,0.11766901,-0.007692427,0.057670385,-0.076243006,0.01313765,0.058751825,-0.0143897375,-0.078915186,0.02258126,-0.016702041,-0.07921541,-0.10020831,0.12679306,0.14447166,-0.001688933,0.11132528,0.038816575,-0.07831735,-0.06601089,-0.033608623,-0.03677566,-0.045748968,-0.0919378,0.00743372,-0.03300034,-0.06176102,0.020293495,-0.14006373,-0.102703616,-0.052728247,0.08336089,-0.055505358,-0.089540176,0.045347072,0.017596262,-0.01631648,0.024339836,0.067791946,-0.073553495,0.04008434,0.017707061,-0.1446822,0.028315306,0.06703467,-0.06780133,0.00085788657,0.07025653,-0.0790723,-0.0008435997,0.0019879297,-0.020206075,0.046522122,-0.07528505,0.19595659,-0.048272885,0.056287196,-0.070809536,-0.11104335,0.041844632,-0.087488964,0.116734885,-0.083420575,0.0838396,-0.00077188853,-0.027213195,0.10489598,-0.13402437,-0.11857291,-0.11214414,-0.053791285,-0.07997054,-0.007167675,-0.044358224,0.059254736,0.07814468,-0.0019105213,0.116812974,0.08459068,-0.08851516,0.019598698,-0.026325474,-0.0047522844,0.060831726,0.03344225,-0.09032896,0.08338171,0.0008273983,0.051017776,0.09407357,0.13079785,0.0036188306,0.04511312,-0.08872575,0.09327605,0.015123791,-0.036520634,0.071695,0.032888513,0.058576882,0.012509319,-0.026186477,-0.15607865,-0.04224686,0.0075340555,0.008303562,-0.048219133,-0.08965205,0.014762499,0.06778782,0.02646891,0.020536654,-0.0010403608,-0.052196566,0.04506291,0.040751286,-0.0370431,-0.021681301,-0.02637212,0.050685354,-0.13775949,0.02067246,0.031522118,-0.042159565,-0.17013362,-0.07855073,0.07318544,-0.057966005,-0.08747192,0.061511617,0.08196721,0.05063061,0.045578223,0.057104174,0.119753055,-0.14057441,0.07473675,0.1849345,-0.12993953,-0.045221236,0.14118959,0.0795986,-0.054943338,-0.011271125,0.15713903,-0.037001003,0.04213329,-0.05028093,0.071009725,0.15732028,-0.013505754,-0.09098505,-0.013550609,0.055792764,-0.04046725,0.051210232,0.0686241,0.030884007,0.043602906,0.0851647,-0.061211415,-0.08933775,0.07070732,-0.08897409,0.0028752252,-0.09917273,-0.0920218,-0.049854483,-0.08706777,-0.016634772,-0.0139502045,-0.05687921,0.030402407,-0.13148288,0.028894942,0.11500562,-0.02257937,-0.13791987,0.113320366,0.067424975,0.02433304,-0.025061388,-0.0047510485,0.027077243,-0.10080647,0.01691565,0.031897414,0.05950612,0.102818996,0.011917551,-0.036108773,0.078968205,-0.05323293,0.104592636,0.09401971,-0.065092996,-0.011250871,-0.029029803,-0.038947284,-0.05080272,-0.07434932,0.11678679,-4.9123597,-0.12548277,-0.0008536025,-0.036632515,0.026259324,-0.029234273,0.025252428,0.024570907,0.08057751,0.02592673,0.030296799,-0.052363038,-0.017498314,-0.029914828,-0.048697677,-0.017100988,-0.04820764,0.089935,0.05703958,0.06164177,-0.0470051,0.0053045205,-0.04368202,0.11982024,-0.0006092215,-0.13615239,-0.003630458,0.02717984,0.0315864,0.1334164,0.0561963,0.05028712,-0.01736784,0.16014802,0.0793414,0.059590362,0.04987525,0.042427484,0.1501298,0.038332857,0.13365057,-0.07804351,0.001080745,0.010196374,-0.00053940166,-0.09149293,-0.10156088,-0.028310569,0.10925269,-0.040366497,0.04391108,-0.05899072,0.051090304,-0.045128077,0.053794816,-0.075375885,-0.036028415,0.098055586,0.028806323,0.043908928,0.008569878,0.009733093,-0.099751435,0.043157388,-0.036977094,-0.06614589,-0.0633502,-0.15096252,-0.04281012,0.027888529,0.14911291,-0.015107239,-0.015446909,0.19383173,-0.025782108,0.059303015,-0.05128467,-0.044605497,0.11418411,0.013118066,-0.14141029,0.06717739,-0.10557143,0.06531133,0.0572123,0.037381824,0.055696044,0.10369168,-0.054165676,0.014376301,0.08557955,0.05620209,0.009346645,0.034935255,0.15385675,-0.0055125505,-0.10787764,-0.034773175,0.11214572,0.046228196,0.019547552,0.033391144,0.13580221,0.11864652,0.008872114,-0.020488203,-0.026714075,-0.095556736,0.088727966,-0.0020324,0.017974777,-0.058963414,-0.13193467,0.039243903,0.022499166,-0.12709698,0.030090969,-0.14939612,0.09177212,0.13818438,-2.4031882,3.5172555,-2.151543
CHEMBL325,0.036169317,-0.050750833,-0.0069132247,0.05693822,-0.01852169,-0.062401734,0.037399553,-0.09978596,-0.009953597,0.042442996,0.0050528576,-0.06125845,0.10620153,0.13618906,-0.015079292,0.08154749,0.0048288875,-0.024633402,-0.018226616,0.027115596,0.055462975,0.06561392,0.060603805,-0.055866573,0.010825277,-0.0055414927,0.083534904,-0.059311785,-0.04202785,-0.10698262,0.013690474,-0.06474885,0.026203433,0.005104574,-0.022168864,0.087056346,-0.027561551,0.0101724425,-0.037132632,-0.037482597,0.011248688,0.04513083,0.08008482,-0.028825222,-0.033536773,-0.07507295,-0.034960236,0.0683098,-0.04257049,-0.10926765,-0.011111751,0.0049996544,0.07536247,0.03470585,0.051234454,-0.07154576,0.011188397,-0.013269692,-0.004788628,0.059788976,-0.14372772,0.05753061,0.0036226434,0.027514383,0.057294168,0.025815997,0.087994434,0.006456453,0.082986236,0.016964648,0.025672214,-0.013901645,-0.011664721,-0.117960535,0.03443631,0.013272196,-0.011075079,0.10775408,-0.011459601,-0.01115896,-0.038494047,0.061166137,-0.08627244,0.1479528,0.010283396,-0.041368153,0.043311574,0.08120088,0.17484376,0.08313422,0.020438662,0.0745065,-0.042045403,0.04941887,-0.025465827,0.0023872291,0.012872512,-0.052505508,0.04208639,0.012438689,-0.009696478,-0.087348334,-0.039387625,-0.10369238,-0.113002345,-0.08002557,-0.07856394,0.09570443,0.021814836,-0.08412588,-0.019892305,0.03264859,-0.0014367707,0.030705491,-0.07553191,-0.05038485,-0.13378215,-0.043539,0.03393455,0.047710557,-0.059115097,-0.023052558,0.03926161,-0.06512078,-0.08930792,-0.0075660255,0.04327258,-0.0058220103,-0.03644799,-0.020053633,0.001386779,-0.033692125,0.06079856,0.03297844,0.079932116,0.032580197,0.00063389266,0.017716717,-0.008171465,0.0011940174,0.043933176,-0.08610208,0.008267792,-0.048223156,0.008487723,0.08348143,-0.0244138,-0.020828387,0.0020214512,0.0420563,0.10365877,-0.11387503,-0.08886473,0.051603448,0.09442403,-0.07948482,0.072507456,0.14776279,0.010885275,-0.010665423,-0.064458326,0.085172474,0.015348104,-0.114474855,0.00084642356,0.036291018,0.07225287,0.050802875,0.058211476,-0.010046711,-0.11938998,-0.06641484,0.052585114,0.014922378,-0.09792594,0.006438397,0.0015912927,0.010158201,-0.012870814,0.036789443,-0.045844916,-0.021896739,0.05920684,-0.0144655015,-0.083670445,0.032641497,-0.01241052,0.05420487,0.0027406525,-0.070018485,0.049350247,-0.0023885476,-0.059330557,0.0008672664,0.2151889,0.09448627,-0.019117301,0.036882598,-0.14501348,-0.04587536,0.052420978,0.03166082,-0.081910744,0.039441254,-0.02336443,0.02662265,-0.07521715,-0.045394745,-0.07293975,-0.11033574,0.103623025,-0.012705864,0.09879906,0.052854978,-0.15058151,0.0572998,-0.078181066,-0.017625129,0.029763352,0.038591705,0.011770687,0.027281487,-0.019340878,-0.011249156,0.04235567,0.034373596,-0.11617464,-0.0057231006,-0.06331301,0.041882414,0.10106911,0.007892134,-0.05431451,0.018095886,-1.3147017,0.0961833,0.1993822,0.09813536,-0.07356614,-0.119297,0.0015766618,0.060783938,0.027674777,-0.009886109,-0.019426366,-0.015858604,0.067700334,-0.052430905,0.07148158,0.10168542,-0.117779545,-0.037083272,0.0023834389,-0.0086679505,0.041238032,-0.01853536,0.07266493,0.068548545,-0.033285737,-0.04574492,-0.0058757043,0.049988482,0.0005315023,0.0024060346,-0.025287922,-0.058194492,-0.10796054,-0.058582217,0.09507953,-0.04329664,-0.008943202,0.040858068,-0.011259366,-0.018234907,-0.0028228364,0.0386268,0.037013426,-0.008801732,0.040824443,0.0062791305,0.027151383,-0.007870185,0.057963718,-0.010358335,-0.03458489,-0.048401255,-0.04764736,0.09640529,0.035589393,0.06908828,0.011874946,-0.005010777,-0.030516107,0.00079142407,-0.02683395,0.08782424,0.012838622,0.20379363,0.027448853,0.09967552,0.07380795,0.041568436,-0.09868047,0.060301755,-0.021906525,0.001269139,0.06579808,0.08213116,0.046227988,-0.07235469,-0.014888667,-0.013642134,0.0027796868,-0.032632623,0.07769222,-0.02310299,-0.08298252,-0.03796425,0.00083442597,0.027331576,-0.002474035,-0.0755239,0.011937873,0.012425931,-0.05736814,0.053689938,0.0155901695,0.075335085,-0.09449658,-0.08977396,0.0212833,0.0135566825,-0.009859849,0.06838988,-0.10447314,0.051285177,0.08549596,-0.0066580833,0.03731907,-0.049490787,0.0041358937,-0.040932484,-0.035746653,0.026632657,-0.097055465,-0.06573267,0.008387566,0.032820504,-0.07913043,-0.05334398,0.02473995,-0.018717308,-0.03044234,-0.038060453,0.1508234,-0.046963982,-0.009128767,-0.115317225,-0.028831175,0.031278208,-0.033828095,0.0010567048,-0.012128714,0.054431457,-0.03455333,0.08030626,0.105918735,-0.12447756,0.0755609,-0.065968975,0.09333262,0.13623396,-0.005594556,-0.09591648,0.11663766,0.076942116,-0.04249166,0.15011339,0.16128281,-0.05583932,-0.017891191,-0.10247977,-0.02409941,0.025742711,0.13743082,0.010582956,-0.11111555,0.05197465,0.032697037,0.012072632,0.0023065063,0.0151912905,0.05259679,0.10141092,-0.040738814,-0.07054682,-0.017386064,0.03382268,0.07078026,0.0053412667,-0.02306179,0.026752751,-0.04940399,0.09569214,-0.0094069475,0.029300502,-0.030712863,0.008220537,-0.010195368,-0.024845049,0.030593276,-0.024097573,0.09033275,-0.029942017,0.009392949,0.10227116,0.07068982,0.07459793,-0.0063955253,0.06382013,-0.059685238,0.05466453,0.0076402933,0.034036167,-0.014693235,0.021778507,-0.0467678,0.050224233,0.0586857,0.053388912,-0.038371883,-0.0040005553,0.040469702,0.03303034,0.034640476,0.073235735,0.06089331,0.010945941,-0.025324423,-0.010223618,-0.010650362,0.059530426,0.0048598275,-0.14800608,0.025321523,0.005574911,0.1042922,-0.05543379,0.053495083,-0.036058262,0.022484941,0.021641644,0.022868922,0.046789184,0.055729195,0.04726658,0.120873995,0.0069268635,-0.019479709,0.10862467,0.07241271,-0.014479635,0.04138736,0.010164446,0.027049828,0.050095268,-0.04800555,0.06991643,0.035172142,0.0022572873,-0.038312398,0.05165007,-0.058927115,0.030101575,0.009378792,-0.07722408,-0.00010245069,0.0017111598,-0.055680793,-0.06409373,-0.062396884,-0.012138367,0.02073101,-0.057327263,0.028154539,0.04585155,0.00019629368,-0.0074564843,-0.04169984,0.015496244,-0.0838253,-0.020227093,-0.048426297,0.008802764,-0.063770264,0.0312038,0.019115126,-0.06978502,-0.07807247,-0.064216144,-0.07079953,-0.07796476,-0.11769105,-0.033446245,0.039829742,0.053930245,0.02827033,0.11349087,-0.0478902,0.021158176,0.035002887,0.017683337,-0.025123116,-0.031536266,0.034796514,0.006663355,-0.02178372,-0.08762008,0.05747541,-0.097433,0.0037649963,-0.070675105,0.01570823,-0.051267378,-0.043570656,-0.095724635,0.022408703,-0.0023017277,0.051506296,-0.02522687,0.006043941,0.16388704,0.016813451,-0.0339872,-0.010644631,-0.0014231057,-0.012175964,-0.002124156,-0.05884767,-0.016270675,-0.005304331,-0.011570936,-0.06105233,0.061118383,0.011246547,-0.015580828,0.052956156,-0.09717368,0.119956404,-0.04014661,0.052350752,0.022754166,-0.05840883,0.12961827,-0.010346873,-0.021926327,-0.19538544,-0.021735804,-0.021075971,0.0017239781,0.030155223,0.096022844,-0.02043942,0.010752484,0.096363075,-0.107887045,0.0470268,0.06257023,-0.019090915,-0.09428494,-0.03724059,0.21801431,0.0147258295,-0.00556266,-0.042304564,0.08654275,-0.032577053,0.08011708,0.020542888,-0.0457983,-0.060181152,-0.069705024,0.0031380684,0.0575966,0.08134908,0.103954144,0.06660433,0.024889922,-0.031807385,0.07304209,0.015496515,-0.028710617,0.039976336,0.05134622,0.09700978,-0.02527936,0.007970692,-0.0065545845,0.10462019,-0.0714806,-0.12524547,0.008171088,0.087377146,-0.049904417,-0.02607361,0.113115974,0.03396396,-0.0046578455,-0.07156999,-0.029359018,0.087265015,0.028435351,-0.04641505,-0.067547604,0.069145195,0.049450293,-0.07656896,-0.011283873,-0.0030875131,0.01619948,0.04385526,-0.05543242,0.0050246576,0.020936787,-0.040533174,0.05752788,-0.018718788,-0.005679792,0.064743005,-0.12339868,0.050679773,0.010241335,0.033021376,0.028373744,0.08458609,-0.03908475,-0.10018908,-0.0139448345,-0.030617421,-0.094241634,0.019298613,-0.037637327,0.038137335,0.1060496,0.09469938,0.034571793,0.10695145,0.010076826,-0.089806266,-0.010714113,-0.0055510635,0.14371829,0.069836915,-0.07797857,-0.034627512,-0.0038818847,0.039595228,0.021914914,-0.07099248,0.08841267,0.027915813,-0.036374517,-0.053606704,-0.012809463,-1.5037189e-07,-0.020098891,-0.08755427,0.06424911,0.045469902,0.030782858,0.02827519,-0.11735165,0.05454039,-0.043429267,0.016107032,-0.027885107,-0.014930056,0.039816838,0.0346259,-0.04761766,0.038738597,0.048432093,-0.057395406,0.15963931,0.05866782,-0.12725173,0.0761502,0.09910989,-0.018061668,-0.062193476,0.0038378665,-0.011475151,0.022347404,0.03775857,0.057588954,0.053565506,-0.031395257,-0.07237857,0.0043321066,-0.07930968,0.17015293,0.058802146,0.052097145,-0.028824458,0.043037303,0.054440748,0.06466644,-0.0450595,0.057785597,-0.0037608854,-0.03833569,-0.040216263,0.005703333,-0.0082170945,0.032056853,0.019928921,-0.030122325,0.07154921,-0.042728413,0.03026199,0.022236222,0.03287415,0.042995892,0.056994084,0.0005319336,-0.029772688,0.010647673,0.046221487,-0.02229836,0.006092739,-0.02090148,0.002935281,0.11945799,-0.019798215,0.0262614,0.1002752,0.24291447,0.034702618,-0.043428916,-0.034670975,-0.06956264,-0.016854068,0.023127494,-0.03494604,-0.03247599,-0.09980212,-0.040822573,0.004550457,0.07814911,0.05984054,0.08680798,0.012178889,-0.02056587,-0.017090656,0.009887938,0.016919674,-0.003783292,0.0075794733,0.058560897,-0.056715056,-0.12869844,0.07132476,0.07820592,-0.0356085,-0.06815937,0.12594053,-0.051365666,0.016608844,-0.046055622,0.07828133,0.06900046,0.0018009387,-0.074989066,0.016361391,-0.06579573,0.12358594,0.03144513,-0.015892256,0.08653908,-0.10136183,-0.07227062,-0.005350857,-0.012672367,0.041816767,-0.07277094,-0.075873405,0.17561264,-0.10255614,0.032244306,0.011814774,0.106104486,0.022752693,-0.046231024,0.1378402,-0.061012592,0.0069277515,0.02593164,0.0073602083,-0.069316596,-0.015752206,-0.03485873,0.116042346,-0.015570642,-0.046589274,-0.025183128,-0.065485366,0.027310034,-0.11917448,0.037362363,-0.06406036,0.055012666,-0.029126145,0.09789813,-0.12350109,0.055177737,-0.06837433,-0.023742203,-0.041493807,0.13605098,-0.08613267,0.10035735,0.11069789,-0.021457983,0.11880232,-0.043734,-0.027333109,0.04548805,-0.078169666,-0.008279905,-0.03778839,-0.13074505,-0.08509953,-0.041943766,0.05012862,0.107126504,0.015622502,0.20304537,0.02182069,-0.035086915,-0.09326998,-0.096776605,0.03866667,0.04695653,0.060292833,0.030583935,0.06696764,-0.039490744,0.040297803,0.066854276,0.038410004,0.074395046,-0.008073258,0.016934639,-0.07271314,-0.067779884,-0.14087676,0.021747515,0.15759683,-0.0043821703,0.029864648,0.013144561,0.05513743,-0.027905907,-0.02707604,0.026908617,0.054783106,0.044221386,-0.08502146,-0.0066541457,0.008355391,-0.034552176,0.15743123,0.05383027,-0.06839448,0.015881365,-0.010290844,0.0118615,0.07037938,0.11414879,0.066751495,0.12851155,-0.039117552,0.03460552,-0.096416414,0.07973628,-0.06299693,0.018855372,-0.06282172,-0.0059160674,0.03900048,0.00015831439,0.0090907365,0.058233745,0.13776125,-0.03505916,0.02612362,0.036860313,-0.06421108,-0.08446281,0.102985226,-0.035341986,-0.0523142,-0.002705398,0.039039224,-0.041131906,0.03578774,-0.023236385,-0.018092416,-0.008141369,-0.060263705,0.007202716,0.111052915,-0.034895577,-0.019574463,-0.019461926,-0.107137375,-0.05533221,-0.0015508299,0.100526325,0.112786315,0.043484177,-0.026892515,-0.06512291,0.066944174,-0.026867926,-0.10188347,0.04979337,-0.00025198964,-0.06373636,-0.06547003,0.14813228,-0.081627734,-0.07636746,-0.07142182,-0.017237877,-0.020386644,0.19774064,0.11891864,0.001147749,0.019566322,0.01064464,-0.04494453,0.15693313,0.10200766,0.022815168,0.016377857,0.10226809,0.022389013,-0.019104166,-0.009964383,0.12430057,0.038003676,0.017403759,-0.0021461167,0.053415824,-0.11487378,-0.080397844,-0.044611286,-0.024052568,0.05915819,-0.004814148,0.0930836,-0.05220961,0.08247823,0.0011931079,-0.0031418533,-0.042207874,0.068939716,0.023780344,-0.02072352,-0.13165803,0.13512029,0.09898275,0.04579525,0.013593277,-0.0073079574,0.0024643438,-0.0019315367,0.0086963745,0.01430001,-0.02126095,-0.008989018,-0.026026344,-0.022375928,-0.014820577,0.043700755,-0.08503596,-0.04319274,-0.08885622,0.07751412,-0.0031547928,-0.13546653,0.039463233,0.02452116,0.012885905,0.008684131,-0.0024233358,-0.044373628,0.07646189,-0.019692838,-0.084007956,0.026044335,0.06609939,-0.019862821,0.08595821,-0.014024452,0.023998506,0.011299596,-0.031778004,0.023571488,0.04202,-0.034309797,0.08007885,-0.04609362,0.040544372,-0.007288141,-0.06864964,-0.000798767,-0.05906819,0.08562594,-0.015401971,0.07176697,-0.0042172726,0.042015802,0.027114734,-0.0838645,-0.07600175,-0.026615977,-0.04299603,-0.010752673,0.031991098,-0.055824887,0.044811156,0.07577912,-0.0010521847,0.15604141,-0.055878457,-0.007680549,-0.01108629,0.0016369771,-0.12608364,0.091087215,0.089947745,0.0449535,0.014879302,-0.015395589,0.006239185,0.048931595,-0.014936539,-0.08685496,-0.008752647,-0.07389605,0.042783316,-0.09889302,-0.057196684,0.031636596,-0.00019874613,0.07269741,-0.059790466,-0.019406062,-0.061678436,-0.04056251,-0.019939588,0.03867006,-0.07718874,-0.06756563,0.009071408,0.0069890334,-0.049835887,0.020031879,-0.023341049,-0.006057405,0.04337887,-0.0038698239,0.054969218,-0.08121112,0.031969734,0.032135826,0.0062812166,0.04228245,0.040485248,0.00029686774,0.02814764,-0.026444841,0.054267325,0.044567518,0.010979826,-0.059346583,-0.005247938,0.040304713,-0.026003605,-0.015209274,0.033287495,-0.07940257,0.07763444,0.16400208,-0.049620878,-0.030143451,0.132452,0.06938148,-0.046810143,-0.028348608,0.08782725,-0.10795779,-0.006163891,-0.093132034,0.042296235,0.12034914,0.010660008,-0.022536239,-0.021723839,0.022933735,-0.061341483,0.039334737,0.06611896,0.10359744,0.07789884,-0.018912677,-0.045719773,-0.07636006,0.12446271,-0.049613383,-0.06739017,-0.14346547,-0.051017735,-0.032105982,-0.05371563,-0.005792702,0.0094758915,0.024127312,-0.015678516,-0.10272359,-0.03258241,0.07908577,0.04878559,-0.11308594,-0.0010639613,0.006168253,0.048553146,0.09843418,-0.057957117,-0.0063960366,-0.05751706,-0.03977994,-0.030288594,0.07995921,0.11761338,0.008904938,-0.03413975,0.011084906,-0.0035262278,0.068750635,0.008376185,0.005719932,0.024273232,0.049308803,0.009721204,0.0060957377,-0.064072,0.045878157,-6.7682033,-0.067087084,0.09497872,-0.025370669,0.021930559,-0.036600064,0.035387997,-0.1257509,0.15493628,-0.04624418,0.028211145,0.04321143,0.021316445,-0.049517658,0.0006573428,0.07906396,-0.006745157,0.053597197,-0.016566597,-0.005155916,0.050189715,0.027300742,0.010570799,0.0908674,0.0419377,-0.103747845,0.0038562424,0.03573044,-0.008665625,0.102075115,-0.008939299,0.032507733,-0.025452832,0.08029631,0.10098488,-0.009233668,-0.08115621,0.021132877,0.083171,-0.067403376,0.13337147,-0.05562294,-0.021506311,0.023423929,-0.0030152174,-0.00250433,-0.057901658,-0.035028104,0.026882453,0.03865524,0.017340321,0.028288566,0.016103929,-0.0023460626,0.098137915,0.058195777,-0.049018167,0.14043905,0.077822186,-0.024462886,-0.02333291,0.019339563,-0.026286611,0.020117288,-0.012955813,-0.07142892,-0.15845017,-0.029976824,0.04659105,-0.017948441,0.18390475,-0.056033086,0.002860005,0.13073744,0.046779394,0.022709,-0.06891598,-0.082878396,0.09346301,0.07779136,-0.08599956,0.01920168,0.01487101,0.018483993,0.032391697,-0.051698696,-0.038112365,0.02231676,-0.09686583,0.11333034,0.10121179,0.08435391,0.048432868,-0.029678652,0.089732006,0.031863336,-0.084282614,-0.010700168,0.057571355,0.012267271,0.05069708,0.069392,0.0035033443,0.08526702,-0.031741578,-0.04241197,-0.008765692,0.030570818,0.0978382,-0.018543571,0.028356483,-0.049829595,-0.072405584,0.014538366,0.043232057,0.010226913,0.055188943,-0.14528917,-0.072402224,0.053390335,-4.8061247,5.5650167,-6.49183
CHEMBL308,0.014562412,-0.00082087755,-0.008934844,-0.020664342,-0.09474873,-0.07182351,0.060087703,-0.01211041,-0.082101054,0.07552389,-0.012931955,-0.019361472,0.03107903,0.0137964245,-0.007499962,0.09366483,-0.009325437,0.07724738,-0.009585672,-0.037900906,0.0004167091,0.009776558,0.07651572,0.0042006546,0.029731719,0.1437569,0.00955191,-0.045562223,-0.0650377,-0.19855484,-0.016990794,-0.014363311,0.079021595,-0.035667896,0.05370269,0.0494842,-0.028130945,0.084951654,-0.003077499,-0.019335948,0.023538241,-0.023337094,0.11756246,-0.016890042,-0.03518772,-0.055248294,-0.10083582,0.08941759,-0.02075504,-0.12336041,0.020307034,0.051513392,0.00029357194,0.09497931,-0.0036143302,0.03364203,-0.04396506,0.047657166,0.0014719,0.053184178,-0.2694962,0.033069693,-0.051583912,0.070070505,0.03212879,0.027109785,0.13669398,-0.021508614,0.082413115,-0.06092037,0.036713388,-0.031428766,0.0700241,-0.023271725,-0.025051385,0.001966413,0.0010679322,0.105321005,0.0031811292,0.08105713,-0.04903627,0.031513486,-0.051805142,0.06427561,0.027285146,-0.04583443,0.014949505,0.102362216,0.11760005,0.11096239,0.12877831,0.031632684,-0.024025071,-0.052241493,-0.010388549,-0.0390052,-0.025502315,-0.025621979,0.007052476,-0.0018758705,0.0282767,-0.040052697,-0.06763469,-0.044344563,-0.0655852,-0.04477628,-0.07706198,0.03052122,-0.09784989,-0.06968467,-0.028130589,-0.013868172,0.021326967,-0.015751634,0.036075108,-0.060227778,-0.11069205,-0.027356803,0.014452003,0.12922962,-0.12915723,3.5509114e-05,0.017292745,-0.030905878,-0.10259702,-0.08860245,0.108700365,0.08758935,-0.10481447,0.013569877,0.011440269,-0.03205903,0.03166255,-0.031035867,0.047816902,0.18449832,0.08214496,0.06090897,-0.039891545,-0.013656339,0.0361218,-0.08569357,-0.055527203,0.001487514,0.08846104,0.059437376,-0.035160556,0.025283424,-0.048232865,0.07896193,0.11658185,-0.03425346,0.078277156,0.0739163,0.04048512,-0.11755691,0.074873924,0.074224584,-0.023159686,0.054214284,-0.101441525,0.08180938,0.04781133,-0.07072954,0.009362049,0.100341,0.031193689,0.03881095,0.014454325,-0.060402043,-0.062300626,-0.057214737,0.07406778,0.016912531,-0.101792455,-0.008452599,-0.005062415,0.009127145,0.024095153,0.014116918,0.013047093,0.004803002,0.04092949,0.019843835,-0.0053605265,-0.03320402,-0.05730733,-0.025332643,0.054294575,-0.043962024,-0.0048162355,0.13001989,-0.071174555,-0.03476981,0.15306836,0.007974276,-0.07330872,0.09608988,-0.116799265,-0.1067136,0.0908327,0.11478875,-0.09535124,0.07612414,-0.031095812,0.027698442,-0.0440124,-0.016246919,-0.11944626,-0.1044949,0.09632771,0.082955204,0.050579723,0.009982438,-0.16149575,0.011948682,0.035486296,-0.059079114,0.04569734,0.041324046,-0.04833492,-0.01339562,0.12061012,-0.14442727,-0.027370064,-0.03574395,-0.1733387,0.02795513,-0.2526833,0.055032056,0.057995826,-0.043559596,-0.12798418,-0.03401792,-0.15002881,0.0958355,0.24418935,0.065352574,-0.14932574,-0.16116495,-0.03655449,0.06897995,-0.017077452,0.03520914,-0.04862979,0.026975535,0.09034716,0.00046719145,0.08286098,0.09177387,-0.18297914,-0.006227877,-0.068892755,-0.055028446,0.07094671,-0.032888424,0.05824374,0.0007626922,-0.03668165,-0.14807405,0.01688255,0.067515135,0.033641826,-0.024182571,-0.19706282,-0.1041523,-0.09323072,-0.09803139,0.046750817,-0.046971057,0.04066277,0.10318061,-0.09203341,0.03724346,-0.08028284,0.012598046,-0.010657056,0.004656755,0.07620327,-0.074416004,0.103952155,-0.08087508,0.03479698,0.060142554,0.048840523,-0.1982666,-0.0079230415,0.09816324,0.12439689,0.10249968,-0.044626657,0.038656887,-0.08719015,-0.09886873,-0.00684386,-0.011854472,0.015215426,0.09270366,0.0333532,0.035557624,0.14938472,0.026933594,-0.16583441,0.0879871,0.0141386585,0.00929795,-0.029853262,0.096506216,-0.046607696,0.0314691,-0.01742816,-0.02139027,-0.04207082,-0.030370602,-0.0074151005,0.027134841,-0.034034345,-0.09285148,-0.054519594,0.002606847,0.06755381,-0.018183773,-0.0034151117,0.027860593,-0.061567876,-0.0047523486,0.048552226,0.0277562,-0.0121930195,-0.02611686,-0.06600305,0.021182902,-0.019256888,-0.011940488,-0.11316209,0.055501487,0.17702991,-0.084301636,0.0018415315,-0.010408604,0.0603913,-0.05904644,-0.096882984,-0.047047153,-0.09824783,-0.1297528,-0.0506985,0.025134789,0.004602686,-0.115894176,0.026763557,0.017418485,0.023527024,-0.06561582,0.08380836,-0.034572013,0.0037576698,-0.14112224,-0.090745345,0.026322454,-0.00465064,0.033816144,-0.08299533,-0.0033237236,-0.08651318,0.05669026,0.114753544,-0.038202353,0.06314297,-0.07968493,0.19837992,0.074459225,-0.07685763,-0.118180655,0.051770825,0.087565936,0.017090326,0.092614494,0.25766325,-0.0033081835,0.03211093,-0.098244146,0.024735289,0.033833515,0.063839465,-0.0011334973,-0.040400732,-0.0064484216,-0.04480048,-0.010322637,-0.049243648,-0.02304536,0.119774714,0.12531866,-0.04964865,-0.08125957,-0.0039366162,0.009617675,-0.0010575757,-0.041317213,0.01730036,-0.059722777,-0.04859097,0.18454142,-0.00023190542,0.06757294,0.016714074,0.0130069675,-0.020403368,-0.11477367,0.07512637,0.01687256,0.107669085,-0.07694402,-0.0045213564,0.014215097,0.072393395,0.08024711,0.077415295,0.02517475,-0.12915404,0.054733682,-0.0530387,0.067692295,-0.031841032,-0.022286508,-0.042961527,0.0026063032,0.050774846,-0.04992135,0.00021473768,0.01493992,0.011083497,0.008797697,0.0978712,0.052462343,0.14627448,-0.0018213874,-0.07751104,0.059408374,-0.05449082,-0.0014309803,0.00040386984,-0.17110816,0.04917916,0.0033725654,0.09238416,-0.056087244,-0.09146209,-0.013454176,0.024741365,-0.025905719,-0.030176966,-0.027119791,0.020513888,-0.015584207,0.021954153,0.039824635,-0.12397035,0.099013455,0.0036111295,0.086379655,-0.034785237,-0.13203444,0.07801356,-0.03308321,0.07853063,0.0323663,0.015324442,0.0076583773,-0.07079462,-0.010448619,0.06334419,-0.029234584,0.12012877,-0.048860576,-0.050171565,-0.031741872,-0.017139282,-0.08443538,-0.1496055,-0.07388769,0.0015821947,0.04646776,0.00603587,0.01117542,0.008949568,-0.029225748,-0.031110134,0.073852,-0.1015435,0.020424506,-0.09287628,-0.088430256,-0.0057621603,-0.02603565,0.026003795,-0.02502543,-0.1355195,-0.06696566,-0.050552253,-0.07409551,-0.073658906,0.028782628,-0.018327238,0.061495047,0.06399337,0.14360805,-0.012060063,-0.09583243,-0.008964574,0.044354197,-0.0822314,-0.024463842,0.06392877,0.03469815,-0.012077877,-0.08820594,0.13487999,-0.07380572,0.11189935,-0.0961979,-0.047789976,-0.04435881,-0.0220325,-0.13579622,0.028625648,0.009141774,0.021410692,-0.013192575,0.030389741,0.1033718,-0.013934882,-0.018727789,0.02034281,0.022368426,0.022685146,-0.11391809,-0.1861045,0.06499795,-0.048127066,-0.062206935,0.03425835,0.12426217,-0.07552661,-0.0021551403,0.00419331,0.0002901225,0.033663213,-0.025267182,-0.06263869,0.0843511,-0.076690644,0.14525865,0.06366927,-0.118856296,-0.16605277,-0.035580587,0.006111268,0.08728276,-0.0062172804,0.052135512,0.0169234,0.021846008,0.1955403,-0.14081693,0.024057688,0.07165872,0.048770197,-0.031050105,-0.04721323,0.20022453,0.053404238,0.09963674,-0.08537182,0.15149443,0.02649675,-0.009629456,-0.009974198,0.012489743,0.05384293,-0.08916375,0.037745997,-0.016502531,0.06808517,-0.043706138,0.045863003,0.05003269,-0.018185407,0.040739983,0.011398911,-0.048451044,0.09265276,-0.01093724,0.07779297,0.038701117,-0.029650085,0.030076856,0.095612474,-0.012501805,-0.07103191,-0.07037648,0.031526845,-0.022332933,-0.01243348,0.021476533,-0.021460772,-0.020703439,-0.14475976,-0.009437862,0.016265182,0.0044579743,0.021430127,0.028214915,0.05142272,0.015483273,-0.033016317,-0.060337573,0.03224666,0.047764644,-0.010775999,-0.019557862,0.0036314016,-0.005630094,-0.049706772,0.13613321,-0.010627122,-0.017115561,0.027772203,-0.13834712,0.023340296,-0.04115267,0.01998846,0.06449558,0.13249305,0.042220406,-0.0041936697,-0.026628055,-0.05400276,-0.012800408,-0.06806718,-0.11105474,0.015166053,0.073079854,0.08291033,-0.072720714,0.13287213,-0.075610876,-0.08412279,-0.023059791,-0.019581405,0.18404233,0.011038177,-0.061551727,0.021932745,0.07076253,0.009999845,0.07737869,-0.15896752,0.14332023,0.035983678,-0.11446336,-0.09861442,-0.06343035,0.047088012,0.014302289,-0.02767699,0.06425911,0.040381026,-0.04744339,0.06363451,-0.13660851,0.057302404,-0.014729586,-0.007738853,0.0008553465,0.0007534511,0.03358161,0.024926856,0.011221834,-0.01786581,0.027516153,-0.103433155,0.2739427,0.077496015,-0.057290357,0.039028816,0.03635866,-0.04292184,-0.0019536272,0.017005185,-0.06530162,-0.08891206,0.0015939992,0.10510358,0.012877375,-0.046092954,-0.091546305,0.05375793,-0.042457618,0.17579095,0.09428177,0.034283858,0.038626797,-0.0047117607,0.021798175,0.0450726,-0.01887093,-0.031130344,-0.0016346588,0.008426421,-0.09741079,-0.020557977,-0.017181156,0.045619708,-0.047409892,-0.009333468,0.08430879,-0.014357527,0.19420929,0.08967953,-0.0361135,0.07970766,0.007213253,-0.054381542,-0.027210688,0.055536643,0.14149806,0.04021708,0.028138693,-0.030949282,-0.025006523,0.18917994,0.026961774,0.04936622,0.14419499,0.3313008,0.011073585,-0.05913784,-0.116208635,-0.03580358,0.098614074,-0.06374314,-0.018598553,-0.04253171,0.031664334,-0.054238867,0.008975291,0.17305742,0.0256525,-0.015645696,0.06828771,0.049247876,-0.115077846,0.045182265,0.0021433537,0.046576634,0.009647106,0.053015936,-0.04844641,-0.14519078,0.006466737,0.08829305,0.0473971,-0.038527455,0.0002293401,-0.06334177,0.019597927,0.009143406,0.026675636,0.0026465387,-0.0058267033,-0.023104448,0.004902817,-0.017434316,0.09255397,0.035526983,-0.107870996,0.035245713,-0.05654231,-0.13033451,-0.016920147,0.06854185,-0.05392361,-0.171429,-0.040640168,0.23293574,-0.08983316,-0.011063505,0.0417258,0.08929021,0.08307263,0.025866743,0.17981325,-0.044347264,-0.006632085,-0.02257072,-0.10041189,0.010221207,0.018075716,0.046058536,0.056669775,0.006621095,-0.06518826,0.028122073,0.05922945,0.010524743,-0.079408675,0.009227561,-0.056842946,0.095730916,0.01959314,0.035048123,-0.06759746,-0.0033631076,-0.07755259,0.013359029,-0.053442407,0.18790549,0.0033934966,0.05898046,0.1321166,-0.120484605,0.07676359,-0.07513047,0.054324135,0.07749046,-0.16831441,0.05884199,-0.0027114106,-0.18239635,-0.065490276,-0.06480853,0.051489968,0.011509574,0.012756102,0.20118736,0.084880896,-0.016840817,-0.106697366,-0.113811016,-0.049803257,-0.0053402693,0.052725323,-0.00036670303,0.13382357,-0.082093686,-0.0453579,0.037458587,-0.04517403,-0.014346622,-0.12337478,0.075900055,-0.028208457,-0.029235069,-0.08146093,0.01762744,0.043331202,0.035042986,-0.061599225,0.10821359,0.06263258,-0.050258297,-0.039374407,0.04888212,-0.096587054,0.024596859,-0.06527304,-0.017326273,0.007155179,-0.028422058,0.12074031,0.048524953,0.0064026793,0.030643228,0.010904702,-0.13506646,0.004723116,0.0012112862,-0.020036004,0.09657648,-0.03729538,0.11953634,-0.119800106,-0.023764372,-0.045435432,-0.015800012,0.072101094,-0.043531295,0.06693872,-0.021531718,-0.08001288,-0.06610042,0.12854277,-0.1255552,0.02541933,0.12688926,-0.081173286,-0.057178345,0.20152408,0.025402855,-0.0493031,-0.034337237,0.04469707,-0.0062003015,0.025424022,-0.03362266,-0.022087647,0.04313081,0.012971759,-0.00065412803,0.042569056,-0.009597078,-0.0765382,0.031775493,-0.056123413,0.0017933272,0.014029949,0.053448763,0.058770448,0.1739133,-0.067496255,-0.036349963,0.004950416,-0.073743336,-0.022253387,0.06969762,-0.019840054,-0.022378424,0.015666049,0.07174345,-0.059468485,-0.09181068,-0.13737929,0.00573004,-0.0061553367,0.10944544,0.107293345,0.0011726847,0.01761773,0.030013977,0.05174791,0.16581844,0.041717097,-0.053355586,0.023575509,0.1123187,-0.048437834,-0.07844067,0.02768505,0.1711175,-0.0050424505,0.02891423,0.10518572,0.09173896,-0.020300226,-0.013831503,-0.121197134,0.004876301,0.08960714,0.042060807,0.16109195,-0.03578681,0.08572688,0.05671128,-0.01722412,-0.03606339,0.19978583,0.04640933,-0.07568985,-0.16087969,0.21806744,0.16601057,-0.007025286,0.028030258,0.12513682,0.013742606,-0.021999894,0.046473816,0.010482634,-0.041713435,-0.035618998,-0.053334255,0.0021413614,-0.08928036,-0.029919242,-0.09239474,-0.042350978,-0.0022098476,0.04264211,-0.0045970096,-0.09903505,0.053514905,0.110046655,-0.05698159,-0.014289907,0.05727572,-0.008407892,0.08325295,0.009484353,-0.09845712,0.051031847,-0.024177663,-0.05871535,0.10020816,0.04442245,-0.08241076,-0.021976452,-0.017446605,-0.08179512,0.0395855,-0.041198265,0.093518265,0.055454563,0.104279265,0.020017153,-0.07736813,0.013106113,-0.014285765,0.14112096,-0.13885559,0.17179269,0.0095858425,-0.055622764,0.0008332437,-0.1151249,-0.08697958,-0.098623514,-0.07346316,0.009009581,-0.04459127,-0.069036596,0.052786745,0.036581837,0.056029983,0.18895586,0.038043257,-0.062214654,0.00051160785,0.014337148,-0.004257492,0.05223599,-0.011100194,-0.035885125,0.03404112,0.063648246,0.03870136,0.084246516,0.088417225,-0.04962237,0.008715499,-0.0058719493,0.10889396,-0.02729273,-0.0965254,-0.00087842555,0.0030551895,0.024384268,-0.02382715,-0.07875026,-0.14515206,-0.051762383,-0.01682141,0.08847255,-0.10491259,-0.04272782,0.027074108,0.053201336,-0.07436677,0.03547757,-0.012683264,-0.065612845,0.023157205,0.036229447,0.0045755794,-0.024526503,0.06642702,0.09336134,-0.11627444,-0.028320579,0.01477122,-0.0058155647,-0.112005174,-0.12001668,0.11996552,-0.0475267,-0.0625153,-0.03645242,0.09049,0.050743673,0.041306436,0.07815328,0.049145136,-0.135759,-0.015153172,0.0810637,0.011107336,-0.049491033,0.20442593,0.043228343,-0.074489966,0.0027418626,0.06831298,-0.07257145,0.0080501735,-0.054525588,0.038575176,0.1585204,-0.022373496,-0.04157112,0.01750288,0.071570925,-0.036353543,0.02045452,0.06788268,-0.0049953414,0.088805765,0.13737646,-0.021229388,-0.081228316,0.107694484,-0.10510266,-0.07440046,-0.18381846,-0.043698825,0.039627597,-0.08253969,-0.027430596,-0.020348327,-0.0014834412,-0.03189386,-0.043008022,-0.029843645,0.20845385,-0.025192015,-0.12930179,0.080433615,0.040981963,0.03372697,-0.0451353,-0.009330601,0.086558536,-0.13881344,0.001910007,0.029469397,0.07623442,-0.015484285,0.06117449,-0.029345503,0.04358556,-0.05075538,-0.024225079,0.046182666,-0.08620141,0.0045215487,-0.017002547,-0.059230812,-0.06434463,-0.114910446,0.06368568,-4.945057,-0.023944441,0.09973342,-0.03891548,0.0011616099,-0.016785454,-0.027511375,0.044597056,0.09638358,0.021562783,0.0077913175,-0.09600052,0.014589888,-0.023805056,0.0049435324,0.03249456,-0.0013276327,0.032204222,-0.02733581,0.05300574,-0.07271645,-0.044642176,-0.0045285556,0.18729044,-0.03744759,-0.08850723,-0.051072504,-0.02055826,0.06389769,0.19669254,0.050717507,0.096739665,-0.044050578,0.22269951,0.026041523,0.103473574,0.040124066,-0.034156546,0.16149367,0.008380546,0.17464629,-0.06502316,0.05073315,-0.04182624,-0.03369681,-0.068153664,-0.030545993,-0.09054857,0.088671006,-0.01598486,0.05271564,-0.0030953002,0.014257903,-0.05611753,0.057304878,-0.026015157,-0.105606444,0.15016843,0.04743373,0.022833288,0.03844975,-0.012165378,-0.07741321,0.12919542,-0.0363281,-0.085098654,-0.0035781856,-0.04391488,-0.03375349,0.051583163,0.14073415,0.03296701,0.0039190026,0.16299523,0.0032052684,0.028867286,-0.075139515,-0.102749854,0.11967211,-0.0010752794,-0.2448629,0.03783522,-0.10604521,0.06024389,0.11296964,0.005815359,0.012958535,0.10226982,-0.061249934,-0.011409461,0.04837036,0.10449961,0.013940332,-0.00879931,0.18508981,-0.031488523,-0.034999203,0.03393166,0.13121827,-0.025555504,0.0308177,0.11281172,-0.011930736,0.108635284,0.035016526,-0.050742425,-0.039261602,-0.027406536,0.08448189,0.06552537,0.029684523,-0.018465336,-0.073811784,0.0553202,0.02007911,-0.0034803087,0.081448264,-0.16208361,0.09750506,0.025718188,1.1183707,-0.49185166,-1.0434378
